{"model_data": {"model": "SimpleRNN", "input_size": 3, "skip": 1, "output_size": 1, "unit_type": "LSTM", "num_layers": 1, "hidden_size": 20, "bias_fl": true}, "state_dict": {"rec.weight_ih_l0": [[-0.04635179787874222, -0.12028172612190247, 0.030203932896256447], [0.009986426681280136, 0.1566564440727234, 0.10534494370222092], [0.015467206947505474, -0.0026255990378558636, -0.0003011935332324356], [0.005283253733068705, 0.318840891122818, 0.29264551401138306], [0.04878239706158638, 0.21075299382209778, 0.0833243876695633], [-0.0016762570012360811, -0.3283211886882782, 0.4700314700603485], [-0.0009922506287693977, -0.012513069435954094, -0.01703440211713314], [0.002501916838809848, 0.0017897012876346707, 0.28482428193092346], [0.07712719589471817, 0.17459408938884735, -0.004723957274109125], [0.0014437022618949413, 0.5989789366722107, 0.10804849863052368], [3.1434181437361985e-05, 0.0669524148106575, 0.013883844949305058], [-0.092007577419281, 0.08466890454292297, 0.031436748802661896], [0.1595459282398224, -0.3255889117717743, -0.31937175989151], [-0.035574447363615036, -0.6336794495582581, -0.4753260910511017], [0.032318536192178726, -0.1857484132051468, 0.20384001731872559], [-0.01384003646671772, 0.2423809915781021, 0.30077043175697327], [-0.13866092264652252, -0.017492951825261116, -0.04475424066185951], [0.022990819066762924, 0.09411457180976868, 0.008566079661250114], [0.01951640285551548, 1.210679054260254, 0.028681408613920212], [-0.042401790618896484, 0.11730389297008514, 0.5238108038902283], [-0.09019413590431213, -0.07100513577461243, 0.18257060647010803], [0.019167965278029442, 0.1828005015850067, 0.11589284986257553], [0.014342818409204483, 0.032702088356018066, 0.04300738498568535], [0.006212521344423294, 0.17755886912345886, 0.08507365733385086], [0.05575253814458847, 0.22895307838916779, 0.4136115312576294], [0.02512414939701557, 0.04125698283314705, -0.4334864020347595], [-0.00038552313344553113, -0.00577428238466382, -0.011845392175018787], [-0.04819906875491142, 0.11467450857162476, 0.41216233372688293], [0.09498705714941025, -0.03269542381167412, -0.3387550413608551], [0.030859587714076042, 0.36361947655677795, 0.08587959408760071], [0.013308098539710045, 0.2999504804611206, 0.2202034890651703], [-0.18452127277851105, 0.17941056191921234, 0.14407306909561157], [0.004558218643069267, 0.6204885840415955, 0.36834457516670227], [0.06515990942716599, 0.7702266573905945, 0.7571972608566284], [0.06358598172664642, -0.2596600353717804, 0.15622758865356445], [0.019348924979567528, 0.10853048413991928, -0.05593256652355194], [-0.18870118260383606, 0.12777851521968842, 0.006307401694357395], [0.05776561051607132, 0.14631712436676025, 0.14953497052192688], [0.051030028611421585, 0.05297712981700897, 0.07881776243448257], [-0.03978141024708748, -0.22367608547210693, 0.19055750966072083], [0.09622103720903397, 0.09289820492267609, -0.05601547285914421], [0.08999569714069366, 0.043229129165410995, 0.37293264269828796], [0.022534316405653954, 0.16720347106456757, -0.3336338996887207], [0.46571648120880127, -0.08704791218042374, -0.007935759611427784], [0.0989159494638443, 0.027563076466321945, -0.6195314526557922], [-0.4502677917480469, 0.02588506229221821, -0.15660887956619263], [-0.026722630485892296, 0.02579629234969616, -0.006158255040645599], [0.08577712625265121, -0.07119882851839066, -0.10372908413410187], [0.1292516440153122, -0.015284217894077301, -0.36436623334884644], [1.6712287664413452, -0.0027868764009326696, -0.18932713568210602], [0.03464550897479057, -0.7324827909469604, 0.11682803183794022], [-0.3258879780769348, -0.04545772448182106, 0.007831414230167866], [-0.3831159174442291, -0.01250984612852335, -0.0429002046585083], [-0.7674689292907715, 0.00012047030759276822, 0.01307568047195673], [0.029104549437761307, -0.009600901044905186, -0.0041219755075871944], [1.2805379629135132, -0.011901120655238628, 0.43285462260246277], [-0.13789384067058563, -0.15206333994865417, 0.017693322151899338], [-0.05268267169594765, 0.12042083591222763, 0.049946706742048264], [-0.3412829637527466, 0.03229436278343201, 0.06589822471141815], [-0.13506624102592468, -0.05918634682893753, 0.34389829635620117], [-0.11854573339223862, -0.045417968183755875, 0.08448829501867294], [-0.008716912008821964, 0.010914893820881844, -0.025256924331188202], [0.017487531527876854, -0.01330631598830223, 0.006563546601682901], [0.008186773397028446, 0.3736787736415863, 0.31362617015838623], [0.14702096581459045, -0.02598157711327076, 0.2463102787733078], [-0.019922178238630295, 0.18286670744419098, 0.4368596374988556], [-0.0010032771388068795, -0.012550818733870983, -0.01707855612039566], [0.03223662078380585, 0.12000880390405655, 0.37086108326911926], [0.11041534692049026, 0.11235281080007553, -0.051503948867321014], [0.025845903903245926, 0.543250560760498, 0.2006661295890808], [-0.08303453773260117, -0.05907310172915459, -0.014416788704693317], [0.02306736633181572, 0.2427717000246048, 0.1505221426486969], [-0.10165148973464966, 0.23155339062213898, 0.3347282409667969], [0.010692466050386429, -0.15382851660251617, -0.22378122806549072], [0.04784407839179039, -0.14531511068344116, 0.25438815355300903], [-0.01254111248999834, 0.23901894688606262, 0.32568973302841187], [-0.18045519292354584, 0.030453694984316826, 0.012246590107679367], [0.047679416835308075, 0.16859367489814758, 0.05255173519253731], [-0.044863130897283554, 0.18472088873386383, 0.31233635544776917], [-0.06081000342965126, 0.04384039342403412, 0.6025110483169556]], "rec.weight_hh_l0": [[0.04421716928482056, -0.07141769677400589, -0.005948415957391262, 0.09554214030504227, 0.07176054269075394, -0.04861784726381302, 0.009235989302396774, -0.09618828445672989, 0.017614657059311867, -0.17214372754096985, 0.1423105150461197, -0.02002253383398056, -0.11188827455043793, -0.058653753250837326, 0.1631273478269577, -0.1610916405916214, 0.10384668409824371, -0.10275881737470627, -0.0803932249546051, 0.04148983210325241], [0.03887520730495453, -0.04046691581606865, -0.003008555853739381, -0.015440016984939575, -0.07195568084716797, -0.009149697609245777, -0.0017976631643250585, -0.04969310760498047, 0.08853572607040405, 0.035794783383607864, -0.10228590667247772, 0.1198534369468689, 0.013258662074804306, 0.005050142295658588, -0.05213923752307892, -0.007784280460327864, 0.009693927131593227, -0.055496927350759506, 0.06715288758277893, -0.008150252513587475], [-0.005994703155010939, 0.04683505743741989, 0.005175674334168434, -0.030715985223650932, -0.007136883679777384, 0.029777642339468002, 0.003675485262647271, 0.0089969327673316, -0.01774105802178383, 0.02619381994009018, -0.04349283501505852, -0.07101549208164215, -0.0012059424770995975, 0.007083206437528133, -0.022539375349879265, 0.020210620015859604, -0.0027294557075947523, 0.02372499741613865, 0.01858651265501976, -0.013288723304867744], [-0.014093132689595222, -0.060598984360694885, -0.01471283845603466, -0.0120291318744421, -0.07364056259393692, -0.03840518370270729, 0.003853985806927085, -0.025665320456027985, 0.03359441086649895, 0.019299084320664406, -0.07018052786588669, 0.3297427296638489, 0.012878823094069958, 0.0028293991927057505, -0.04174686223268509, 0.015025680884718895, -0.02526632510125637, 0.0010042033391073346, 0.044447775930166245, -0.010018846951425076], [0.03708487004041672, 0.05720064789056778, -0.04531670734286308, 0.12573444843292236, -0.19372358918190002, 0.19463495910167694, 0.006703989114612341, -0.15489983558654785, -0.11286517232656479, -0.04240832105278969, 0.06518445909023285, -0.0736732929944992, 0.047873955219984055, 0.039067063480615616, 0.11317762732505798, -0.08673457056283951, 0.044693343341350555, 0.005710995756089687, -0.3040766417980194, 0.17525061964988708], [0.33603203296661377, 0.6803306341171265, -0.05866299942135811, 0.07166267931461334, -0.4332525432109833, -0.10831505060195923, 0.01598382741212845, -0.3222057819366455, -0.013339187018573284, -0.06726515293121338, 0.0919615775346756, -0.39008259773254395, 0.05531793087720871, 0.07274747639894485, -0.3516005575656891, 0.07197785377502441, 0.045474257320165634, 0.12389987707138062, 0.08077717572450638, 0.22126689553260803], [-0.001852448913268745, -0.004354457370936871, 0.0003377775428816676, 0.0019069985719397664, 0.010326034389436245, 0.004579446278512478, -0.00029892154270783067, 0.004880159627646208, -0.003962798975408077, -0.0023017541971057653, 0.00675585912540555, -0.011191210709512234, 0.0010804253397509456, -0.004407399799674749, 0.00018866703612729907, -0.0023390541318804026, 0.0014160779537633061, 0.001589763443917036, 0.0038964690174907446, 0.0013642068952322006], [0.061274945735931396, 0.023428505286574364, -0.031544607132673264, -0.022935213521122932, -0.16979162395000458, 0.1041615754365921, 0.030761156231164932, -0.1006660982966423, -0.10617168992757797, 0.024611245840787888, -0.037188462913036346, 0.023024069145321846, 0.008836431428790092, -0.019736992195248604, -0.03082183375954628, 0.026930777356028557, 0.015032841823995113, -0.010809925384819508, 0.16846723854541779, 0.06723611056804657], [0.0844937413930893, -0.05509844422340393, 0.009117206558585167, -0.0032529314048588276, 0.009242457337677479, -0.028332768008112907, 0.010947798378765583, -0.025495249778032303, 0.10855605453252792, 0.028990518301725388, -0.034594759345054626, 0.20633955299854279, -0.05537095293402672, -0.022184716537594795, -0.036763545125722885, 0.015040868893265724, 0.003718014108017087, -0.011068619787693024, -0.07883071154356003, -0.12135929614305496], [-0.00923952180892229, -0.2014392763376236, 0.025394970551133156, 0.03820168599486351, -0.04120402783155441, -0.024290593340992928, -0.0007756122504360974, -0.026954861357808113, 0.05733253061771393, -0.05352078378200531, -0.35510602593421936, 0.21793563663959503, -0.024665316566824913, -0.048666760325431824, 0.034088004380464554, 0.014485709369182587, -0.1748998612165451, 0.01906796731054783, -0.05104794353246689, -0.02077888324856758], [-0.048037271946668625, -0.01190804224461317, -0.004501556511968374, 0.006253138650208712, -0.03675822541117668, -0.034226398915052414, -0.0054420786909759045, -0.014544500969350338, 0.02550383098423481, 0.02100227400660515, -0.0549231618642807, 0.12173612415790558, -0.01785096526145935, -0.0366642102599144, 0.0008059545652940869, -0.008302340283989906, -0.06363866478204727, -0.01374148204922676, 0.022150536999106407, -0.01676885411143303], [0.033230412751436234, -0.023571962490677834, -0.012150946073234081, 0.012905917130410671, -0.03108486905694008, -0.0379578061401844, -0.005616190377622843, 0.007036596070975065, 0.012182439677417278, -0.022135552018880844, -0.05390453711152077, 0.1492953598499298, 0.14532779157161713, 0.07460238039493561, -0.02927144058048725, -0.06171553581953049, -0.033685650676488876, -0.010271132923662663, -0.050106231123209, -0.010748346336185932], [0.3828093111515045, 0.22811773419380188, 0.1674818992614746, -0.16854636371135712, -0.15123511850833893, 0.08219920098781586, -0.035883862525224686, -0.13539394736289978, 0.1509084850549698, 0.12709681689739227, 0.20968513190746307, -1.039934754371643, 0.2529044449329376, 0.07361429184675217, -0.3006966710090637, 0.28386732935905457, 0.8390856385231018, 0.40279027819633484, -0.05796485021710396, 0.1295495182275772], [0.13797585666179657, 0.12746156752109528, -0.0009791015181690454, -0.036444347351789474, 0.022771267220377922, 0.07126349210739136, -0.0029714496340602636, -0.0574495755136013, -0.010202229954302311, -0.016455911099910736, 0.07003413885831833, -0.623361349105835, 0.09471350163221359, 0.0049933260306715965, -0.10732091218233109, -0.0538448803126812, 0.1805979460477829, 0.02415536530315876, 1.8497690916774445e-06, 0.02326655387878418], [-0.07480036467313766, 0.022387955337762833, -0.038644030690193176, -0.16924090683460236, 0.07642509788274765, 0.13276095688343048, 0.010605165734887123, 0.14542149007320404, -0.19752246141433716, 0.12977036833763123, 0.2245076447725296, 0.05702206492424011, 0.050760842859745026, 0.015929043292999268, -0.07948298752307892, 0.1246250569820404, 0.053060587495565414, 0.06201973930001259, 0.08941475301980972, 0.05379381775856018], [0.03454774245619774, -0.11448600143194199, -0.03430379554629326, 0.012454763054847717, -0.06628473103046417, -0.028175700455904007, 0.003662983886897564, -0.04803469032049179, 0.028436455875635147, -0.01980973221361637, 0.029339758679270744, 0.34897223114967346, 0.011930696666240692, 0.020901188254356384, -0.04095029830932617, -0.01137771550565958, -0.04228688403964043, -0.0183629859238863, 0.06515193730592728, 0.00891870353370905], [0.06871841847896576, 0.05012121796607971, -0.004421025514602661, 0.20113864541053772, -0.013952065259218216, -0.03813203424215317, -0.006845653057098389, -0.012835117988288403, -6.134706200100482e-05, -0.22118037939071655, -0.03454950824379921, 0.02289891056716442, 0.0067156897857785225, -0.003420062130317092, 0.06231153756380081, -0.1356545239686966, 0.1084589883685112, -0.05935344099998474, -0.18908829987049103, -0.0504436157643795], [0.020638665184378624, 0.05385252460837364, 0.010132696479558945, -0.06225825846195221, -0.00608249194920063, 0.10369513183832169, 0.00880129262804985, -0.01428245473653078, 0.0010695024393498898, 0.04885667562484741, -0.08919771015644073, -0.029204413294792175, 0.03809692710638046, 0.004375631455332041, -0.06587892025709152, 0.019104905426502228, 0.0017289344687014818, 0.045513689517974854, 0.13602255284786224, -0.03978550061583519], [0.37553977966308594, 0.03047780878841877, 0.08028554916381836, -0.0313202403485775, -0.16133618354797363, 0.05862979218363762, -0.0019272423814982176, -0.037997424602508545, 0.04281236603856087, -0.010155324824154377, -1.040686011314392, 0.08509016782045364, 0.016015028581023216, 0.058643147349357605, -0.28007054328918457, 0.06012847647070885, -0.01481697428971529, 0.12477829307317734, 0.05860782787203789, -0.07323350757360458], [-0.0010265202727168798, 0.11446154862642288, -0.06337705999612808, 0.0067048873752355576, -0.15115423500537872, 0.029895899817347527, 0.016239991411566734, -0.10320769995450974, -0.3154681324958801, -0.03735850378870964, -0.020412525162100792, 0.1345563381910324, 0.04867388680577278, 0.03504956513643265, 0.05617348477244377, 0.020847303792834282, 0.04837682098150253, -0.01645786687731743, -0.040528133511543274, 0.12792734801769257], [-0.043119605630636215, -0.11886534094810486, -0.02245469018816948, 0.15792492032051086, 0.0295636598020792, -0.12570515275001526, 0.0033713120501488447, -0.09420420974493027, 0.014551716856658459, -0.23072662949562073, 0.051481686532497406, 0.1198454350233078, -0.0859064981341362, -0.03648998960852623, 0.21135620772838593, -0.18272696435451508, 0.06701888889074326, -0.1185833215713501, -0.12245463579893112, 0.07295145094394684], [0.0497719943523407, -0.19470274448394775, -0.008308520540595055, 0.07174982130527496, -0.014026705175638199, -0.0201998520642519, -0.008226498030126095, -0.053591519594192505, 0.16387367248535156, -0.01024711038917303, -0.043455593287944794, 0.19413885474205017, -0.034261733293533325, -0.028240613639354706, -0.07353326678276062, -0.00829863641411066, 0.0003890003717970103, -0.13111841678619385, 0.12053591012954712, -0.055234525352716446], [-0.005432089790701866, 0.03723860904574394, 0.0036883645225316286, -0.026533234864473343, -0.007699092384427786, 0.024990350008010864, 0.0022943944204598665, 0.006088858004659414, -0.015236646868288517, 0.02215726114809513, -0.030100222676992416, -0.03677324578166008, -0.0018644265364855528, 0.006771559827029705, -0.02225387655198574, 0.017940716817975044, -0.001647896715439856, 0.02278893068432808, 0.017606349661946297, -0.012195203453302383], [0.006028990261256695, -0.052932675927877426, -0.006865478120744228, -0.00402952590957284, -0.01212751492857933, -0.050978049635887146, 0.0004320491570979357, 0.00876263901591301, -0.0023522390983998775, -0.011964146047830582, -0.041376035660505295, 0.11563904583454132, 0.04318278655409813, 0.026897992938756943, 0.004367752932012081, 0.06313681602478027, 0.0555831715464592, -0.035274237394332886, -0.11418408900499344, -0.00047416373854503036], [0.10724040865898132, -0.16826856136322021, -0.12091320008039474, 0.14311739802360535, -0.154439777135849, 0.19542196393013, 0.01673908531665802, 0.03902649134397507, -0.23819398880004883, -0.012625547125935555, 0.17272058129310608, 0.23789942264556885, 0.07149281352758408, 0.07207907736301422, 0.11107807606458664, -0.03188223019242287, 0.07758715748786926, 0.015767112374305725, -0.40614572167396545, 0.19118596613407135], [0.20991860330104828, -0.5843468308448792, 0.08682188391685486, 0.045267608016729355, 0.15433600544929504, -0.16197103261947632, 0.012825260870158672, 0.11619248986244202, 0.4196266233921051, 0.13217169046401978, -0.04176437854766846, 0.5217188596725464, -0.1157684475183487, -0.15492646396160126, -0.17423005402088165, -0.20715902745723724, -0.21472467482089996, -0.04422030970454216, 0.1491759866476059, 0.23720450699329376], [-0.001418465399183333, -0.005993469152599573, 0.00028507824754342437, 0.0017361724749207497, 0.008781710639595985, 0.004712134134024382, -0.00031007465440779924, 0.004476174246519804, -0.0027923735324293375, -0.0023858712520450354, 0.000546605559065938, -0.004458999261260033, 0.0017079862300306559, -0.003681073198094964, 0.0031564768869429827, -0.004332843702286482, 0.0006704367697238922, -6.613315690628951e-06, 0.0034604505635797977, 0.0008541024872101843], [0.13230177760124207, -0.2766042947769165, -0.024702288210392, 0.09647174924612045, -0.08764144778251648, 0.0867164134979248, 0.039272502064704895, 0.04018959403038025, -0.11916622519493103, -0.08412079513072968, 0.027009548619389534, 0.168937548995018, -0.0005052177584730089, -0.033926088362932205, 0.05962497740983963, -0.018026145175099373, 0.04974958673119545, -0.01709471456706524, 0.08744927495718002, 0.13629446923732758], [0.17339496314525604, -0.17162659764289856, 0.0480121448636055, 0.07641275227069855, 0.2746141254901886, 0.054195258766412735, 0.017184454947710037, 0.07521497458219528, 0.1344127506017685, -0.0226269718259573, 0.17413099110126495, 0.13324473798274994, -0.13252121210098267, -0.03246896713972092, 0.002675495343282819, -0.014596802182495594, 0.09367486089468002, -0.02334611304104328, -0.19739659130573273, -0.24008983373641968], [-0.1457805037498474, -0.2437048852443695, 0.031724076718091965, 0.1281270682811737, 0.06674686819314957, -0.06645005941390991, 0.003563129110261798, -0.0105263227596879, 0.05888274312019348, -0.06524447351694107, -0.23496867716312408, 0.07763863354921341, -0.07836988568305969, -0.10364872962236404, 0.17734208703041077, -0.004281160421669483, -0.353933721780777, 0.01669241487979889, -0.10495878010988235, 0.005834225099533796], [-0.12686793506145477, -0.14379842579364777, -0.016440097242593765, -0.02453519217669964, -0.06443177908658981, -0.01887650415301323, -0.007905121892690659, 0.007476441562175751, 0.04555612802505493, 0.08454010635614395, -0.12019219994544983, 0.45949867367744446, -0.017626268789172173, -0.019859887659549713, -0.04379718378186226, -0.015133689157664776, -0.16086386144161224, 0.02212086133658886, 0.05897335335612297, -0.030066609382629395], [0.04290639981627464, -0.10970774292945862, -0.03435160592198372, 0.08812044560909271, -0.05898241326212883, -0.08835085481405258, -0.012552172876894474, -0.002964774612337351, 0.012360802851617336, -0.09210473299026489, -0.1252879798412323, 0.38474902510643005, 0.23253248631954193, 0.0999891385436058, -0.04342031851410866, -0.17034636437892914, -0.0881844013929367, -0.04711857810616493, -0.09203710407018661, -0.04870171099901199], [-0.18615058064460754, -0.36862656474113464, -0.0873451754450798, 0.06145624816417694, 0.03344031795859337, -0.06362925469875336, -0.019429609179496765, 0.043927211314439774, 0.1226702556014061, -0.016244981437921524, -0.26833420991897583, 0.8725668787956238, -0.09200290590524673, -0.05760393664240837, 0.1146635115146637, -0.16174259781837463, -0.15930700302124023, -0.14366281032562256, -0.11748013645410538, 0.04624446853995323], [0.02591545693576336, -0.49962812662124634, -0.07720375061035156, 0.014545074664056301, -0.05363462492823601, -0.1707509160041809, -0.01352380309253931, -0.046919163316488266, 0.17758068442344666, 0.08248013257980347, -0.11836923658847809, 1.2276151180267334, -0.012293703854084015, 0.10845919698476791, -0.11680728942155838, -0.10219363868236542, -0.14359895884990692, 0.019623827189207077, -0.09711077064275742, -0.05358893796801567], [-0.07135138660669327, -0.010282942093908787, -0.0254299845546484, -0.19808368384838104, 0.14780834317207336, 0.059971295297145844, 0.0048631480894982815, 0.20110991597175598, -0.18442663550376892, 0.15388013422489166, 0.1519412398338318, 0.004898434039205313, 0.007801562547683716, -0.024460049346089363, -0.05480320751667023, 0.20517364144325256, 0.04543304815888405, 0.030014557763934135, 0.08135899901390076, 0.03744043782353401], [0.0793289765715599, -0.2210364043712616, 0.0196794755756855, -0.1142456978559494, 0.06564240902662277, -0.08652365207672119, 0.007772153243422508, -0.005957246292382479, 0.07598831504583359, -0.0010345673654228449, 0.009433789178729057, 0.06819260120391846, -0.018573308363556862, 0.06258538365364075, 0.013868734240531921, 0.03412763029336929, -0.09174700826406479, -0.07979140430688858, -0.021342825144529343, -0.07582958787679672], [0.1275406777858734, -0.01971414126455784, 0.0014870584709569812, 0.12426818907260895, 0.02062414400279522, -0.06406762450933456, -0.011515846475958824, 0.022582417353987694, 0.015308080241084099, -0.18699167668819427, -0.03368355333805084, 0.14191727340221405, 0.12435431778430939, 0.06741839647293091, 0.06841930001974106, -0.15550675988197327, 0.17397858202457428, -0.06388342380523682, -0.21245621144771576, -0.0437362864613533], [-0.010460217483341694, -0.005539052654057741, -0.0010461675701662898, -0.11669489741325378, -0.029367435723543167, 0.13139119744300842, 0.008900447748601437, 0.034955739974975586, -0.015453373081982136, 0.10373218357563019, -0.12271437048912048, 0.10056079924106598, 0.006480889394879341, 0.014011518098413944, -0.06429685652256012, 0.04909724369645119, -0.02791638672351837, 0.07132144272327423, 0.1741943359375, 0.005661503877490759], [0.11529385298490524, -0.10912828147411346, -0.12004944682121277, 0.009074551984667778, 0.04913186654448509, -0.09167341142892838, 0.004897158592939377, -0.02501656487584114, -0.0758088082075119, 0.14623767137527466, 0.07293571531772614, 0.12480220943689346, -0.04685235023498535, 0.03085204027593136, -0.15626397728919983, 0.03999313339591026, 0.07049459964036942, -0.033704642206430435, -0.11854588985443115, 0.12226150184869766], [0.08156692236661911, 0.02115665189921856, -0.03065132535994053, 0.05907838046550751, 0.031431905925273895, 0.09652264416217804, 0.017308717593550682, 0.0012659328058362007, -0.34703078866004944, -0.0826885774731636, 0.09122700244188309, -0.07867047190666199, -0.003880939446389675, -0.0017500534886494279, 0.06620843708515167, -0.000688010361045599, 0.1539279967546463, -0.016346851363778114, -0.14508068561553955, 0.09372349083423615], [0.4098961055278778, -0.16241790354251862, -0.019324295222759247, 0.04615859314799309, 0.0017642411403357983, 0.07238787412643433, 0.0005783991073258221, -0.09625706821680069, 0.10418199747800827, -0.03495027869939804, 0.03994934260845184, -0.02565261349081993, -0.003149942494928837, -0.1250375658273697, 0.15569064021110535, -0.35305818915367126, 0.250575989484787, 0.08844374865293503, -0.6293590068817139, 0.07898962497711182], [0.05127660185098648, 0.256197452545166, -0.01152484305202961, -0.0411166176199913, -0.35342416167259216, -0.24336323142051697, -0.012018866837024689, -0.43860572576522827, 0.13724614679813385, -0.027534816414117813, -0.015996592119336128, -0.09881908446550369, 0.020412512123584747, -0.09697959572076797, 0.02637096308171749, -0.011727707460522652, 0.05141615867614746, -0.1058996394276619, 0.15206167101860046, 0.514029860496521], [0.07089240103960037, -0.17097052931785583, 0.0765347108244896, -0.011844358406960964, -0.04960403963923454, -0.0034990780986845493, -0.005031149368733168, 0.038939956575632095, 0.03628615289926529, 0.048416633158922195, -0.04467290639877319, -0.021563393995165825, -0.01158369705080986, -0.03632313385605812, 0.04576563462615013, 0.008756577968597412, 0.014474854804575443, 0.011730070225894451, 0.07576165348291397, 0.06413090229034424], [0.0017106832237914205, 0.0592423714697361, -0.015393299981951714, -0.203964963555336, 0.08641788363456726, -0.2700434923171997, -0.06893983483314514, 0.0833100751042366, -0.35802578926086426, -1.0887712240219116, -0.034759748727083206, -0.040658943355083466, 0.032491493970155716, -0.14562666416168213, -0.2928263545036316, -0.7812784314155579, -0.32525888085365295, -0.13041803240776062, 0.1916315257549286, -0.0829511359333992], [0.11336325854063034, -0.10919328033924103, 0.10801252722740173, 0.088776133954525, 0.4208846688270569, -0.042242541909217834, 0.019609645009040833, 0.12583515048027039, 0.10045772790908813, 0.058680154383182526, 0.25132328271865845, -0.04624668136239052, 0.03999587893486023, -0.1594492346048355, 0.19305942952632904, -0.19936484098434448, -0.04852932319045067, 0.1027543693780899, -0.03957232087850571, 0.10728664696216583], [-0.229275643825531, -0.05605229362845421, -0.12162034958600998, 0.21774540841579437, -0.33797913789749146, 0.34899982810020447, 0.0070564234629273415, 0.46243613958358765, -0.1742914915084839, -0.04459197819232941, -0.013403991237282753, -0.08335316181182861, -0.13428688049316406, 0.019438480958342552, -0.14460523426532745, 0.26623502373695374, -0.09041095525026321, 0.32082441449165344, 0.25756964087486267, 0.2369786947965622], [0.002231078688055277, -0.0016585501143708825, -0.003374273655936122, 0.014907478354871273, 0.024357598274946213, -0.015741877257823944, -0.0035003991797566414, -0.011098943650722504, -0.11104916781187057, -0.0027912978548556566, 0.036786604672670364, -0.0026144536677747965, -0.004778607748448849, -0.06536483764648438, 0.02444610558450222, 0.047386396676301956, 0.0008194592082872987, -0.013318109326064587, 0.014992211945354939, 0.006517650559544563], [-0.25522446632385254, 0.14614252746105194, -0.01077986415475607, -0.1188134253025055, 0.4951520562171936, -0.058102987706661224, 0.00979151576757431, 0.36843061447143555, -0.11950226873159409, -0.048224881291389465, -0.07811394333839417, 0.021864162757992744, 0.019681768491864204, 0.23838140070438385, -0.16153398156166077, 0.15907856822013855, 0.0771159753203392, 0.11371982842683792, -0.11443299800157547, -0.4904569387435913], [0.21497097611427307, -0.24032358825206757, 0.04450947418808937, 0.3438670337200165, -0.28575488924980164, -0.12837283313274384, -0.1304033249616623, -0.17612050473690033, 0.5073782205581665, 0.3956272304058075, -0.042720381170511246, 0.10021299868822098, 0.07344678789377213, 0.02034193091094494, 0.005847373511642218, -0.09005434811115265, -0.07483707368373871, -0.16132131218910217, 0.08519995212554932, 0.5374095439910889], [-0.012747368775308132, -0.03589877113699913, -0.011703413911163807, 0.13495303690433502, -0.04270121827721596, 0.06467323005199432, -0.004100042860955, -0.14538316428661346, 0.04570028558373451, 0.23211412131786346, 0.022580204531550407, 0.27733051776885986, 0.97059166431427, -0.11939772963523865, 0.015773456543684006, 0.2278430461883545, 0.07452700287103653, -0.03911514952778816, -0.06351347267627716, 0.2467915117740631], [0.0714818462729454, -0.2737368941307068, -0.02046823315322399, 0.02006424218416214, -0.10583015531301498, -0.09328146278858185, 0.05116770789027214, -0.0019341387087479234, 0.10208973288536072, 0.08256427198648453, 0.4591697156429291, 0.0737372636795044, 0.07359381765127182, -0.0076726577244699, -0.09348391741514206, 0.0204763300716877, 0.1014745756983757, -0.11979644000530243, 0.01953182928264141, 0.11989609152078629], [0.04175499454140663, 0.016331655904650688, -0.043898191303014755, 0.09648896753787994, -0.04916428029537201, -0.05391891300678253, -0.013547045178711414, 0.006407108157873154, -0.0008199455332942307, -0.035628799349069595, -0.0006769936881028116, 0.11389373242855072, 0.6205298900604248, -0.00775942113250494, -0.18207013607025146, -0.17281973361968994, 0.01085840817540884, -0.05712601915001869, 0.012879309244453907, -0.06231730803847313], [-0.025702089071273804, 0.06365195661783218, -0.028718294575810432, 0.697031557559967, 0.0629933774471283, -0.06086903437972069, 0.010881893336772919, 0.042602185159921646, -0.06544577330350876, -0.4816988408565521, -0.0778050348162651, 0.06021679565310478, 0.296531081199646, 0.006241321563720703, -0.05719178542494774, -0.02343561127781868, 0.006536380387842655, -0.1261780858039856, -0.19976675510406494, -0.012509934604167938], [-0.16297540068626404, 0.12335918098688126, -0.050875961780548096, 0.04114801809191704, 0.17640571296215057, -0.8899157047271729, -0.02253882959485054, 0.2064489722251892, -0.14676925539970398, -0.07210111618041992, -0.04433091729879379, 0.12565743923187256, -0.06308654695749283, 0.32037296891212463, -0.2309965044260025, 0.8344529271125793, -0.04191632196307182, -0.11995286494493484, -0.0003930895181838423, 0.0021367003209888935], [-0.33728674054145813, -0.19933107495307922, -0.08230973780155182, 0.28367888927459717, -0.18241459131240845, 0.054440420120954514, 0.023422259837388992, 0.05074077099561691, -0.054639071226119995, -0.03886972367763519, -0.0072789425030350685, 0.0910356268286705, -0.03831781446933746, 0.0361260361969471, 0.29482561349868774, -0.2631527781486511, -0.12727028131484985, 0.09938843548297882, -0.6588230133056641, 0.15458756685256958], [0.20212092995643616, 0.07601099461317062, 0.033405106514692307, 0.33053481578826904, 0.14443673193454742, -0.17745904624462128, -0.023007353767752647, 0.34933289885520935, -0.07627811282873154, 0.3693675994873047, -0.018468406051397324, 0.06061596795916557, 0.5556288361549377, -0.11125405132770538, 0.24529756605625153, -0.11759839951992035, 0.036131374537944794, -0.003273847745731473, 0.02620142139494419, -0.7495216131210327], [-0.04614175111055374, -0.06849579513072968, -0.09009037166833878, 0.48402971029281616, 0.09206704795360565, 0.05291765555739403, 0.019631322473287582, -0.0167427696287632, -0.20339977741241455, -0.40356630086898804, 0.00020651328668463975, -0.06329821795225143, 0.1630619615316391, 0.07395932823419571, 0.06818044930696487, -0.14115436375141144, 0.17656400799751282, -0.004112111404538155, -0.15400667488574982, -0.01139003038406372], [-0.15487898886203766, 0.020334171131253242, -0.04893450066447258, 0.05588049441576004, 0.08660611510276794, 0.08099531382322311, 0.030626937747001648, 0.09267417341470718, -0.1970849335193634, 0.14821510016918182, 0.06717092543840408, -0.04381726682186127, 0.026203108951449394, 0.0921303778886795, -0.4550881087779999, 0.2778147757053375, 0.005095106549561024, 0.03526969999074936, 0.07654158771038055, -0.08862718194723129], [-0.0017150220228359103, -0.06008315831422806, 0.03221918269991875, -1.4466760158538818, -0.06580314040184021, -0.23825885355472565, 0.015553326345980167, 0.022116104140877724, 0.07047630846500397, 1.0441910028457642, 0.15859617292881012, 0.21598681807518005, 0.4499095380306244, 0.07705708593130112, 0.013881171122193336, 0.5722546577453613, -0.023953299969434738, 0.11174148321151733, 1.2299405336380005, 0.0957021415233612], [0.10438429564237595, -0.3623988628387451, -0.16045373678207397, 0.055296532809734344, -0.6392275094985962, 0.08440177142620087, -0.01423677895218134, 0.4522418677806854, -0.4781079888343811, -0.08868906646966934, 0.16335120797157288, -0.1488146036863327, -0.032449569553136826, 0.08905866742134094, 0.29111969470977783, 0.6359089016914368, -0.02006518468260765, 0.17849431931972504, -0.023388853296637535, 0.22090919315814972], [0.17559947073459625, 0.07746522128582001, -0.007428842596709728, 0.2650265395641327, -0.023619094863533974, -0.18655404448509216, 0.004709077533334494, -0.12898072600364685, 0.005720238666981459, -0.3686656653881073, -0.04943503066897392, -0.04444776102900505, -0.10968825966119766, -0.06384241580963135, 0.1775498390197754, -0.19933317601680756, 0.189494788646698, -0.1261015385389328, -0.19917123019695282, 0.05440356209874153], [-0.005872057285159826, 0.011686551384627819, -0.007197380065917969, 0.09909691661596298, -0.14012540876865387, -0.07426486909389496, -0.010653557255864143, -0.14704856276512146, 0.22042088210582733, -0.014176124706864357, 0.00542534189298749, 0.11459558457136154, -0.037354908883571625, 0.009353477507829666, -0.15413442254066467, -0.039869390428066254, -0.0465199276804924, -0.1348884105682373, -0.02787696197628975, -0.06396380066871643], [-0.0021984726190567017, 0.04196536913514137, 0.0047620185650885105, -0.02705909125506878, -0.01585155352950096, 0.028271863237023354, 0.002736110705882311, 0.014612148515880108, -0.02150600776076317, 0.02399548888206482, -0.046242665499448776, -0.09732412546873093, -0.0021236760076135397, 0.00822990108281374, -0.020945293828845024, 0.02890062890946865, -0.0012788072926923633, 0.02797883190214634, -0.0007419783505611122, -0.01600252091884613], [-0.0015782611444592476, -0.09043619781732559, -0.014102059416472912, -0.009314805269241333, -0.06845918297767639, -0.0299101322889328, 0.002327603055164218, -0.016136806458234787, 0.036957964301109314, 0.020387805998325348, -0.09681393206119537, 0.3750067353248596, 0.016265375539660454, 0.005828869063407183, -0.05787917226552963, 0.009663645178079605, -0.016587084159255028, 0.0107553880661726, 0.03653958812355995, -0.006805586628615856], [0.3094797730445862, -0.07461526989936829, -0.044843532145023346, -0.16648642718791962, -0.2103799730539322, 0.4011121988296509, 0.010002677328884602, 0.20218713581562042, -0.1381981372833252, 0.18852409720420837, 0.1306445449590683, -0.08278164267539978, 0.07501762360334396, 0.10231774300336838, 0.2398739606142044, 0.02652849443256855, 0.14560477435588837, 0.08978153020143509, -0.5288814902305603, 0.18063262104988098], [0.23572920262813568, -0.089731365442276, -0.04519845172762871, 0.08623210340738297, -0.016751296818256378, 0.05960289388895035, 0.018093936145305634, -0.032349877059459686, 0.016774600371718407, -0.14162997901439667, -0.17910484969615936, 0.190541610121727, -0.028570594266057014, -0.02718091569840908, -0.002609696239233017, 0.00897181686013937, -0.07807664573192596, 0.019721347838640213, -0.24157504737377167, 0.08285126090049744], [-0.0016381239984184504, -0.0045517804101109505, 0.00036699793417938054, 0.0007671088678762317, 0.010325531475245953, 0.004879605025053024, -0.0002998271374963224, 0.004960209131240845, -0.0037699490785598755, -0.00182716257404536, 0.006778161972761154, -0.011206059716641903, 0.0011358830379322171, -0.004471793305128813, 0.0005017017247155309, -0.001947176642715931, 0.0016903012292459607, 0.001338532892987132, 0.004042137414216995, 0.001484170788899064], [0.18345236778259277, 0.11897413432598114, -0.011793979443609715, -0.15597985684871674, -0.3782736659049988, 0.14245781302452087, 0.021793367341160774, -0.25122249126434326, 0.011363415978848934, 0.04484152793884277, -0.2452227622270584, -0.03182639181613922, -0.02540971152484417, -0.03139959275722504, -0.16244734823703766, -0.03429992124438286, 0.061010148376226425, -0.014857504516839981, 0.5783638954162598, 0.1304197460412979], [0.12639585137367249, 0.020527198910713196, 0.012250954285264015, 0.0189483854919672, -0.04123915359377861, -0.006918458268046379, 0.013882004655897617, -0.05670464038848877, 0.0804060697555542, 0.033612873405218124, -0.03266989067196846, 0.12687323987483978, -0.09114884585142136, -0.0213521346449852, -0.08602508157491684, 0.05986323952674866, 0.038246139883995056, 0.005878749769181013, 0.001886041951365769, -0.13403598964214325], [-0.021059811115264893, -0.21611885726451874, 0.012870860286056995, -0.017411580309271812, -0.03257947415113449, -0.01329797226935625, -0.0007339663570746779, -0.011917276307940483, 0.0638129711151123, 0.011912189424037933, -0.2454114854335785, 0.30368706583976746, -0.002746215322986245, -0.0047854529693722725, 9.793964272830635e-05, 0.023770514875650406, -0.13842807710170746, 0.03227158263325691, -0.0230511836707592, -0.010370657779276371], [-0.13158021867275238, -0.1201937347650528, 0.017240775749087334, 0.09073911607265472, 0.0006089116213843226, -0.061864640563726425, 0.00802505575120449, 0.020487487316131592, 0.10647819191217422, -0.0950736552476883, -0.15581227838993073, 0.015354112721979618, 0.015989869832992554, -0.08050253242254257, 0.1727890521287918, -0.12277201563119888, -0.05018864572048187, -0.06651411950588226, -0.2525562047958374, 0.03412853553891182], [0.009720312431454659, -0.07334672659635544, -0.025373801589012146, 0.07205070555210114, -0.0737094134092331, -0.0831458792090416, -0.001372365397401154, -0.04675380513072014, 0.061728496104478836, -0.07938273996114731, -0.1588570773601532, 0.43672412633895874, -0.015469037927687168, 0.03691990673542023, 0.08048009872436523, -0.15120194852352142, -0.15303654968738556, -0.11926203966140747, -0.08070686459541321, -0.00013571367890108377], [-0.11819976568222046, -0.1148245632648468, -0.03408185392618179, -0.026018468663096428, -0.1383562535047531, -0.07305968552827835, -0.007575563620775938, -0.03392064943909645, 0.03040255978703499, -0.021434510126709938, -0.09632459282875061, 0.07969736307859421, 0.21588118374347687, 0.10301551967859268, 0.021755222231149673, -0.03686333820223808, 0.1095397099852562, -0.09209543466567993, 0.03217418119311333, 0.014057168737053871], [0.09901829808950424, 0.2716503441333771, 0.03265859931707382, 0.0008183510508388281, -0.018777551129460335, 0.02424517832696438, -0.008477886207401752, -0.11150796711444855, -0.039434805512428284, -0.010561899282038212, 0.014678183011710644, -0.22558265924453735, 0.025422273203730583, 0.050389647483825684, -0.009624672122299671, 0.015077571384608746, 0.15438280999660492, 0.10000251978635788, 0.06474974006414413, 0.094304658472538], [-0.06327588856220245, 0.061816778033971786, -0.04953186959028244, -0.2115265429019928, 0.027662089094519615, 0.09855987876653671, 0.011828677728772163, 0.1760912388563156, -0.21663449704647064, 0.164633110165596, 0.16818378865718842, 0.06461546570062637, 0.04619240388274193, 0.007494460325688124, -0.11915545910596848, 0.184385284781456, 0.04088998958468437, 0.0928366556763649, 0.09113719314336777, 0.0998324528336525], [0.029927317053079605, -0.09978744387626648, -0.03723627328872681, 0.0229469183832407, -0.08036283403635025, -0.049711037427186966, 0.00451536662876606, -0.046425510197877884, 0.027971763163805008, -0.015765516087412834, 0.05541221424937248, 0.36075666546821594, 0.014511782675981522, 0.02345888316631317, -0.07709278911352158, -0.010628391057252884, -0.0335693433880806, -0.002245889510959387, 0.08501581847667694, 0.012889030389487743], [0.17395943403244019, -0.0013113958993926644, -0.010283313691616058, 0.22936992347240448, 0.02247375063598156, -0.058037783950567245, -0.0067065018229186535, -0.008331228978931904, -0.022625287994742393, -0.3062322437763214, -0.014262668788433075, 0.1026560589671135, 0.04336763173341751, -0.0026269371155649424, 0.0942625179886818, -0.16603605449199677, 0.1841352880001068, -0.08667334914207458, -0.27762213349342346, -0.04594828560948372], [0.02190548926591873, 0.05904969945549965, 0.006820851471275091, -0.11039667576551437, -0.026881029829382896, 0.07779621332883835, 0.00916898064315319, 0.0038766544312238693, 0.0004866649687755853, 0.09693154692649841, -0.13198299705982208, 0.023955272510647774, 0.050116196274757385, 0.02472466044127941, -0.09397982060909271, 0.06951505690813065, -0.014587304554879665, 0.06633114814758301, 0.1749892383813858, -0.009483201429247856], [-0.05190250277519226, 0.10159774124622345, -0.06350967288017273, -0.0535193607211113, 0.1816205531358719, 0.0695892870426178, 0.0036413490306586027, -0.02585875801742077, -0.03473803400993347, 0.09916316717863083, 0.17471350729465485, 0.06653529405593872, 0.05977547913789749, -0.04280601814389229, -0.0881098136305809, -0.08262524753808975, 0.1178509071469307, 0.027097558602690697, 0.12000086158514023, 0.09336549788713455], [-0.07246841490268707, 0.21671810746192932, -0.08306030929088593, 0.044502079486846924, -0.2897890508174896, 0.020394805818796158, 0.012017919681966305, -0.15613926947116852, -0.3774578869342804, -0.05228884518146515, 0.0018642094219103456, 0.0544469840824604, 0.07730959355831146, 0.05163512006402016, 0.018764954060316086, 0.01372483093291521, 0.08550689369440079, 0.02150348387658596, -0.0024823069106787443, 0.18140281736850739]], "rec.bias_ih_l0": [0.026818251237273216, 0.15374882519245148, -0.08230318129062653, 0.4021168351173401, -0.026925010606646538, -0.4874921441078186, -0.013831470161676407, 0.0044172233901917934, 0.2591511309146881, 0.23173798620700836, 0.14034870266914368, 0.18873231112957, -0.915726363658905, -0.8911749720573425, 0.106340192258358, 0.4261935353279114, 0.005361468531191349, -0.06459087878465652, 0.08164313435554504, 0.15907415747642517, 0.19850444793701172, 0.3435887396335602, -0.03134969621896744, 0.1512126475572586, 0.34988391399383545, 0.7783775329589844, -0.005533045623451471, 0.1656055897474289, 0.21201905608177185, 0.03438357636332512, 0.5324457883834839, 0.5119851231575012, 1.2595653533935547, 1.5908029079437256, 0.07094378769397736, 0.0752945989370346, 0.13930673897266388, 0.10540398210287094, 0.10711446404457092, -0.050404854118824005, -0.07129450142383575, -0.3022400438785553, -0.02705882303416729, 0.05712004750967026, 0.22806590795516968, -0.012073298916220665, -0.0002980013086926192, 0.12353795766830444, 0.04014577344059944, -0.06536457687616348, 0.14542271196842194, 0.29094165563583374, -0.05554856359958649, -0.045944567769765854, -0.12169405072927475, -0.11961526423692703, -0.045027151703834534, -0.0735587477684021, -0.1628679782152176, -0.10382407158613205, -0.009508027695119381, 0.21464160084724426, -0.11138502508401871, 0.45811742544174194, -0.040339622646570206, 0.2304857224225998, -0.013915956020355225, -0.07162494212388992, 0.17569755017757416, 0.35629481077194214, -0.035265929996967316, 0.5576187372207642, 0.3637457489967346, -0.18522658944129944, 0.13043811917304993, 0.44935739040374756, 0.10573168843984604, -0.00412940327078104, 0.061163824051618576, 0.06215159222483635], "rec.bias_hh_l0": [0.026818251237273216, 0.15374882519245148, -0.08230318129062653, 0.4021168351173401, -0.026831384748220444, -0.4878445267677307, -0.013831470161676407, 0.0044172233901917934, 0.2591511309146881, 0.23173798620700836, 0.14034870266914368, 0.18874916434288025, -0.9272397756576538, -0.8764629364013672, 0.106340192258358, 0.4261935353279114, 0.005361562129110098, -0.06459087878465652, 0.08164308965206146, 0.15907415747642517, 0.19850435853004456, 0.3436584174633026, -0.03134969621896744, 0.1512126475572586, 0.3447781801223755, 0.7840180993080139, -0.005533045623451471, 0.1656055897474289, 0.21201905608177185, 0.03438450023531914, 0.5324457883834839, 0.4887036383152008, 1.2605183124542236, 1.5951899290084839, 0.07094354927539825, 0.0752945989370346, 0.13930650055408478, 0.10540398210287094, 0.10585951060056686, -0.050404854118824005, -0.1091933622956276, -0.3049905002117157, -0.027057919651269913, 0.03710499033331871, 0.20085233449935913, 0.11865999549627304, -0.0002893924538511783, 0.08848839998245239, 0.04010334983468056, -0.04321299120783806, 0.15247128903865814, 0.2779974937438965, 0.03454851731657982, -0.06388292461633682, -0.05776912719011307, -0.17484824359416962, -0.07694318890571594, -0.035696640610694885, -0.052061777561903, -0.10179772973060608, -0.009508091025054455, 0.21466588973999023, -0.11138502508401871, 0.45811742544174194, -0.039371829479932785, 0.23048818111419678, -0.013915956020355225, -0.07162494212388992, 0.17569755017757416, 0.35629481077194214, -0.03526592254638672, 0.5583326816558838, 0.3637533187866211, -0.17816036939620972, 0.13043811917304993, 0.44935739040374756, 0.10573168843984604, -0.00412940327078104, 0.06321348249912262, 0.06215159222483635], "lin.weight": [[0.12511129677295685, -0.09742813557386398, 0.06532659381628036, -0.003099350491538644, -0.11158525943756104, 0.7394302487373352, -0.014783174730837345, -0.20375759899616241, 0.1258942037820816, 0.058328960090875626, 0.03528430685400963, -0.019559647887945175, 0.2132364809513092, 0.0674719288945198, 0.20412443578243256, -0.6863411068916321, 0.05810638144612312, 0.07085081934928894, 0.0031973551958799362, -0.018982794135808945]], "lin.bias": [0.018413906916975975]}}