{"model_data": {"model": "SimpleRNN", "input_size": 3, "skip": 1, "output_size": 1, "unit_type": "LSTM", "num_layers": 1, "hidden_size": 20, "bias_fl": true}, "state_dict": {"rec.weight_ih_l0": [[0.06143930181860924, 0.0758030042052269, 0.11477082967758179], [0.19372010231018066, 0.0029572020284831524, 0.10952695459127426], [-0.0037828567437827587, 0.5756190419197083, 0.3712265193462372], [-0.03657256066799164, 0.07555632293224335, -0.01383913867175579], [0.005193408112972975, 0.6425318717956543, 0.3385619819164276], [-0.08197304606437683, -0.5045438408851624, -0.48883500695228577], [-0.04689362272620201, -0.0815521627664566, 0.04712048918008804], [0.024560460820794106, -0.26807767152786255, 0.08969403803348541], [-0.08161413669586182, 0.23583820462226868, 0.14148542284965515], [-0.036456115543842316, -0.16716021299362183, 0.1366780549287796], [0.11424925178289413, 0.11445427685976028, 0.10957704484462738], [-0.0001768232905305922, -0.01140518020838499, -0.004993198439478874], [-0.12256479263305664, -0.04776237905025482, -0.02699517458677292], [-0.3029995262622833, -0.5274124145507812, -0.4343184232711792], [0.0158353541046381, 0.09147302061319351, -0.05341009050607681], [-0.26382139325141907, -0.16174234449863434, -0.03821912035346031], [0.07202519476413727, -0.026553064584732056, 0.14395196735858917], [0.05933567136526108, 0.31413933634757996, 0.1410478949546814], [-0.029337890446186066, 0.2895638644695282, 0.3280411660671234], [-0.04402489215135574, 0.3716662526130676, 0.22754009068012238], [0.11228238791227341, 0.05584801733493805, 0.17810635268688202], [0.30454176664352417, -0.006028834730386734, 0.03418620675802231], [-0.059140365570783615, 0.5499601364135742, -0.20328138768672943], [-0.07249981164932251, 0.040456373244524, -0.055494341999292374], [-0.004544293042272329, 0.2792820632457733, -0.26809144020080566], [0.09372088313102722, 0.6314858198165894, 0.5996968746185303], [-0.046700816601514816, -0.14043456315994263, 0.08735191076993942], [0.028555022552609444, 0.421377956867218, -0.6737093329429626], [-0.10249978303909302, 0.37842050194740295, -0.08396878093481064], [0.0007561506354250014, 0.17650392651557922, 0.653494656085968], [0.17591945827007294, -0.02846096269786358, 0.06590355932712555], [-0.00016103978850878775, -0.007921937853097916, -0.0035016972105950117], [-0.22826258838176727, 0.06831972301006317, 0.034260764718055725], [-0.39802131056785583, 0.6613315939903259, 0.5566419363021851], [0.016583232209086418, 0.13482990860939026, -0.08734090626239777], [-0.34980353713035583, 0.10938966274261475, 0.06923362612724304], [0.12349160015583038, -0.07797989249229431, 0.1865031123161316], [0.07659180462360382, 0.2623198628425598, -0.0837494432926178], [-0.021174537017941475, -0.13012290000915527, -0.18621815741062164], [-0.0443178191781044, 0.09344102442264557, -0.06412648409605026], [0.11534640192985535, -0.16038836538791656, -0.5674088597297668], [-0.2277834564447403, -0.08425267040729523, -0.0918787494301796], [-2.8364055156707764, 0.2040790170431137, 0.10709459334611893], [0.09307441860437393, -0.13551755249500275, -0.47540122270584106], [-0.8485168218612671, -0.06720807403326035, -0.057475410401821136], [-0.650316059589386, 0.0011994028463959694, -0.0009562698542140424], [0.1805460900068283, -0.3079673945903778, -0.26208633184432983], [0.2425982654094696, 0.035031117498874664, 0.01815701834857464], [-0.2300182580947876, -0.060763683170080185, 0.10268249362707138], [0.18834370374679565, 0.0942487046122551, -0.002502995543181896], [-0.3570054769515991, -0.10128701478242874, -0.18314026296138763], [-0.003930835053324699, 0.00028531806310638785, -0.01640615239739418], [-0.04528818652033806, 0.0006543367053382099, 0.01897871494293213], [0.6195667386054993, 0.05474970117211342, 0.07053110748529434], [-0.14251771569252014, -0.14483371376991272, 0.0154328728094697], [0.45244458317756653, -0.0003848462656605989, 0.04967527464032173], [0.17154894769191742, 0.4146043062210083, -0.16968780755996704], [0.10710878670215607, 0.08161845803260803, 0.14275947213172913], [0.2267034351825714, -0.26653149724006653, -0.016329055652022362], [1.3243120908737183, -0.04197635129094124, 0.22469080984592438], [0.16400207579135895, 0.09553281217813492, 0.18628647923469543], [0.37090635299682617, -0.10317830741405487, 0.13828590512275696], [-0.008107970468699932, 0.6212732195854187, 0.40121176838874817], [-0.08665263652801514, 0.056757036596536636, -0.08982037007808685], [0.004699488170444965, 0.43483227491378784, 0.33410316705703735], [0.17204177379608154, 0.009473959915339947, -0.054623376578092575], [-0.060025181621313095, -0.13977907598018646, 0.08221004158258438], [0.018473008647561073, 0.11387698352336884, 0.06581451743841171], [-0.15297994017601013, 0.30550605058670044, 0.16275225579738617], [-0.021654022857546806, -0.026030991226434708, 0.30238619446754456], [0.1468285620212555, 0.12161189317703247, 0.10617319494485855], [-0.00017364505038131028, -0.01153798308223486, -0.005048881284892559], [-0.16558702290058136, 0.03393561765551567, 0.037586987018585205], [-0.05987546965479851, 0.3546535074710846, 0.33333778381347656], [0.02375616505742073, 0.10994474589824677, -0.044203948229551315], [-0.3346629738807678, 0.031642135232686996, 0.1326095014810562], [0.09678433835506439, -0.28241780400276184, 0.09363406896591187], [0.12427175045013428, 0.3435781002044678, 0.13999953866004944], [-0.01457823533564806, 0.31448134779930115, 0.3436867296695709], [-0.05791975185275078, 0.38389426469802856, 0.22882133722305298]], "rec.weight_hh_l0": [[-0.0058144801296293736, -0.005032080691307783, -0.10505612194538116, 0.08266013860702515, 0.04792653024196625, -0.03111260198056698, 0.008672299794852734, 0.027738654986023903, -0.015320030972361565, -0.06525649130344391, 0.003365274053066969, 0.00031877990113571286, -0.02653900720179081, -0.09306938946247101, -0.028259627521038055, -0.010782072320580482, 0.09416055679321289, 0.032342057675123215, -0.061884570866823196, 0.015032079070806503], [-0.041337933391332626, -0.07757418602705002, -0.19656360149383545, -0.01018332876265049, -0.05176723748445511, -0.10876329988241196, 0.02563142403960228, -0.04882750287652016, -0.13472282886505127, 0.021493811160326004, 0.048109155148267746, -0.0017809018027037382, 0.02662995271384716, 0.07711219042539597, -0.07694727927446365, 0.04449424892663956, 0.028531335294246674, 0.12415206432342529, -0.09242506325244904, 0.031836047768592834], [-0.09100477397441864, 0.22405654191970825, 0.045519765466451645, 0.07059795409440994, -0.014860749244689941, -0.06039290875196457, -0.11918187886476517, 0.009776475839316845, -0.4085864722728729, -0.0015362428966909647, -0.04917759448289871, 0.0005354929598979652, 0.04591657966375351, -0.3348487615585327, 0.005578575190156698, 0.06616460531949997, 0.1675211787223816, -0.31919947266578674, -0.0514410100877285, 0.006825301796197891], [0.058426596224308014, 0.008005104959011078, 0.08702529221773148, 0.09406668692827225, 0.011811193078756332, 0.03488503396511078, -0.02732977084815502, -0.0668814554810524, -0.01212318241596222, 0.04631445184350014, 0.06826461851596832, 0.0024082281161099672, -0.011741227470338345, -0.03238626942038536, -0.011773861944675446, 0.021337850019335747, 0.03863460198044777, -0.046940844506025314, 0.09972438216209412, -0.09829532355070114], [-0.12233871221542358, 0.09225577116012573, 0.019111663103103638, 0.0015280022053048015, 0.07007255405187607, -0.04588688537478447, -0.19208605587482452, 0.0327177457511425, -0.28795361518859863, -0.02533838525414467, -0.0648546889424324, 0.0028384937904775143, 0.006800845265388489, -0.2389233559370041, 0.002751243067905307, 0.007739624008536339, 0.1770131140947342, -0.29759481549263, -0.07542543113231659, 0.02035101316869259], [-0.305772602558136, -0.1630629450082779, 0.012896002270281315, -0.49500542879104614, -0.08996088057756424, -0.17523139715194702, -0.10259281098842621, -0.0007233573705889285, 0.2656281590461731, 0.005403182934969664, -0.23555296659469604, 0.02825338952243328, 0.013139499351382256, 0.3373519778251648, 0.03235737606883049, -0.23893268406391144, -0.16711044311523438, 0.1162877082824707, -0.07022896409034729, 0.020815731957554817], [0.08815254271030426, 0.02004159986972809, 0.04823092743754387, 0.13023492693901062, 0.0384601429104805, 0.11198751628398895, 0.08121870458126068, 0.04152919352054596, -0.03266458213329315, -0.005311437416821718, 0.04875243082642555, 0.0005349387065507472, -0.02926204539835453, -0.08428102731704712, 0.057702064514160156, 0.028322529047727585, -0.03797485679388046, -0.097246453166008, 0.0687253549695015, 0.017023257911205292], [-0.1770811527967453, -0.2815704345703125, -0.0690489187836647, -0.33700135350227356, -0.05264437943696976, 0.03377416729927063, 0.27344661951065063, 0.05426154285669327, 0.30614808201789856, 0.06153852492570877, -0.019317690283060074, 0.0025253097992390394, -0.04186232388019562, 0.19555512070655823, -0.09791135787963867, -0.0014809577260166407, -0.4336490035057068, 0.3325341045856476, -0.003022894263267517, 0.06903200596570969], [0.04008082300424576, 0.12105503678321838, 0.1237073466181755, 0.10573646426200867, 0.038268957287073135, -0.051036812365055084, -0.052234239876270294, -0.02454765886068344, -0.0707663968205452, 2.8107782782171853e-05, -0.00354696623980999, 0.0004493468441069126, -0.02661793865263462, -0.14236479997634888, 0.03623727336525917, 0.03216776251792908, 0.011042341589927673, -0.22454340755939484, 0.021475601941347122, -0.02861633524298668], [-0.07513795047998428, -0.06649155169725418, -0.0208821352571249, -0.0658109188079834, -0.014890351332724094, 0.04761979728937149, -0.0536833293735981, 0.00268614967353642, 0.20929889380931854, 0.03794249892234802, 0.025022832676768303, 4.1369497921550646e-05, -0.050021953880786896, 0.07185739278793335, 3.1347557523986325e-05, -0.13506567478179932, 0.018987616524100304, 0.22992217540740967, 0.005635156761854887, 0.01216858346015215], [-0.04805035516619682, -0.0420786589384079, -0.13852232694625854, 0.02939242124557495, -0.10792812705039978, -0.035900164395570755, -0.011348657310009003, -0.07374627143144608, -0.1513730138540268, 0.0309204813092947, 0.026813359931111336, -0.0020014718174934387, 0.014242338016629219, 0.047984007745981216, -0.0607914961874485, 0.0588977113366127, 0.054710954427719116, -0.05630198121070862, -0.04199834167957306, 0.0237553883343935], [-0.0006624950328841805, -0.0012629885459318757, -1.3875975128030404e-05, -0.005280382465571165, 0.000542573572602123, 0.0003259186923969537, -0.0002600863517727703, 3.651987071862095e-06, 0.003905021585524082, -0.0001145367423305288, -0.00027682006475515664, 2.750303792709019e-06, 0.00014811028086114675, 0.005383130628615618, 0.0001498243073001504, -0.000286021560896188, -0.000119103176984936, 0.0008748091058805585, -0.00021799253590870649, 0.0001574000925756991], [-0.060303766280412674, -0.014077095314860344, 0.04330216720700264, -0.12438294291496277, -0.005557708907872438, 0.09725730121135712, 0.01880459487438202, 0.0031247397419065237, 0.020062586292624474, 0.009634635411202908, 0.0105513921007514, 0.0021212552674114704, -0.06809660792350769, -0.04356652498245239, 0.029887914657592773, -0.14900721609592438, -0.019357236102223396, 0.043061427772045135, 0.04686185345053673, -0.05742722377181053], [-0.22399568557739258, -0.9107290506362915, 0.3390514552593231, -0.5578889846801758, -0.006158154457807541, 0.08604653179645538, -0.1880507618188858, 0.060763824731111526, 0.6563335657119751, 0.04556655511260033, -0.06327524781227112, -0.0002529214252717793, -0.19296793639659882, 0.18812045454978943, -0.22628550231456757, -0.39693117141723633, -0.13655541837215424, 0.5613754391670227, 0.11187946796417236, -0.0799989253282547], [0.003955306950956583, -0.01688283309340477, -0.025098031386733055, 0.0386904776096344, -0.05934249982237816, -0.03161906078457832, 0.03898649290204048, -0.031066803261637688, -0.04992545396089554, 0.028480960056185722, 0.016479671001434326, 2.0045021301484667e-05, 0.0006754576461389661, 0.015435349196195602, -0.02184668928384781, -0.008173917420208454, -0.033888015896081924, 0.010589273646473885, 0.008148271590471268, -0.01150646060705185], [0.029186157509684563, -0.014744495041668415, -0.037520136684179306, -0.07658025622367859, -0.0878119245171547, 0.213569775223732, 0.04812576249241829, 0.018498707562685013, 0.09149116277694702, -0.060890767723321915, -0.0879974439740181, 0.0016793912509456277, -0.19327180087566376, -0.23132562637329102, 0.1268952190876007, -0.2618318200111389, -0.06381489336490631, 0.05477658286690712, 0.06096704304218292, 0.030496014282107353], [0.048617683351039886, -0.028875555843114853, -0.0029975094366818666, 0.0617666058242321, -0.05599642172455788, 0.025196947157382965, 0.020623967051506042, -0.03207774460315704, -0.016120661050081253, -0.0011260217288509011, 0.027314217761158943, -0.000198991023353301, 0.01804777979850769, 0.05696438252925873, -0.0350612998008728, 0.033451154828071594, -0.023724129423499107, 0.005025782156735659, 0.01382683776319027, -0.011815850622951984], [0.02441924810409546, 0.05173051729798317, -0.08205477893352509, 0.08927595615386963, -0.06531953811645508, -0.10262993723154068, -0.11454522609710693, -0.014292815700173378, -0.21734777092933655, 0.02636861428618431, -0.07040156424045563, -0.00044547923607751727, 0.04474981874227524, -0.07606931775808334, -0.03567195683717728, 0.05395069345831871, 0.09657394886016846, -0.024451522156596184, -0.08746010810136795, -0.0025070514529943466], [-0.08498932421207428, 0.09954310953617096, 0.024454863741993904, 0.045977313071489334, 0.08921657502651215, -0.03022940643131733, 0.012481672689318657, 0.06108938530087471, 0.005598160903900862, -0.009232631884515285, 0.07266070693731308, 0.0019093482987955213, -0.05122492462396622, -0.23811686038970947, 0.0010971034644171596, 0.0347382090985775, 0.09106998890638351, -0.024571899324655533, 0.047062311321496964, -0.007667860481888056], [0.08116572350263596, 0.059629082679748535, 0.013562153093516827, 0.2026088982820511, 0.03132520988583565, -0.08332746475934982, -0.029405733570456505, 0.019700048491358757, -0.1108982190489769, 0.007507363799959421, 0.009851546958088875, -0.000623438972979784, -0.03757261857390404, -0.20757345855236053, -0.020783504471182823, 0.03546462580561638, 0.09289960563182831, 0.012268830090761185, 0.02284128963947296, -0.05884472653269768], [-0.03513210266828537, -0.048942264169454575, -0.20720386505126953, 0.12315095216035843, 0.05976860597729683, -0.07492093741893768, 0.037697259336709976, 0.024122819304466248, -0.00949116237461567, -0.0879022479057312, 0.01527929026633501, -0.0004497574991546571, -0.061799243092536926, -0.11860233545303345, -0.06631982326507568, -0.04313167184591293, 0.15230636298656464, 0.07292819768190384, -0.10109715908765793, 0.015411263331770897], [-0.004511430859565735, -0.21229496598243713, -0.1795625388622284, 0.003818388329818845, -0.004460728261619806, -0.0949842780828476, 0.03446996212005615, -0.06147993728518486, -0.16337409615516663, 0.0740213468670845, 0.08404064923524857, -0.0010791869135573506, 0.0638183057308197, 0.2296185940504074, -0.11372850835323334, 0.06587032228708267, 0.04835888370871544, 0.08341613411903381, -0.04299004375934601, -0.016033759340643883], [0.2123224139213562, 0.09679398685693741, 0.13015855848789215, 0.23801247775554657, 0.05207672715187073, 0.052108000963926315, -0.3796546757221222, 0.06899905204772949, -0.6091597080230713, 0.020898984745144844, -0.36247682571411133, 0.0022251384798437357, 0.19026347994804382, -0.16105668246746063, 0.12471812218427658, -0.022552797570824623, 0.15762916207313538, -0.6129403114318848, -0.17305804789066315, 0.06652539223432541], [0.12170702964067459, 0.006626352667808533, 0.0681183785200119, 0.19052381813526154, -0.03747004270553589, 0.06152467429637909, -0.03170819208025932, -0.1084207072854042, -0.005806601140648127, 0.04671327397227287, 0.10614121705293655, 0.004184747580438852, -0.04466286674141884, -0.10345589369535446, -0.0014606238109990954, 0.018463853746652603, 0.04522153362631798, -0.0044373259879648685, 0.13380110263824463, -0.11466334760189056], [0.37402600049972534, -0.12945330142974854, 0.027195218950510025, 0.2858303487300873, 0.056875910609960556, -0.022890647873282433, -0.19542448222637177, 0.01087357196956873, -0.10202204436063766, -0.012652640230953693, -0.206966370344162, -0.0005117851542308927, 0.006718317978084087, 0.013826151378452778, 0.01975502260029316, -0.07081339508295059, 0.018680831417441368, -0.08571616560220718, -0.09251224249601364, 0.04073286056518555], [0.24341586232185364, 0.21703821420669556, -0.13029034435749054, 0.7424414157867432, -0.17859743535518646, -0.31506985425949097, 0.3256877064704895, -0.12825344502925873, -0.35783952474594116, 0.03872228413820267, 0.2721676826477051, 0.007636277470737696, -0.12286095321178436, -0.43623626232147217, -0.14197634160518646, 0.10391169786453247, 0.1469716727733612, -0.09144040197134018, 0.22098088264465332, -0.17023463547229767], [0.1368453949689865, 0.03249995410442352, 0.07377646863460541, 0.20952212810516357, 0.10400132089853287, 0.1701698750257492, 0.12097377330064774, 0.05336552485823631, -0.036445192992687225, -0.0073142340406775475, 0.07366622239351273, 8.243770571425557e-05, -0.03623337298631668, -0.12691375613212585, 0.07459656894207001, 0.045852381736040115, -0.04552905634045601, -0.16056254506111145, 0.09980396926403046, 0.034998394548892975], [0.5994982123374939, 0.03035156801342964, 0.07210413366556168, 0.6979637145996094, 0.07775350660085678, -0.05353556573390961, 0.1992207169532776, -0.013548989780247211, -0.04663057252764702, 0.08942922949790955, -0.0016095635946840048, -0.004151312634348869, -0.04560871794819832, -0.2525942027568817, -0.03072076104581356, 0.10459648072719574, -0.11046504229307175, -0.0823657289147377, 0.13464419543743134, -0.12328612059354782], [0.06860379874706268, 0.0514628142118454, 0.130811408162117, 0.05684388801455498, 0.05776098743081093, -0.031671591103076935, -0.19431069493293762, -0.008833304047584534, -0.08238977938890457, 0.016827480867505074, -0.11009040474891663, 0.0019497375469654799, 0.022941960021853447, 0.007658336311578751, 0.05846554785966873, -0.010784341022372246, 0.0038690734654664993, -0.4873027205467224, -0.11838732659816742, -0.006487238686531782], [-0.2142498940229416, 0.029294127598404884, 0.028901357203722, -0.077153280377388, 0.0032092472538352013, 0.007728553377091885, -0.06274814158678055, 0.026887353509664536, 0.04353293403983116, 0.11110979318618774, 0.08052072674036026, 0.0014357846230268478, -0.0674554631114006, -0.057719480246305466, -0.014682123437523842, -0.053657542914152145, 0.043958630412817, 0.04054475575685501, 0.044536855071783066, 0.026268837973475456], [-0.045488107949495316, -0.1431911587715149, -0.2058001309633255, 0.04005041345953941, -0.11377512663602829, -0.045169249176979065, 0.07248014211654663, -0.0995171070098877, -0.11470557004213333, 0.048617660999298096, 0.08897600322961807, -0.003738746978342533, 0.012749124318361282, 0.18159131705760956, -0.10977215319871902, 0.059093035757541656, 0.018459219485521317, -0.039588771760463715, -0.02041296288371086, -0.006555495318025351], [-0.0006752168410457671, -0.0008675834396854043, -7.80740738264285e-05, -0.004113729111850262, 0.0006541282637044787, 0.00025569662102498114, -0.00018632636056281626, 0.00012603732466232032, 0.0027286773547530174, -0.00013735484390053898, -0.00017619891150388867, 4.347975846030749e-06, 0.0001479883649153635, 0.0038256968837231398, 0.00022649604943580925, -0.00020342349307611585, -0.00010810831736307591, 0.00033877650275826454, -0.0002496382512617856, 0.0002936188247986138], [0.042935267090797424, 0.032710738480091095, 0.08196590840816498, 0.002232006751000881, 0.07534295320510864, 0.07610835134983063, -0.03693637251853943, 0.07356104999780655, 0.03316459059715271, -0.021758655086159706, -0.002885148162022233, 0.00311292614787817, -0.15507914125919342, -0.23219603300094604, 0.08547332882881165, -0.2740638256072998, 0.019291497766971588, 0.01613670028746128, 0.061042096465826035, -0.032259974628686905], [0.17315836250782013, 0.1756930947303772, 0.4727698862552643, 0.7132174968719482, 0.35309600830078125, -0.10035549849271774, 0.04231085628271103, 0.08541559427976608, -0.6910992860794067, 0.11022897809743881, 0.21785223484039307, 0.005521208513528109, -0.10540186613798141, -0.724118709564209, 0.2894695997238159, 0.12642839550971985, 0.2965642511844635, -0.5374900102615356, 0.3688867390155792, -0.2091142237186432], [0.04317152872681618, -0.010167481377720833, -9.268368739867583e-05, 0.09176155179738998, -0.07177915424108505, -0.04298270866274834, 0.04768361151218414, -0.04700007662177086, -0.0515131950378418, 0.0430813767015934, 0.029686056077480316, 1.2321074791543651e-06, -0.002949942834675312, 0.027239935472607613, -0.0374300479888916, -0.0012329905293881893, -0.033445805311203, 0.013508963398635387, 0.034265585243701935, -0.036892201751470566], [0.07783444225788116, 0.0558907613158226, 0.00325307110324502, 0.005584285128861666, -0.05605076625943184, 0.16813522577285767, -0.0569336861371994, 0.09702113270759583, 0.020513923838734627, -0.1268230825662613, -0.1376940906047821, 0.001328363548964262, -0.2760944664478302, -0.4460170567035675, 0.19420583546161652, -0.41008460521698, 0.030178572982549667, -0.09819276630878448, 0.061277903616428375, 0.11109278351068497], [0.12382633984088898, -0.06299813836812973, -0.031387925148010254, 0.12858052551746368, -0.09178336709737778, 0.032694436609745026, 0.031072406098246574, -0.0529247485101223, -0.03752053529024124, 0.006299691740423441, 0.03950713947415352, -0.00030426023295149207, 0.03906424343585968, 0.11135797202587128, -0.05775413289666176, 0.06635893136262894, -0.028827490285038948, 0.03407444432377815, 0.014552326872944832, -0.024052733555436134], [0.011777645908296108, -0.0019066107925027609, -0.1463322639465332, -0.05449347570538521, -0.12572525441646576, -0.11389920860528946, -0.1665739268064499, -0.01799578033387661, -0.4264048933982849, -0.0023897760547697544, -0.18538612127304077, 0.0003133289283141494, 0.11045194417238235, -0.010717569850385189, -0.0018939860165119171, -0.014743300154805183, 0.08108458667993546, -0.08462453633546829, -0.17977330088615417, 0.036007653921842575], [-0.010974401608109474, -0.09028295427560806, 0.03404084965586662, -0.08372397720813751, 0.05336206406354904, 0.03950919210910797, 0.12211377918720245, 0.0048239706084132195, 0.15179356932640076, 0.03288397192955017, 0.027141844853758812, 0.0025002153124660254, 0.011674447916448116, 0.0723414421081543, -0.011170093901455402, -0.04838600382208824, -0.04892541468143463, 0.11547522246837616, 0.047510337084531784, -0.04985257238149643], [0.09766797721385956, -0.02509627677500248, -0.09251687675714493, 0.08403994888067245, 0.09792116284370422, -0.016960786655545235, -0.003945951350033283, 0.057111453264951706, -0.15961121022701263, -0.007407257333397865, -0.023135747760534286, -0.0013552398886531591, 0.01780470833182335, 0.018985342234373093, -0.010587198659777641, -0.008315766230225563, 0.0019267548341304064, 0.0717727318406105, -0.10528726875782013, -0.002828638069331646], [0.3009811341762543, 0.12099789083003998, -0.21795031428337097, 0.27673542499542236, -0.09777239710092545, -0.03814161941409111, -0.12728075683116913, 0.18002592027187347, 0.13140203058719635, 0.017943991348147392, 0.10023181885480881, 0.0016822735778987408, -0.0620817206799984, -0.018238088116049767, 0.14049279689788818, 0.011452809907495975, 0.023809542879462242, -0.12475715577602386, 0.02370726317167282, -0.23025360703468323], [-0.11550066620111465, 0.1638956367969513, 0.5175244808197021, -0.04973398894071579, 0.2039002925157547, -0.007951675914227962, -0.1429893672466278, -0.05319661274552345, -0.2365385740995407, 0.09430297464132309, -0.06570520997047424, 0.017805788666009903, 0.01264098659157753, -0.38405826687812805, 0.1528853476047516, 0.21016687154769897, -0.037957705557346344, 0.1006513312458992, 0.09977774322032928, -0.3911551535129547], [-0.008449332788586617, -0.26104113459587097, 0.62846440076828, 0.17233486473560333, -0.13307538628578186, 0.3857031464576721, 0.044607970863580704, -0.06024877727031708, -0.05449914559721947, 0.18917299807071686, 0.48211511969566345, 0.03135382756590843, 0.37219446897506714, 0.8511239886283875, -0.05670781806111336, 0.5963384509086609, -0.12294083088636398, 0.0193730928003788, -0.9735580682754517, -0.4670855402946472], [0.34229329228401184, -0.016279613599181175, -0.05402255430817604, 0.1566496342420578, 0.029473422095179558, -0.02920481376349926, 0.010092401877045631, -0.1980036199092865, 0.013308025896549225, -0.05528721213340759, 0.016369346529245377, 0.0004828685487154871, 0.03984707593917847, -0.004408550448715687, 0.01935962773859501, 0.004510222934186459, 0.1637657880783081, 0.09692689776420593, 0.008463092148303986, 0.23455938696861267], [-0.1672355830669403, -0.33696720004081726, 2.8863394260406494, 0.016198474913835526, 1.3056409358978271, -0.33119359612464905, -0.3656347692012787, -0.2533223330974579, -0.2373150736093521, 0.19655883312225342, 0.2609763443470001, -0.018419316038489342, 0.13939490914344788, 0.38121917843818665, 0.004308729898184538, 0.29516375064849854, -0.14096805453300476, 0.029078951105475426, 0.9764592051506042, -1.0830957889556885], [0.26380759477615356, -0.1166975349187851, -0.36351925134658813, -0.2509913742542267, 0.2975490689277649, 0.36833277344703674, 0.08187371492385864, 0.5140361785888672, -0.14244724810123444, 0.28747692704200745, 0.00652867229655385, -0.0025907540693879128, -0.08003178983926773, -0.04809296131134033, 0.14732742309570312, 0.08978327363729477, 0.22525498270988464, 0.16187329590320587, 0.11761263012886047, 0.5516125559806824], [-0.10700652748346329, 0.023193154484033585, -0.24503052234649658, -0.15266692638397217, 0.14682741463184357, 0.056072887033224106, 0.45017552375793457, 0.06188449636101723, -0.0786053016781807, 0.10836868733167648, 0.1694733053445816, -0.0029403201770037413, -0.09254538267850876, -0.05385582521557808, -0.10936204344034195, -0.0257432721555233, -0.21150152385234833, 0.0899481251835823, 0.06684248894453049, -0.14505966007709503], [-0.1207548975944519, 0.050367824733257294, -0.3383242189884186, 0.038996372371912, 0.6372471451759338, -0.0658896267414093, 0.15109600126743317, 0.43656304478645325, 0.40172532200813293, 0.15017329156398773, -0.053877390921115875, 0.004275228828191757, 0.11032763868570328, -0.12611976265907288, 0.16363301873207092, -0.13082751631736755, 0.049374133348464966, -0.23654505610466003, -0.1272060126066208, -0.14113660156726837], [0.06109403818845749, 0.07853393256664276, 0.5584058165550232, 0.09074942767620087, 0.7421647906303406, -0.04385175555944443, -0.062164053320884705, -0.22043263912200928, -0.04414372891187668, 0.24960502982139587, -0.04235095530748367, 0.008873531594872475, -0.0021277288906276226, -0.0793360024690628, 0.026979241520166397, -0.22473038733005524, -0.0951295867562294, 0.3180023729801178, 0.4150046110153198, -0.18044859170913696], [-0.2037734091281891, 0.09516791999340057, -0.07518105953931808, 0.20881736278533936, -0.2235879749059677, 0.12133682519197464, -0.048695873469114304, -0.15668287873268127, 0.11727145314216614, 0.21019244194030762, -0.15124376118183136, 0.005665736272931099, -0.026346169412136078, 0.1613488346338272, -0.1430983692407608, -0.009837726131081581, -0.28168827295303345, -0.18117299675941467, 0.0009114028653129935, -0.28080233931541443], [-0.1299075037240982, 0.03462669253349304, -0.08734124898910522, -0.1806059032678604, -0.005352182313799858, 0.2612185776233673, 0.20594096183776855, 0.10924536734819412, 0.14523227512836456, -0.04372072592377663, 0.043685946613550186, -0.0057561383582651615, -0.0933932363986969, 0.4379924535751343, -0.10516145825386047, -0.06825365126132965, 0.05888295918703079, 0.03993597626686096, 0.28258493542671204, 0.0605614148080349], [-0.009357393719255924, 0.0059556071646511555, 0.012259316630661488, -0.01502046175301075, 0.0062357597053050995, 0.035068877041339874, -0.016146698966622353, 0.009141592308878899, -0.008768457919359207, 0.015093687921762466, -0.011520369909703732, -0.01629159413278103, -0.0005265986546874046, -0.0050363242626190186, -0.01580139435827732, -0.0010197893716394901, 0.0011986605823040009, 0.007495096419006586, 0.005223128478974104, -0.012948201037943363], [0.1141665130853653, 0.15416118502616882, -0.007084835320711136, -0.03198017179965973, 0.10832095146179199, 0.10765186697244644, -0.011921703815460205, 0.11177083849906921, -0.2804136276245117, -0.08919177204370499, -0.27528324723243713, -0.026404505595564842, 0.06625582277774811, 0.4564182460308075, 0.07376360893249512, 0.2412007451057434, 0.11749939620494843, 0.0517941489815712, 0.09541788697242737, 0.1798122674226761], [-0.007100237533450127, -0.11393523961305618, -0.6760948896408081, 0.1056705117225647, -0.16533558070659637, 0.12208481878042221, 0.04328971356153488, -0.02710152417421341, -0.02138964645564556, 0.03310074657201767, -0.02870018035173416, 0.00545868556946516, -0.11451128125190735, 0.4246220588684082, -0.035439345985651016, -0.09581772983074188, 0.038297396153211594, 0.003685191972181201, -0.27211058139801025, 0.14395426213741302], [0.06570456922054291, 0.20672692358493805, 0.1645660549402237, -0.009164328686892986, -0.04771841689944267, -0.05571640282869339, -0.10758042335510254, 0.151198148727417, -0.03681405633687973, 0.0664341077208519, -0.11858003586530685, 0.012495678849518299, -0.05640416592359543, -0.32746028900146484, 0.12543511390686035, -0.07132574915885925, -0.06175721436738968, -0.06752268970012665, 0.06211741268634796, 0.01099949050694704], [-0.02697325497865677, 0.1477328985929489, -0.16072560846805573, 0.032628048211336136, -0.036083001643419266, -0.009234069846570492, 0.0033663015346974134, 0.053033679723739624, 0.1285853087902069, -0.03450295701622963, -0.05949344485998154, 0.0023258302826434374, 0.11152135580778122, 0.5489523410797119, -0.11615162342786789, 0.2064250260591507, 0.007397578563541174, -0.09405922889709473, 0.1030786857008934, -0.03441460058093071], [-0.049326732754707336, 0.10825969278812408, -0.1437220573425293, -0.06472520530223846, 0.1753658950328827, 0.08716614544391632, -0.34611785411834717, 0.10022706538438797, 0.033418141305446625, 0.03507101535797119, -0.11132907122373581, -0.0019833268597722054, -0.015003910288214684, 0.0041544777341187, -0.01199689693748951, -0.06328076124191284, 0.33749327063560486, 0.050826966762542725, -0.08814787119626999, -0.10434828698635101], [0.16349995136260986, -0.1318570077419281, -0.535021185874939, 0.07481572777032852, -0.6956244111061096, 0.04617868363857269, 0.004129452630877495, 0.23667103052139282, 0.5086314678192139, -0.15293128788471222, -0.012303764000535011, -0.013328040950000286, -0.11443252861499786, -0.03701233118772507, -0.015867408365011215, 0.11504143476486206, 0.03154206648468971, 0.21863317489624023, -0.4092946946620941, 0.3252986967563629], [-0.0885852575302124, -0.26647862792015076, 1.3009727001190186, 0.07286815345287323, -0.21184444427490234, -0.17010171711444855, 0.05281118303537369, 0.027998510748147964, -0.05930919945240021, 0.1068693995475769, 0.19920575618743896, -0.0105683458968997, -0.256563663482666, -0.05769030749797821, -0.20877136290073395, -0.23419596254825592, -0.079328253865242, 0.11494908481836319, -0.6768820285797119, -0.5202492475509644], [0.19012033939361572, 0.48444628715515137, -0.1216256394982338, -0.08149728178977966, -0.11578131467103958, -0.1778814047574997, 0.16462349891662598, 0.08267585188150406, 0.24150699377059937, -0.1409311145544052, -0.3133801519870758, 0.0371641181409359, -0.18836024403572083, -0.5021321773529053, 0.0034021753817796707, -0.4773467779159546, -0.1233443170785904, -0.23262925446033478, 0.06676946580410004, -0.09421627968549728], [-0.08923714607954025, -0.0952962264418602, -0.08631912618875504, 0.07882024347782135, -0.35269081592559814, -0.025802692398428917, 0.046591900289058685, -0.006723450031131506, 0.07394023984670639, -0.048993051052093506, 0.009617614559829235, -0.0006018083076924086, -0.017224831506609917, -0.08307074755430222, -0.09304548054933548, -0.029605496674776077, 0.10764560848474503, 0.023747393861413002, -6.032381406839704e-06, 0.062475379556417465], [-0.026034347712993622, -0.17540474236011505, -0.3057287633419037, 0.005135986488312483, -0.02866571955382824, -0.1361967772245407, 0.11836560070514679, -0.08351140469312668, -0.15252596139907837, 0.05683819577097893, 0.08484490215778351, -0.0026261659804731607, 0.03381546214222908, 0.19880808889865875, -0.15321597456932068, 0.066571444272995, 0.004970718175172806, 0.2845689058303833, -0.08472628146409988, -8.514271030435339e-05], [-0.036162298172712326, 0.1941496580839157, 0.06464355438947678, 0.16075026988983154, 0.017886444926261902, -0.0803724154829979, -0.09576691687107086, 0.005273640621453524, -0.32614830136299133, 0.0012467141496017575, -0.018986312672495842, 0.0001985980343306437, 0.01809401623904705, -0.36310550570487976, -0.017724912613630295, 0.08098145574331284, 0.18798953294754028, -0.2645053267478943, -0.006036617327481508, -0.020978298038244247], [0.18047548830509186, 0.06053498387336731, 0.04952770844101906, 0.2193501591682434, 0.3531681299209595, -0.009192951954901218, 0.024835124611854553, -0.09530571848154068, -0.07005568593740463, 0.06305502355098724, 0.12714333832263947, 0.0024365633726119995, -0.0345996655523777, -0.0013655704678967595, -0.02446494996547699, 0.07453934103250504, 0.004945925436913967, 0.07346711307764053, 0.1016596257686615, -0.18034487962722778], [-0.7549218535423279, -0.21533268690109253, -0.023285701870918274, -0.6701030731201172, -0.08330414444208145, -0.004392332397401333, 0.0759575143456459, 0.03560969978570938, -0.4084157645702362, 0.017616210505366325, -0.13185374438762665, 0.006613082252442837, 0.018039820715785027, -0.03467937931418419, 0.0021223516669124365, -0.19787323474884033, -0.08475688099861145, -0.35711586475372314, -0.1171097457408905, 0.17727811634540558], [-0.0033855035435408354, -0.037143610417842865, 0.005753874313086271, -0.11267021298408508, 0.02269143797457218, -0.34211990237236023, -0.09120383113622665, -0.07080712169408798, 0.16815762221813202, 0.06541869044303894, -0.0003321354743093252, 0.018103355541825294, 0.028420748189091682, 0.09092260897159576, -0.053461167961359024, -0.04357663169503212, 0.016907699406147003, 0.05641847476363182, -0.00779797462746501, -0.1379813700914383], [0.03620229288935661, 0.004356136079877615, 0.05891059711575508, 0.0781269520521164, 0.14564955234527588, 0.16232255101203918, 0.10988214612007141, 0.05447322875261307, -0.007626858074218035, -0.0076802317053079605, 0.07191220670938492, 0.0006907649803906679, -0.05120888724923134, -0.07526428997516632, 0.06104259192943573, 0.017521323636174202, -0.04873437061905861, -0.11507167667150497, 0.07954443991184235, 0.027749713510274887], [0.15898001194000244, -0.07502605020999908, -0.07732738554477692, 0.1769387423992157, 0.0033530190121382475, -0.02786635048687458, 0.17523683607578278, 0.06325080245733261, -0.0984053760766983, 0.004580887500196695, 0.06121130660176277, -0.005846258718520403, -0.11673567444086075, -0.06896530836820602, -0.07172475755214691, -0.009986048564314842, -0.11691274493932724, -0.03392774239182472, 0.0364496149122715, 0.004211457446217537], [0.0015150320250540972, 0.158723384141922, 0.3131268322467804, 0.069097138941288, 0.025652309879660606, -0.07618004828691483, -0.05248437821865082, -0.043189141899347305, -0.05071108415722847, 0.05477442592382431, 0.035491783171892166, 0.0007278841803781688, -0.042124245315790176, -0.09370268136262894, 0.04186296463012695, 0.05567675083875656, -0.015083583071827888, -0.37662217020988464, 0.14227773249149323, -0.11333818733692169], [-0.14925944805145264, -0.07238747924566269, 0.019568806514143944, -0.10408914089202881, -0.043971139937639236, 0.023499200120568275, -0.049980759620666504, 0.03436250984668732, 0.18838579952716827, 0.011035993695259094, 0.056609880179166794, 0.0007772962562739849, -0.047689396888017654, 0.05416819825768471, -0.004548005759716034, -0.13023477792739868, 0.05284494534134865, 0.18946710228919983, 0.023752467706799507, 0.022033831104636192], [-0.042572058737277985, -0.08075264096260071, -0.23564662039279938, 0.030756141990423203, -0.21588458120822906, -0.03782036527991295, -0.020722519606351852, -0.09055019170045853, -0.21459855139255524, 0.04469165578484535, 0.036413345485925674, -0.0022723267320543528, 0.028198886662721634, 0.10732121020555496, -0.07705629616975784, 0.06917586922645569, 0.056694287806749344, -0.051928989589214325, -0.0834689512848854, 0.030903030186891556], [-0.000694143760483712, -0.0012736949138343334, -1.0802083124872297e-05, -0.005346426274627447, 0.0004130361776333302, 0.00032916039344854653, -0.00026720238383859396, 3.082752300542779e-05, 0.0040853070095181465, -0.00014803995145484805, -0.000267995084868744, 2.197936055381433e-06, 0.00016030468395911157, 0.005446320399641991, 0.00015120308671612293, -0.0002758982591331005, -0.00011950062616961077, 0.0009024651371873915, -0.00020227572531439364, 0.00018497720884624869], [-0.01586325280368328, 0.023141715675592422, 0.11303841322660446, -0.05736997351050377, 0.12448903173208237, 0.07738976180553436, -0.002875120146200061, 0.04220406338572502, 0.05312695726752281, -0.026263516396284103, 0.006544166244566441, 0.002844522474333644, -0.10986950993537903, -0.13964635133743286, 0.050871655344963074, -0.22178617119789124, 0.012681093998253345, -0.006853683385998011, 0.05146273970603943, -0.049779802560806274], [0.014653977937996387, -0.16800172626972198, 0.11586596071720123, 0.17555615305900574, 0.17770303785800934, -0.008831863291561604, -0.003468768671154976, 0.07147759199142456, -0.2476353794336319, 0.03804261237382889, 0.22045044600963593, 4.287941555958241e-05, -0.1958814114332199, -0.2695060968399048, -0.011984015814960003, -0.33452749252319336, 0.14172758162021637, -0.21625058352947235, 0.04900946095585823, -0.11990437656641006], [-0.001605700352229178, -0.027025917544960976, -0.02664249762892723, 0.045549411326646805, -0.07327183336019516, -0.038455549627542496, 0.035239093005657196, -0.03651884198188782, -0.062481075525283813, 0.03578394278883934, 0.023122575134038925, -9.943928307620808e-05, -0.0012284513795748353, 0.017171666026115417, -0.02814055047929287, -0.00814010575413704, -0.030601030215620995, 0.01745995506644249, 0.008149971254169941, -0.014752124436199665], [0.02135748602449894, 0.014075879007577896, -0.0375768318772316, 0.009174654260277748, -0.12476888298988342, 0.19474337995052338, 0.023188402876257896, 0.10688590258359909, 0.11900971084833145, -0.17350919544696808, -0.010298409499228, 0.002646475099027157, -0.28289398550987244, -0.39171236753463745, 0.14977864921092987, -0.42378637194633484, -0.0042103794403374195, 0.03486134856939316, 0.07634176313877106, 0.1504901647567749], [0.026154788210988045, -0.04117055609822273, 0.05258152633905411, -0.007531884592026472, -0.24655215442180634, 0.020507434383034706, 0.07566637545824051, -0.0187520831823349, 0.09702900052070618, -0.006624273490160704, 0.06924569606781006, -4.2485615267651156e-05, 0.012859215959906578, 0.12010510265827179, -0.015325086191296577, 0.021671084687113762, -0.10590265691280365, -0.09434995800256729, 0.06000460311770439, 0.018087932839989662], [0.0024991862010210752, -0.010451596230268478, -0.2512616813182831, 0.07148203998804092, -0.17884379625320435, -0.08967029303312302, -0.11225155740976334, -0.01193660032004118, -0.3127380609512329, 0.0028180591762065887, -0.11110987514257431, -0.0009528719238005579, 0.04957099258899689, -0.09368561953306198, -0.060591958463191986, 0.04781385883688927, 0.09834050387144089, 0.063507579267025, -0.18861186504364014, 0.05453861504793167], [-0.09091593325138092, 0.09752283245325089, 0.020515844225883484, 0.0436876080930233, 0.08510521799325943, -0.03397603705525398, 0.004528312478214502, 0.06212602183222771, 0.019354570657014847, -0.011699523776769638, 0.06510058790445328, 0.0018303884426131845, -0.052555035799741745, -0.25189676880836487, 0.0009034958784468472, 0.034132782369852066, 0.10010848939418793, -0.011671642772853374, 0.044078122824430466, 0.0011675134301185608], [0.10188280791044235, 0.046012993901968, 0.010025285184383392, 0.2238313853740692, 0.05816003307700157, -0.08762789517641068, -0.029018228873610497, 0.012627735733985901, -0.1282723844051361, 0.011263622902333736, 0.016520624980330467, -0.0006729699671268463, -0.041466668248176575, -0.21516582369804382, -0.029204463586211205, 0.038724761456251144, 0.0993381068110466, 0.00015399313997477293, 0.008220317773520947, -0.09113582968711853]], "rec.bias_ih_l0": [0.1919855773448944, 0.16376841068267822, 0.5860030651092529, 0.21154499053955078, 0.458507239818573, -1.213908076286316, 0.14938409626483917, -0.6595956087112427, 0.2788035571575165, -0.19059915840625763, 0.11554382741451263, -0.0223555825650692, -0.005124923773109913, -0.8817662596702576, 0.048763908445835114, -0.07613455504179001, 0.12706705927848816, 0.23882275819778442, 0.48246482014656067, 0.47734200954437256, 0.28765299916267395, 0.1596488058567047, -0.18204548954963684, 0.35769903659820557, -0.15008774399757385, 1.7641204595565796, 0.2582641839981079, 0.7232586145401001, 0.055506180971860886, 0.32620081305503845, 0.059385545551776886, -0.01909087598323822, 0.15724436938762665, 1.0605897903442383, 0.09056907892227173, 0.1911042034626007, 0.16178172826766968, -0.008156558498740196, -0.060796476900577545, -0.005886346101760864, 0.23782609403133392, 0.10482878237962723, 0.12499018758535385, 0.29453909397125244, 0.09406077116727829, -0.11850897967815399, 0.14558230340480804, 0.002749993000179529, -0.29699617624282837, 0.10355997830629349, 0.2983969748020172, 0.005177880171686411, 0.0960790291428566, 0.006135998293757439, -0.05986626073718071, 0.22892871499061584, 0.09868133068084717, -0.09645334631204605, 0.14098073542118073, -0.1750042885541916, 0.18790914118289948, 0.19794884324073792, 0.6934087872505188, 0.3567778468132019, -0.171613872051239, -0.0471796952188015, 0.14531777799129486, 0.24239487946033478, 0.3342112898826599, 0.023269400000572205, 0.11975971609354019, -0.02249183878302574, 0.10988416522741318, 0.4551144540309906, 0.06335175782442093, 0.17937809228897095, 0.0009373964858241379, 0.2339612990617752, 0.5011129975318909, 0.5041722059249878], "rec.bias_hh_l0": [0.19198909401893616, 0.16372258961200714, 0.5860031843185425, 0.21132414042949677, 0.458542138338089, -1.1538560390472412, 0.14938399195671082, -0.6101254224777222, 0.2799030840396881, -0.19763034582138062, 0.11554380506277084, -0.0223555825650692, -0.0051272413693368435, -0.6855526566505432, 0.04884321615099907, -0.07629333436489105, 0.12683282792568207, 0.23878978192806244, 0.48246482014656067, 0.47734200954437256, 0.286288857460022, 0.15961457788944244, -0.18021559715270996, 0.357799768447876, -0.16050414741039276, 1.7037917375564575, 0.2582571804523468, 0.7296936511993408, 0.056142408400774, 0.33301982283592224, 0.05938538908958435, -0.01909087598323822, 0.15723758935928345, 1.184587836265564, 0.09016937017440796, 0.19036170840263367, 0.16193540394306183, -0.00786676723510027, -0.06118945777416229, -0.0058863721787929535, 0.16851988434791565, 0.12890487909317017, 0.0926893800497055, 0.29078808426856995, 0.07038164883852005, 0.08565638959407806, 0.21152964234352112, 0.02664450742304325, -0.07700197398662567, -0.0793616846203804, 0.3121093213558197, 0.0043595596216619015, -0.05695263296365738, -0.1302330642938614, -0.10289544612169266, 0.14179179072380066, 0.04738231375813484, -0.07272868603467941, 0.08962708711624146, -0.1836237758398056, 0.18787094950675964, 0.197898730635643, 0.6934087872505188, 0.3484841287136078, -0.17273855209350586, 0.00047354213893413544, 0.14531804621219635, 0.24907031655311584, 0.33268192410469055, 0.022974498569965363, 0.11975971609354019, -0.02249183878302574, 0.10988463461399078, 0.30318257212638855, 0.063507579267025, 0.17932111024856567, 0.0010399315506219864, 0.23410272598266602, 0.5011129975318909, 0.5041722059249878], "lin.weight": [[-0.29285216331481934, 0.13275212049484253, -0.008647136390209198, 0.2829100787639618, -0.42112159729003906, 0.2708470821380615, -0.03381388261914253, -0.6407509446144104, 0.18902726471424103, -0.36956125497817993, -0.05623617768287659, 0.005829305853694677, 0.08116275817155838, -0.0697791576385498, -0.14207294583320618, -0.19784870743751526, -0.24310950934886932, -0.17394496500492096, -0.2389262616634369, -0.5241259336471558]], "lin.bias": [0.01472649909555912]}}