{"model_data": {"model": "SimpleRNN", "input_size": 3, "skip": 1, "output_size": 1, "unit_type": "LSTM", "num_layers": 1, "hidden_size": 32, "bias_fl": true}, "state_dict": {"rec.weight_ih_l0": [[-0.010418558493256569, -0.010588818229734898, 0.01021534949541092], [-0.011310119181871414, -0.14069513976573944, 0.05876221880316734], [0.0005480608087964356, 0.029689829796552658, 0.02789400890469551], [-0.015380811877548695, 0.030012797564268112, 0.040661685168743134], [-0.003228561719879508, 0.0634387880563736, 0.0629393681883812], [-0.013930326327681541, 0.0675392672419548, 0.055184945464134216], [-0.012469361536204815, 0.03878725320100784, 0.057117849588394165], [-0.010891909711062908, 0.11314062774181366, 0.16772320866584778], [-0.004797389265149832, 0.031626880168914795, 0.05267402529716492], [-0.0003572510904632509, 0.052952952682971954, 0.08383049070835114], [0.01673070155084133, 0.08535844832658768, 0.07093078643083572], [-7.535638724220917e-05, 0.005660285707563162, 0.0032728647347539663], [0.0003673142346087843, 0.01965932920575142, 0.01943046785891056], [0.00608604121953249, 0.11707813292741776, 0.09972015768289566], [0.0012211529538035393, 0.04413490369915962, 0.03161606192588806], [-7.47812882764265e-05, 0.003192497417330742, 0.0017914222553372383], [-0.05645105242729187, -0.30647706985473633, -0.021461838856339455], [-0.00907782930880785, -0.38954365253448486, -0.18558020889759064], [0.0012009560596197844, 0.07583297789096832, 0.12140659987926483], [0.0048871468752622604, 0.3384854793548584, 0.10802208632230759], [0.0007088911370374262, 0.03290753811597824, 0.030636195093393326], [0.020102687180042267, 0.13131344318389893, 0.12931489944458008], [0.01125315111130476, 0.018513552844524384, 0.04293680936098099], [-1.1576867109397426e-05, -0.00019806023919954896, -9.239683276973665e-05], [-0.012426228262484074, -0.05553470924496651, 0.04464618116617203], [0.002366728149354458, 0.006660661660134792, 0.00714191934093833], [-0.01693020388484001, 0.061244215816259384, 0.03771128132939339], [-0.008703365921974182, 0.026060545817017555, 0.048681531101465225], [0.006178647745400667, 0.0348493717610836, 0.03260355815291405], [-3.251119051128626e-05, -0.0009950733510777354, -0.0005817821365781128], [0.014346136711537838, 0.10229123383760452, 0.1155860498547554], [0.008348284289240837, 0.10714571177959442, 0.023864246904850006], [-0.02940007485449314, 0.02344655618071556, 0.028491908684372902], [0.04338596761226654, 0.07173220813274384, -0.061724741011857986], [0.0009287798311561346, 0.037302471697330475, 0.03534023463726044], [-0.019769905135035515, 0.0954047366976738, 0.0897124707698822], [0.003541115438565612, 0.14965760707855225, 0.14368173480033875], [-0.03694647178053856, 0.07975909858942032, -0.023759473115205765], [-0.013155301101505756, 0.1167292594909668, 0.12607000768184662], [-0.01509510725736618, -0.06925974786281586, 0.04360722005367279], [0.0016138713108375669, 0.09137356281280518, 0.12208046764135361], [-0.008654137142002583, 0.15241605043411255, 0.20681732892990112], [0.020088057965040207, 0.1480865627527237, 0.04377618059515953], [-5.956408131169155e-05, 0.0092878807336092, 0.005900934338569641], [0.0005377522902563214, 0.025284593924880028, 0.024199819192290306], [0.014716115780174732, 0.04196060448884964, 0.05957657843828201], [0.023805687204003334, 0.1382189244031906, 0.0889633446931839], [-6.173366273287684e-05, 0.005387450568377972, 0.003252985654398799], [0.024784889072179794, 0.4618469178676605, 0.2678440809249878], [0.048145782202482224, 0.3740089237689972, 0.2655279040336609], [0.02282920479774475, -0.014365623705089092, 0.11236348748207092], [0.025496790185570717, 0.2106056958436966, -0.026203511282801628], [0.0026138087268918753, 0.0444643460214138, 0.0410645417869091], [0.01894563063979149, 0.07401257753372192, 0.019193114712834358], [0.030891699716448784, 0.0968017727136612, 0.1316477358341217], [-1.0483535334060434e-05, -0.0002157409762730822, -0.00010441094491397962], [0.007235026452690363, -0.08464665710926056, 0.015094947069883347], [0.002826355630531907, 0.008304252289235592, 0.008279716596007347], [-0.026847606524825096, 0.159183070063591, 0.10294575989246368], [-0.021237432956695557, 0.026958519592881203, 0.09941892325878143], [0.026047568768262863, 0.024992359802126884, 0.04035677760839462], [-3.209017086192034e-05, -0.0009813059587031603, -0.0006028826464898884], [0.03371339291334152, -0.04157683625817299, -0.0219508595764637], [-0.006271020509302616, 0.18808574974536896, 0.051012590527534485], [0.07900425791740417, 0.07265079766511917, 0.4134157598018646], [-0.05427281931042671, 0.005764757748693228, -0.009183485992252827], [0.012381397187709808, 0.027959400787949562, 0.03646690398454666], [-0.045215804129838943, 0.016977081075310707, 0.05322030186653137], [-0.01505682710558176, 0.09123774617910385, -0.2708665430545807], [0.09128695726394653, 0.003178943879902363, -0.0015334199415519834], [-0.1048482209444046, -0.09231730550527573, -0.028110893443226814], [-0.4841434359550476, 0.05426613613963127, -0.25585487484931946], [0.043680477887392044, 0.1196385994553566, -0.07913137227296829], [0.02727331966161728, -0.13948726654052734, -0.132343590259552], [0.07940409332513809, 0.02311493083834648, 0.012380263768136501], [-0.004326266702264547, -0.014942591078579426, -0.021783586591482162], [-0.00828713458031416, -0.02334551140666008, -0.0320320688188076], [0.3550795614719391, 0.3026413917541504, 0.056681398302316666], [-0.024551590904593468, -0.1839940994977951, -0.03580639883875847], [0.0038498258218169212, 0.014023817144334316, 0.018280943855643272], [0.15478357672691345, -0.020207474008202553, 0.017347102984786034], [0.2147924304008484, 0.051510751247406006, -0.029609529301524162], [0.08098645508289337, 0.0018572239205241203, -0.1504674255847931], [-0.1520824134349823, -0.016478819772601128, -0.07495896518230438], [-0.002975574927404523, 0.07070889323949814, 0.06335581094026566], [-1.0199328660964966, 0.15069720149040222, 0.03062220849096775], [-0.1791275441646576, 0.182801753282547, 0.0209248848259449], [0.002139060292392969, 0.0014550063060596585, 0.004273261409252882], [0.04407515376806259, 0.10839866101741791, 0.0704079195857048], [0.004477214999496937, 0.0348675400018692, 0.03330196067690849], [0.008576609194278717, 0.13420948386192322, -0.052054423838853836], [0.031695835292339325, 0.17394866049289703, -0.0035640110727399588], [0.07335413992404938, 0.06383589655160904, -0.5033958554267883], [-0.002058371901512146, -0.004760717507451773, -0.00880688987672329], [0.027026964351534843, 0.03996722400188446, 0.050092123448848724], [0.10504716634750366, 0.01028530765324831, -0.030280526727437973], [-0.04256724566221237, 0.07270382344722748, 0.04509922116994858], [0.01626717858016491, 0.0788678303360939, 0.0869109034538269], [0.00032995856599882245, 0.031640563160181046, 0.03007415682077408], [-0.010286254808306694, 0.15013785660266876, 0.11228614300489426], [-0.038262657821178436, 0.08958268910646439, -0.002625794382765889], [-0.02066984586417675, 0.07787550985813141, 0.05961182713508606], [0.004425199702382088, 0.1541096419095993, 0.13077065348625183], [-0.00551041541621089, 0.11873332411050797, 0.1719934642314911], [0.00698752049356699, 0.11130189895629883, 0.117613784968853], [0.025393657386302948, 0.009874803014099598, 0.06961070746183395], [0.02705424651503563, 0.14897029101848602, 0.11328233033418655], [-0.00019254660583101213, 0.006071762181818485, 0.0035824303049594164], [0.00016018115275073797, 0.020728804171085358, 0.020718738436698914], [0.07124576717615128, 0.16822907328605652, 0.09979873895645142], [0.04787321388721466, 0.14714612066745758, 0.12295293807983398], [-0.00016153733304236084, 0.003482654457911849, 0.0020084886346012354], [0.0030301627703011036, 0.16153673827648163, 0.17936797440052032], [0.006442369893193245, 0.030573228374123573, -0.0037601201329380274], [0.05067150294780731, 0.09186247736215591, 0.15027369558811188], [-0.016641149297356606, 0.22279547154903412, 0.14239075779914856], [0.004140160977840424, 0.04620366171002388, 0.0418100543320179], [0.02841939963400364, 0.13601984083652496, 0.14658528566360474], [-0.001519039855338633, 0.14259473979473114, 0.11189302802085876], [-1.0276043212797958e-05, -0.000199876754777506, -9.328260057372972e-05], [0.014871325343847275, -0.0756291002035141, -0.015551087446510792], [0.0029246427584439516, 0.007091729436069727, 0.0076164621859788895], [-0.07442587614059448, 0.07062602788209915, 0.07801849395036697], [-0.01194159034639597, 0.05535455793142319, 0.06114146485924721], [-0.01313806138932705, -0.0585942305624485, 0.03513481840491295], [-4.920006904285401e-05, -0.000999566400423646, -0.0005864431732334197], [0.019911928102374077, 0.1080096885561943, 0.12329355627298355], [-0.005670304875820875, 0.14999757707118988, 0.07161766290664673]], "rec.weight_hh_l0": [[-0.0551176443696022, 0.017970765009522438, 0.008470476604998112, 0.08119585365056992, -0.009423425421118736, -0.028187748044729233, 0.07881250977516174, -0.023009618744254112, -0.07429599016904831, 0.026681745424866676, 0.02801087126135826, 0.001898869639262557, -0.0068044583313167095, -0.03764640539884567, -0.046721138060092926, -0.0010167121654376388, -0.01763739250600338, -0.014170749112963676, 0.004493282176554203, 0.003476234618574381, 0.03138846158981323, 0.0068476563319563866, -0.052202772349119186, -0.0008034157217480242, 0.014910112135112286, 0.017091628164052963, 0.026072343811392784, 0.004563886672258377, 0.015877695754170418, 0.00154241849668324, -0.0020209276117384434, -0.04051365330815315], [0.14146043360233307, -0.0406227707862854, -0.0068498644977808, -0.10468870401382446, -0.15498411655426025, -0.08889051526784897, -0.11115091294050217, -0.015047515742480755, 0.09832175076007843, -0.13389712572097778, 0.06394586712121964, 0.002244387287646532, 0.007900731638073921, 0.06241331994533539, 0.14927975833415985, -0.0030557538848370314, 0.06044422835111618, -0.031618744134902954, -0.15409253537654877, -0.009080220945179462, -0.03171558305621147, 0.0005141610163263977, 0.25343987345695496, -0.000611969328019768, -0.0768662765622139, -0.026336973533034325, 0.06355783343315125, -0.14945915341377258, -0.05673957243561745, 0.0011737532913684845, 0.0209343321621418, -0.07143209129571915], [0.006980073172599077, 0.00985144916921854, 0.003699611872434616, 0.015466702170670033, 0.01838529109954834, 0.0027413738425821066, 0.015476727858185768, -0.0035824973601847887, -0.00993442628532648, 0.0019832677207887173, -0.018237341195344925, 4.324803376221098e-05, -0.0015129480743780732, 0.0025413138791918755, -0.015558280982077122, -0.0001304707839153707, -0.010268151760101318, -0.00435075256973505, 0.009601029567420483, -0.002114095026627183, 0.009624822996556759, 0.0004852009878959507, -0.012623623013496399, -8.917463128454983e-05, -0.0022362228482961655, 0.003752033691853285, 0.023269765079021454, 0.01904475688934326, -0.017369171604514122, 0.00025214109336957335, -0.000867161899805069, -0.0034836127888411283], [-0.03968893736600876, -0.004606576170772314, 0.010139590129256248, 0.07665419578552246, 0.024910718202590942, 0.0009858142584562302, 0.07915332913398743, 0.0033006342127919197, -0.051611654460430145, 0.0018181790364906192, -0.057285670191049576, -0.0008114601369015872, -0.008434985764324665, -0.02651207521557808, -0.05900068208575249, 0.001141671440564096, -0.02788463607430458, 0.009862286038696766, 0.033759284764528275, 0.007787157781422138, 0.04024706780910492, 0.003043833188712597, -0.05725577473640442, -0.00031038522138260305, 0.008413431234657764, 0.018715815618634224, 0.008429601788520813, 0.016438253223896027, -0.015689274296164513, 0.0005251599941402674, -0.006277286913245916, -0.012655375525355339], [-0.030573587864637375, -0.004933616612106562, 0.006428651511669159, 0.09063046425580978, 0.017190827056765556, -0.0036024795845150948, 0.08861970901489258, 0.004245046526193619, -0.06704463809728622, -0.016749411821365356, -0.037965692579746246, -0.0037580823991447687, -0.005809511058032513, -0.01642567291855812, -0.07429639250040054, 0.004071809351444244, -0.030254757031798363, 0.02362392470240593, 0.053844645619392395, -0.014339408837258816, 0.04170608893036842, 0.0032382095232605934, -0.04779434949159622, 0.00017310152179561555, -0.01080748625099659, 0.022033661603927612, -0.024640172719955444, 0.023000678047537804, -0.028117317706346512, -0.0008339342311955988, 0.01040468830615282, -0.029893342405557632], [-0.027094677090644836, -0.013991433195769787, 0.008687607944011688, 0.07724080234766006, -0.003960746340453625, -0.002316111931577325, 0.07683706283569336, 0.013998649083077908, -0.052392397075891495, -0.015053313225507736, -0.09198155254125595, -0.0012192247668281198, -0.007939500734210014, 0.0028938527684658766, -0.06618849188089371, 0.0019153692992404103, -0.022593222558498383, 0.023063555359840393, 0.014980467036366463, -0.02335641160607338, 0.036489155143499374, -0.006977207493036985, -0.07086674869060516, 9.955393034033477e-05, -0.009571590460836887, 0.01827705278992653, 0.07125003635883331, 0.07274950295686722, -0.0060729943215847015, -1.5435887689818628e-05, 0.00922637339681387, 0.047417525202035904], [-0.033095233142375946, -0.0030171112157404423, 0.011609734036028385, 0.07904097437858582, 0.018815092742443085, -0.0028481786139309406, 0.08109426498413086, 0.0009421285358257592, -0.05455658212304115, -0.006723427679389715, -0.06201770156621933, -0.0013723727315664291, -0.009896448813378811, -0.023659417405724525, -0.0581633523106575, 0.0017495843349024653, -0.02753486856818199, 0.004629495553672314, 0.033516883850097656, -0.0019670145120471716, 0.04235406965017319, 0.005652902647852898, -0.060102351009845734, -0.00014586804900318384, 0.006015229970216751, 0.020032333210110664, 0.009154882282018661, 0.015226103365421295, -0.029450230300426483, 0.00027991205570288, -0.00300238118506968, -0.006320618558675051], [-0.09882242232561111, -0.023251496255397797, 0.021117238327860832, 0.18213345110416412, -0.02794812247157097, -0.007573860231786966, 0.18016192317008972, -0.002778012538328767, -0.15457117557525635, -0.06319645047187805, -0.15066975355148315, -0.00320779369212687, -0.018999241292476654, -0.03834489360451698, -0.17320160567760468, 0.0044541447423398495, -0.07179518789052963, 0.02594934217631817, 0.07355417311191559, -0.013276742771267891, 0.09628159552812576, -0.014613824896514416, -0.1360047310590744, 0.0002136690600309521, 0.007707555778324604, 0.0464763268828392, 0.0013723262818530202, 0.06680461019277573, -0.07068927586078644, -0.00017727419617585838, 0.00851112324744463, 0.045414745807647705], [-0.04864684119820595, 0.0007720816065557301, -0.014463463798165321, 0.07195570319890976, 0.008193173445761204, -0.006861213594675064, 0.07308685034513474, 0.0015176365850493312, -0.07025653123855591, 0.00473206490278244, -0.046679653227329254, 0.001792596303857863, 0.007923890836536884, -0.011366457678377628, -0.06251046061515808, -0.0005248590605333447, -0.017911776900291443, 0.010880467481911182, 0.026529567316174507, -0.030976219102740288, 0.03550024703145027, 0.002380607882514596, -0.0569850318133831, 0.0006740396493114531, 0.0018279931973665953, 0.017634334042668343, -0.014528918080031872, 0.016528965905308723, -0.016277890652418137, -0.001108917873352766, 0.000541438115760684, 0.012653793208301067], [-0.02260804921388626, 0.03048914298415184, -0.004545687697827816, 0.08078288286924362, 0.020527930930256844, -0.009389776736497879, 0.08067668974399567, 0.013348804786801338, -0.05210818350315094, 0.017619328573346138, -0.06591016054153442, -0.0024712092708796263, -0.0004925690591335297, -0.015648841857910156, -0.060201019048690796, 0.0030975521076470613, -0.011447894386947155, 0.001043923432007432, 0.015132698230445385, 0.015258705243468285, 0.03521217778325081, 0.0077480715699493885, -0.07064810395240784, -0.0004990668385289609, 0.03893119841814041, 0.02005280926823616, -0.012379597872495651, -0.0048516071401536465, -0.04638448730111122, 0.00029370145057328045, -0.0031745252199470997, -0.00016516527102794498], [-0.07459762692451477, 0.0023217815905809402, 0.017253099009394646, 0.1242683157324791, 0.021520040929317474, 0.030137626454234123, 0.12225291132926941, -0.006087787915021181, -0.08186762779951096, 0.024959299713373184, -0.07922793924808502, -0.004147782921791077, -0.014997182413935661, -0.0380069836974144, -0.09829485416412354, 0.004624095279723406, -0.026178333908319473, 0.012618742883205414, 0.05119292065501213, -0.0126681262627244, 0.05476933345198631, -0.005865640938282013, -0.1103254035115242, 0.0001913041342049837, -0.012245040386915207, 0.02875693514943123, 0.013503605499863625, 0.03488229960203171, -0.020151108503341675, -0.0006323936395347118, 0.012695618905127048, -0.010681258514523506], [0.0007563841645605862, 0.0006398761179298162, -0.0005082791903987527, 0.0005797461490146816, 0.0016715190140530467, 0.0007326657068915665, 0.0005757815088145435, 0.00022527783585246652, 0.0006778300157748163, 0.0003042842436116189, -0.0005769080016762018, 6.0848829889437184e-05, 0.0004086366097908467, 0.00040730219916440547, -0.0006947177462279797, -6.924254557816312e-05, 0.0006534811109304428, -0.00014459485828410834, -0.0006025563925504684, 0.00017156737158074975, -0.0009964087512344122, 0.0004847899544984102, 9.854606469161808e-05, -1.110725224862108e-05, -0.0007028194377198815, -0.0006757323280908167, 0.0017593211960047483, 0.0008319702465087175, -3.205679968232289e-05, 1.288426574319601e-05, -0.0008297126041725278, -0.0003331995103508234], [0.005218032747507095, 0.00496062682941556, 0.0010416721925139427, 0.009372354485094547, 0.010579329915344715, 0.0019170546438544989, 0.009394914843142033, -0.0024615502916276455, -0.005884312093257904, 9.970605606213212e-05, -0.011792764067649841, 0.00038453470915555954, 7.171194738475606e-05, 0.0019794630352407694, -0.009408055804669857, -0.00041859448538161814, -0.005239472724497318, -0.0018278717761859298, 0.004584656096994877, -0.0009115838329307735, 0.004696171265095472, 0.0003199833445250988, -0.006923694163560867, -5.3135387133806944e-05, -0.0017672128742560744, 0.0012431421782821417, 0.01488504372537136, 0.011783084832131863, -0.010734819807112217, 0.00014154733798932284, -0.001212398405186832, -0.001346438191831112], [-0.09946459531784058, -0.004480897914618254, 0.018786653876304626, 0.17188836634159088, 0.04496922343969345, -0.015786094591021538, 0.1708759367465973, 0.009873760864138603, -0.12127344310283661, 0.02989121899008751, -0.14642976224422455, -0.002884491579607129, -0.01671031303703785, -0.03951459378004074, -0.12345046550035477, 0.004228783305734396, -0.06066816672682762, 0.0480375662446022, 0.06019311025738716, -0.03259969502687454, 0.06986988335847855, -0.016433116048574448, -0.15287236869335175, -0.0005072923959232867, 0.04098689928650856, 0.03815629705786705, 0.059316426515579224, 0.04713639244437218, -0.008932211436331272, 0.0006128281820565462, 0.0166292954236269, 0.020209604874253273], [-0.05078854784369469, -0.03321224823594093, 0.007423542905598879, 0.07383893430233002, 0.019543219357728958, -0.0018560679163783789, 0.07933872938156128, 0.001270264619961381, -0.06524579226970673, 0.00973241962492466, -0.045574627816677094, -0.00021047060727141798, -0.0070336563512682915, -0.02447804994881153, -0.08014795184135437, 0.0006781656411476433, -0.04621249809861183, -0.0044539812952280045, 0.0379507914185524, -0.02031252346932888, 0.03666224703192711, -0.00948211271315813, -0.049719516187906265, -0.00019389571389183402, 9.916935960063711e-05, 0.018972089514136314, -0.01102588139474392, 0.017862902954220772, -0.012389237992465496, 0.0004031413409393281, -0.004051963798701763, -0.013843007385730743], [0.0005570504581555724, 0.0004936921177431941, -0.0004724205064121634, -0.0006094974232837558, 0.0008618545834906399, 0.0006252618040889502, -0.0006076438003219664, 0.00020857456547673792, 0.0009156908490695059, 0.0003497015277389437, 0.0005553016089834273, 5.41584195161704e-05, 0.00036092381924390793, 0.00013677499373443425, 0.0003546261868905276, -6.102147381170653e-05, 0.0007856235024519265, -0.00014938025560695678, -0.0008034445345401764, 0.00025741185527294874, -0.0012631177669391036, 0.00041293038520962, 0.000903157633729279, -1.056448309100233e-05, -0.0005922138807363808, -0.000620344071649015, 0.0009625243837945163, 1.1912588888662867e-05, 0.0003617923066485673, 1.3832585864292923e-05, -0.0007417405140586197, -0.0003599617048166692], [0.055232007056474686, -0.008429210633039474, -0.0027872431091964245, -0.241883784532547, -0.003370719263330102, -0.13693393766880035, -0.14117254316806793, 0.00498312758281827, -0.025195518508553505, -0.05243492126464844, 0.9359121322631836, 0.0005592597299255431, 0.007470655720680952, 0.2529374063014984, 0.24184970557689667, 0.00014649292279500514, -0.08366820961236954, -0.0778597891330719, -0.024103514850139618, -0.02300996519625187, -0.00557632464915514, 0.08802410960197449, 0.7693647742271423, -0.0021915477700531483, 0.00046944638597778976, 0.004379477817565203, -0.07517463713884354, -0.0949397161602974, 0.02757386676967144, 0.00041477728518657386, -0.029297804459929466, 0.012447608634829521], [0.29090505838394165, 0.05417485535144806, -0.005943724885582924, -0.4335019588470459, -0.17274123430252075, -0.040211375802755356, -0.4048705995082855, -0.030676810070872307, 0.18578588962554932, -0.08339712768793106, 0.36029955744743347, 0.005503517575562, 0.00583116989582777, 0.09754068404436111, 0.3886129856109619, -0.006102179642766714, 0.11127100139856339, 0.09674663096666336, -0.10312613099813461, 0.04908960685133934, -0.05607742443680763, 0.007964340969920158, 0.4248940646648407, -0.0037492404226213694, -0.10133323818445206, -0.027188418433070183, -0.10237392783164978, -0.14881989359855652, -0.004113856703042984, 0.004173686262220144, 0.021112345159053802, -0.02821461670100689], [-0.04754564166069031, -0.026886554434895515, 0.002272178651764989, 0.12039298564195633, 0.016258759424090385, -0.02886556088924408, 0.11740682274103165, -0.018625736236572266, -0.09438861906528473, -0.05677690729498863, -0.07048549503087997, -0.0014039333909749985, -0.0021365766879171133, 0.023962147533893585, -0.09817681461572647, 0.0013548987917602062, -0.024831784889101982, 0.008647262118756771, 0.04037761688232422, -0.04023628309369087, 0.04310130327939987, 0.012269094586372375, -0.07114077359437943, -0.00011886657011928037, 0.02636396884918213, 0.02560725435614586, 0.021842634305357933, -0.014103207737207413, -0.039936624467372894, 0.000456686713732779, 0.012661485001444817, -0.015525699593126774], [-0.09288035333156586, -0.0021121117752045393, 0.04086935892701149, 0.19283907115459442, 0.10202904045581818, 0.012183724902570248, 0.19148197770118713, 0.023445403203368187, -0.11675192415714264, -0.010026427917182446, -0.15762946009635925, -0.01123550534248352, -0.03303747624158859, 0.07290709018707275, -0.24585093557834625, 0.011796359904110432, -0.10318703204393387, 0.03879115357995033, 0.08371097594499588, 0.03466486930847168, 0.10237883776426315, -0.021936284378170967, -0.13165193796157837, 0.0004548646684270352, 0.08280210942029953, 0.054653242230415344, 0.33281558752059937, 0.24603183567523956, -0.04125024378299713, -0.0020168700721114874, -0.0024079573340713978, -0.01482673641294241], [-0.02828843519091606, -0.003277343697845936, 0.007863865233957767, 0.04909149184823036, 0.015138985589146614, -0.00031580228824168444, 0.049124665558338165, -0.0018199189798906446, -0.03821706771850586, -0.0006938009755685925, -0.032797351479530334, -0.0007349730585701764, -0.006149951834231615, -0.010774306021630764, -0.042766742408275604, 0.0010358542203903198, -0.018887391313910484, 0.00902032945305109, 0.023993998765945435, 0.002571518300101161, 0.02808528207242489, -0.0025547032710164785, -0.03532278165221214, -0.00011350639397278428, 0.007433441933244467, 0.015048100613057613, 0.012309707701206207, 0.014183820225298405, -0.006039230618625879, 0.00024893463705666363, 0.0015389324398711324, -0.008052993565797806], [-0.1232452392578125, 0.014594699256122112, 0.027318231761455536, 0.20124384760856628, 0.06386204063892365, 0.0016071770805865526, 0.201978400349617, 0.014418012462556362, -0.16590242087841034, 0.051051460206508636, -0.16076122224330902, -0.0039711142890155315, -0.023229073733091354, -0.027997799217700958, -0.19718685746192932, 0.0050711133517324924, -0.06295973062515259, 0.025290358811616898, 0.08242222666740417, 0.019805926829576492, 0.10513918101787567, -0.023975076153874397, -0.17884580790996552, -0.00011737050954252481, 0.041847001761198044, 0.052633993327617645, 0.06400474160909653, 0.08040834963321686, -0.034017518162727356, 0.00018512037058826536, 0.009502340108156204, 0.015253961086273193], [-0.03250822424888611, -0.012373367324471474, 0.0044312854297459126, 0.07604927569627762, 0.014783770777285099, -0.006870944052934647, 0.07340755313634872, -0.007128471974283457, -0.043898697942495346, 0.0006547290831804276, -0.05686609074473381, -0.001065433374606073, -0.0029701406601816416, -0.021661806851625443, -0.05201767757534981, 0.0016449111280962825, 0.015424664132297039, 0.00702280318364501, 0.01594552770256996, -0.0001108206924982369, 0.019966425374150276, -0.006640268489718437, -0.06991047412157059, 5.591937588178553e-05, 0.004173208028078079, 0.01632620021700859, -0.011940537951886654, 0.007186406292021275, -0.00039861127152107656, -0.00010721306171035394, 0.011959112249314785, 0.001597489812411368], [6.568881508428603e-05, 3.953041414206382e-06, -1.3290278729982674e-05, -0.00020486017456278205, -4.433990761754103e-05, -6.7009955273533706e-06, -0.0002028206072282046, -2.409458147667465e-06, 9.469806536799297e-05, -1.1976018186032888e-06, 0.0001317384303547442, 3.641733314907469e-08, 1.1400879884604365e-05, 6.124306673882529e-05, 0.00016589488950558007, -8.543885314793442e-07, 2.354055868636351e-05, -3.8809368561487645e-05, -7.06440259818919e-05, 1.9847959265462123e-05, -6.409526395145804e-05, 2.3488846636610106e-05, 0.00014782526704948395, 9.070683404388546e-07, -1.856984818005003e-05, -3.250513691455126e-05, -1.1712403647834435e-05, -5.9376194258220494e-05, -6.956285005799145e-07, -1.603180066922505e-06, -1.4805681530560832e-05, -5.228124791756272e-06], [-0.05050097405910492, -0.02412412129342556, -0.002549325115978718, 0.07055191695690155, 0.04852538928389549, -0.07089796662330627, 0.0664837509393692, -0.0019867615774273872, -0.05503074824810028, 0.03623729944229126, -0.057131752371788025, 0.001720774220302701, 0.0008514428045600653, -0.009966959245502949, 0.0007989350706338882, -0.00155088328756392, 0.000992855173535645, 0.019371746107935905, 0.009439094923436642, 0.16849155724048615, 0.022395875304937363, 0.001199288759380579, 0.004491263534873724, -0.00015741591050755233, 0.046416476368904114, 0.012484482489526272, -0.09816931933164597, -0.08205483108758926, -0.02320026233792305, 0.0006178818293847144, 0.02144201099872589, 0.04636643826961517], [-0.013745254836976528, -0.0020300669129937887, -0.0003028307401109487, 0.01513692457228899, 0.004594200756400824, -0.001522618462331593, 0.01535064447671175, 0.0011471071047708392, -0.011053505353629589, 0.003948919475078583, -0.007279324810951948, -0.000295662903226912, -0.0005757160251960158, -0.003423017915338278, -0.012808846309781075, 0.00038501317612826824, -0.003226250410079956, -0.0009756774525158107, 0.004370414186269045, 0.0004986104322597384, 0.008331174030900002, -0.0016903221840038896, -0.010420916602015495, 1.818475720938295e-05, 0.0032597375102341175, 0.003472135169431567, 0.0014176592230796814, 0.003520286874845624, 0.0010276277316734195, -3.301595279481262e-05, 0.002529765013605356, -0.0042002941481769085], [-0.016995679587125778, -0.003878045128658414, 0.011904229409992695, 0.06781559437513351, 0.03294339403510094, 0.00131258147303015, 0.06479211151599884, -3.164684312650934e-05, -0.04709856957197189, 0.01595134288072586, -0.06175880506634712, -0.0018567914376035333, -0.010143354535102844, -0.022578364238142967, -0.06142396479845047, 0.0027549078222364187, -0.018220510333776474, 0.021801292896270752, 0.02491367608308792, 0.0030955045949667692, 0.024944791570305824, -0.0006056020502001047, -0.06829419732093811, -0.00036981311859562993, -0.009303601458668709, 0.011737882159650326, 0.032984890043735504, 0.031174665316939354, -0.0011674538254737854, 0.00046486029168590903, -0.0023766120430082083, 0.016745347529649734], [-0.0496770404279232, 0.002234061248600483, 0.005648964084684849, 0.07423339784145355, -0.00039157632272690535, -0.0024389124009758234, 0.07305988669395447, 0.002721372526139021, -0.05584391951560974, -0.0025453174021095037, -0.07274852693080902, -0.0013069314882159233, -0.005570950917899609, -0.017002416774630547, -0.045338213443756104, 0.0017126405145972967, -0.009029923006892204, 0.01874479278922081, 0.032451119273900986, -0.026297662407159805, 0.03462786227464676, 0.00329170492477715, -0.07214849442243576, 0.00012642722867894918, 0.018510498106479645, 0.01675272174179554, 0.010185686871409416, 0.01896621473133564, 0.012917832471430302, -0.0003142309724353254, 0.010946338064968586, 0.04410767927765846], [-0.10273294895887375, -0.002382424660027027, 0.011379475705325603, 0.12497448921203613, 0.08875302225351334, 0.0005201426101848483, 0.12469234317541122, -0.00396379828453064, -0.10472241789102554, 0.08549591153860092, -0.06413661688566208, 0.0005246471846476197, -0.009933223947882652, -0.04644891992211342, -0.07845323532819748, 0.0003276123898103833, -0.02773549221456051, 0.0010332667734473944, 0.08375760912895203, 0.0013888172106817365, 0.06409382820129395, 0.001505205174908042, -0.09335077553987503, -0.0004377011500764638, 0.02060367353260517, 0.03272997587919235, -0.02434089407324791, -0.005929498467594385, 0.012183627113699913, 0.0010654677171260118, 0.00032369475229643285, -0.009493363089859486], [0.00011881120735779405, 6.41550068394281e-05, -4.023926885565743e-05, -0.001052279956638813, -0.00031314496300183237, 9.565481741447002e-05, -0.0010413818527013063, 5.867296931683086e-05, 0.0004480796924326569, 0.00010882345668505877, 0.0008395257755182683, 2.9199077289376874e-06, 3.247564018238336e-05, 0.00014617452688980848, 0.0009080465533770621, -5.0504763748904224e-06, 0.00014581235882360488, -0.00011342042125761509, -0.0005078064859844744, 2.698551361390855e-05, -0.0004171263426542282, 7.763819303363562e-05, 0.0008020182722248137, 1.0630219549057074e-07, -0.00010872481652768329, -0.00010240646224701777, -0.0001386530202580616, -0.0003105052455794066, 0.00015390149201266468, -4.331111824740219e-08, -0.00010330392251489684, -6.1326842114795e-05], [-0.09540726244449615, 0.006972563453018665, 0.021640470251441002, 0.1748863011598587, 0.0496707409620285, -0.0053592040203511715, 0.17457184195518494, 0.00894149299710989, -0.14193709194660187, 0.029600592330098152, -0.130862757563591, -0.0028024681378155947, -0.01837601512670517, -0.0482926182448864, -0.15420357882976532, 0.003782726591452956, -0.04920972138643265, 0.021647430956363678, 0.07968471199274063, -0.0074562500230968, 0.0961800292134285, -0.023288212716579437, -0.14205628633499146, 2.624005173856858e-05, 0.03377808257937431, 0.04680760204792023, 0.023440442979335785, 0.05654961243271828, -0.036075592041015625, -5.698439053958282e-05, 0.016372952610254288, 0.01173807680606842], [-0.10284289717674255, 0.005716169252991676, 0.016151104122400284, 0.1363852322101593, 0.10992078483104706, 0.013924389146268368, 0.1371299922466278, 0.012058326974511147, -0.10197767615318298, 0.0824284628033638, -0.10142747312784195, -0.0030529270879924297, -0.015496053732931614, -0.04635784029960632, -0.15557000041007996, 0.004167710896581411, -0.05026690661907196, 0.006420603953301907, 0.09189342707395554, -0.0024090216029435396, 0.059868402779102325, -0.02738797478377819, -0.10064103454351425, -0.0004391499387566, 0.01978769525885582, 0.03340068459510803, 0.033531975001096725, 0.06532319635152817, 0.045302726328372955, 0.00045736951869912446, 0.017062073573470116, -0.04097642004489899], [-0.09838850796222687, 0.0567346028983593, 0.010106704197824001, 0.2016674429178238, 0.03598613291978836, -0.05145556479692459, 0.19511935114860535, -0.03165596351027489, -0.12957081198692322, 0.06993776559829712, 0.019878767430782318, 0.001796197728253901, -0.008533299900591373, -0.06069174036383629, -0.11427091062068939, -0.001676100306212902, -0.045455075800418854, -0.02025640197098255, 0.05446641147136688, -0.009351147338747978, 0.05771412327885628, 0.022138135507702827, -0.13640515506267548, -0.0016101598739624023, 0.03136220574378967, 0.030844908207654953, 0.07362695783376694, 0.026661232113838196, 0.009799343533813953, 0.002272567478939891, -0.019881397485733032, -0.06594742089509964], [-0.2480396330356598, 0.027182670310139656, -0.002174146706238389, 0.35780832171440125, 0.2540125548839569, -0.0847238153219223, 0.32119083404541016, 0.11251965165138245, -0.02541227638721466, 0.05420028790831566, -0.10733746737241745, 0.0021605791989713907, 0.0021139103919267654, 0.0020499301608651876, -0.16746699810028076, -0.0008778180344961584, 0.011139549314975739, -0.021573029458522797, 0.14959508180618286, -0.0009270983282476664, 0.06277052313089371, -0.005043981596827507, -0.10415376722812653, -0.00021005136659368873, 0.012531298212707043, 0.01784903183579445, -0.012035945430397987, -0.08456619083881378, 0.2312646359205246, 0.00045779600623063743, 0.027481168508529663, -0.05675819516181946], [0.010346486233174801, 0.01937897875905037, 0.008106440305709839, 0.01988622359931469, 0.024703042581677437, 0.00414300337433815, 0.01991010643541813, -0.004571270197629929, -0.014224754646420479, 0.0072371698915958405, -0.0247393436729908, -0.0014763439539819956, -0.004675319883972406, 0.003584362333640456, -0.02007128670811653, 0.0012170614209026098, -0.016359446570277214, -0.010484538972377777, 0.013695962727069855, -0.004429713357239962, 0.014544178731739521, 0.0004039740888401866, -0.01660805381834507, -0.0002033629425568506, -0.0020568598993122578, 0.007752506993710995, 0.03160131350159645, 0.026994874700903893, -0.02490079402923584, 0.00040167695260606706, -0.0010403705528005958, -0.006599863991141319], [-0.09564340114593506, -0.008377783000469208, 0.022087374702095985, 0.17573481798171997, 0.05888083577156067, 0.0015129062812775373, 0.17743366956710815, 0.01289568841457367, -0.11543209850788116, 0.001365767908282578, -0.13037267327308655, -0.005043922923505306, -0.019413068890571594, -0.05616939067840576, -0.13869059085845947, 0.005789047572761774, -0.06037703901529312, 0.028237931430339813, 0.07906434684991837, 0.01244912389665842, 0.08466046303510666, 0.006233404390513897, -0.1298789083957672, -0.0003549667017068714, 0.02127974107861519, 0.042509011924266815, 0.02002030797302723, 0.03875286132097244, -0.023029876872897148, -5.350903393264161e-06, -0.0096315648406744, -0.022415217012166977], [-0.040404465049505234, -0.019302941858768463, 0.006240863353013992, 0.1954312026500702, 0.026477495208382607, -0.005790334660559893, 0.1908852607011795, -0.009003886952996254, -0.14448678493499756, -0.056676942855119705, -0.07195410132408142, -0.002190374070778489, -0.0026293769478797913, -0.01543966680765152, -0.1786341518163681, 0.0030091709922999144, -0.06541343778371811, 0.059771161526441574, 0.12751896679401398, -0.06704150885343552, 0.06910739094018936, 0.0035741468891501427, -0.092471182346344, -0.0004410614201333374, -0.029219098389148712, 0.037281334400177, -0.07068859040737152, 0.06444428861141205, -0.054990559816360474, -0.00025458683376200497, 0.032118961215019226, -0.08119852095842361], [-0.028324315324425697, -0.023559104651212692, 0.001416136627085507, 0.07156677544116974, 0.035576075315475464, -0.013013082556426525, 0.0711156576871872, 0.014312407933175564, -0.030379939824342728, -0.02167537994682789, -0.08530719578266144, 0.0014582014409825206, -0.002568325027823448, 0.014230669476091862, -0.08698293566703796, 8.531536877853796e-06, -0.019508229568600655, 0.030718164518475533, 0.040001098066568375, -0.014897116459906101, 0.028916964307427406, 0.0055979518219828606, -0.06463607400655746, -0.00029641343280673027, -0.024138489738106728, 0.013874000869691372, 0.03873468190431595, 0.11645136028528214, 0.08449110388755798, 0.0010016337037086487, 0.006988638546317816, 0.07089922577142715], [-0.08333466202020645, -0.007708813063800335, 0.024771317839622498, 0.189782053232193, 0.059635262936353683, -0.0012171503622084856, 0.19040820002555847, 0.00793097447603941, -0.12257902324199677, -0.01185228955000639, -0.14453354477882385, -0.007239129859954119, -0.02249976433813572, -0.04371437057852745, -0.14911536872386932, 0.008074202574789524, -0.06543397903442383, 0.017726648598909378, 0.08773475140333176, -0.011365500278770924, 0.09165765345096588, 0.006011890713125467, -0.1424291878938675, -4.1957748180720955e-05, 0.01594763621687889, 0.0465252548456192, 0.037623435258865356, 0.05017019063234329, -0.050819143652915955, -0.000787918281275779, -0.0023522456176579, -0.014580849558115005], [-0.011246520094573498, -0.07032492011785507, -0.006101356819272041, 0.03774716705083847, -0.023421896621584892, -0.006902654189616442, 0.03516114130616188, -0.015315070748329163, -0.024428019300103188, -0.11053387075662613, -0.023130472749471664, 0.0037833552341908216, 0.005032974295318127, -0.022012481465935707, -0.033811334520578384, -0.0028976998291909695, -0.029819658026099205, -0.022534890100359917, 0.038304608315229416, -0.03202692046761513, 0.011068837717175484, -0.023697473108768463, 0.024554943665862083, -0.00026968418387696147, -0.06344880163669586, 0.004464048892259598, -0.08680921047925949, -0.04506593942642212, 0.006528283469378948, 0.0008142523001879454, 0.010271648876369, 0.07346391677856445], [-0.11010294407606125, -0.0035289351362735033, -0.020314397290349007, 0.17557793855667114, 0.024086184799671173, -0.0006241786759346724, 0.17625534534454346, -0.002484002150595188, -0.1630723923444748, 0.02045939862728119, -0.11579093337059021, 0.007019601296633482, 0.012845246121287346, -0.04487215727567673, -0.15433338284492493, -0.004398749675601721, -0.04252389818429947, 0.024111755192279816, 0.066432885825634, -0.0779506117105484, 0.07179921865463257, -0.0012321671238169074, -0.1400602161884308, 0.0018811194458976388, -0.0020941761322319508, 0.040856897830963135, -0.023982452228665352, 0.04798724874854088, -0.025468159466981888, -0.0006837538094259799, 0.002033068798482418, 0.004113877657800913], [-0.06204117834568024, 0.07185700535774231, -0.014398936182260513, 0.21827498078346252, 0.08947756886482239, -0.03180741146206856, 0.21798452734947205, 0.031138187274336815, -0.1348346620798111, 0.05672721937298775, -0.1798471361398697, -0.0032640714198350906, 0.0053665232844650745, -0.042859114706516266, -0.1648412048816681, 0.00616480503231287, -0.03992238640785217, 0.002114188391715288, 0.05927285924553871, 0.04719030112028122, 0.07648763060569763, 0.020292481407523155, -0.19158266484737396, -0.0007241290295496583, 0.09150579571723938, 0.04853943735361099, 0.00020045322889927775, 0.0022959569469094276, -0.11863579601049423, -0.0029251377563923597, -0.010272528044879436, 0.019640805199742317], [-0.09211241453886032, 0.005308120045810938, 0.015040209516882896, 0.13748373091220856, 0.010137880221009254, 0.052775830030441284, 0.13361161947250366, -0.03956235572695732, -0.045366302132606506, -0.003635887522250414, -0.05960821732878685, -0.006198268849402666, -0.013017021119594574, 0.022277384996414185, -0.09622029215097427, 0.006263089831918478, 0.020866774022579193, 0.024869967252016068, 0.04256321117281914, 0.0027604904025793076, 0.04173794016242027, 0.06256666034460068, -0.14789369702339172, 0.0009613275760784745, -0.04811369627714157, 0.02320195361971855, 0.021679475903511047, 0.026778800413012505, -0.008856790140271187, -0.002490994520485401, -0.025762297213077545, 0.031381797045469284], [0.0008505021105520427, 0.0008683075429871678, -0.0004785800410900265, 0.002111509209498763, 0.003695014864206314, 0.0007385266362689435, 0.00210754107683897, 0.00015595776494592428, 0.0001163913038908504, 0.0004271242069080472, -0.0025417960714548826, 8.339623309439048e-05, 0.0004505760152824223, 0.0003798399120569229, -0.0022336598485708237, -9.026144834933802e-05, -6.0183974710525945e-05, -0.00022568651183973998, 0.00018889084458351135, 0.00019952563161496073, -0.00029947073198854923, 0.00048100698040798306, -0.0009382828138768673, -1.0733642739069182e-05, -0.0007265145541168749, -0.0006350766634568572, 0.0038797135930508375, 0.0025256816297769547, -0.0010675062658265233, 1.245944804395549e-05, -0.000836701481603086, -0.0003513891133479774], [0.006277273874729872, 0.009496058337390423, 0.0028438023291528225, 0.011681023985147476, 0.014252381399273872, 0.0023699295707046986, 0.011711100116372108, -0.002929813927039504, -0.00792829692363739, 0.00247140577994287, -0.015810351818799973, 0.000134645655634813, -0.0009514563716948032, 0.002399265766143799, -0.01180896908044815, -0.00022100326896179467, -0.008560934104025364, -0.004925242159515619, 0.006489966530352831, -0.0022571587469428778, 0.007065751124173403, 0.0002969291526824236, -0.008653037250041962, -8.178973803296685e-05, -0.001689674099907279, 0.0027858735993504524, 0.020602215081453323, 0.01680247113108635, -0.015128147788345814, 0.00023793175932951272, -0.0012629168340936303, -0.002174124587327242], [-0.09024213254451752, -0.03472316637635231, 0.0067412820644676685, 0.1360279619693756, -0.005682365503162146, -0.0525086335837841, 0.13619670271873474, 0.02304580807685852, -0.02921108715236187, 0.03121538646519184, -0.10658742487430573, -0.0025457332376390696, -0.006069754250347614, -0.05857528746128082, -0.019631672650575638, 0.0025109059643000364, -0.06773709505796432, 0.056354820728302, -0.004729400388896465, -0.03589272126555443, 0.030450593680143356, -0.034723132848739624, -0.13826097548007965, -0.0007538107456639409, 0.048053450882434845, 0.019085971638560295, 0.031682662665843964, -0.021220728754997253, -0.0018090265803039074, 0.00043186460970900953, 0.02934812568128109, 0.019667109474539757], [-0.1284758597612381, -0.06572948396205902, 0.009899268858134747, 0.18167904019355774, 0.013292539864778519, -0.0006050561787560582, 0.1874294877052307, 0.019116558134555817, -0.14049042761325836, -0.013562181033194065, -0.1107795387506485, -0.0004419227479957044, -0.011462544091045856, -0.05815180763602257, -0.18404534459114075, 0.001965519040822983, -0.11007227748632431, -0.009993488900363445, 0.06920979171991348, -0.01171389315277338, 0.07446196675300598, -0.03354088217020035, -0.1286793053150177, -0.0009405565215274692, 0.025187170132994652, 0.040831487625837326, 0.0021381177939474583, 0.04188217967748642, -0.016600092872977257, 0.0014760626945644617, 0.0040175397880375385, -0.051124755293130875], [0.0006078502628952265, 0.0005459942040033638, -0.0004922581138089299, 7.82350471126847e-05, 0.00193625851534307, 0.0006243822281248868, 8.022136898944154e-05, 0.00017153138469439, 0.0007913496810942888, 0.00038839655462652445, -0.00035260579898022115, 6.445823237299919e-05, 0.00039809566806070507, 0.0001209244946949184, -0.0003722827532328665, -7.033429574221373e-05, 0.0004916158504784107, -0.00016625113494228572, -0.00043295035720802844, 0.00031777791446074843, -0.0010162635007873178, 0.00040381946018896997, 0.0005333083099685609, -1.0232362001261208e-05, -0.0005958694964647293, -0.0006253179162740707, 0.0021579954773187637, 0.0008579183486290276, -0.00013042836508248, 1.2878311281383503e-05, -0.0007384549244306982, -0.00035443887463770807], [-0.18639633059501648, -0.004894210956990719, -0.0028884420171380043, 0.46074777841567993, 0.12890957295894623, -0.02708139456808567, 0.21712546050548553, 0.0469788983464241, -0.038225144147872925, 0.017763644456863403, -0.5634337663650513, 0.002138352021574974, 0.003199055092409253, -0.056833043694496155, -0.3597524166107178, -0.0011663709301501513, -0.045418404042720795, 0.12380649894475937, 0.0680926963686943, -0.1686117798089981, 0.007833332754671574, -0.06895571202039719, -0.5443289875984192, 0.00023437407799065113, 0.129147008061409, 0.003920799121260643, 0.08825408667325974, 0.11521796137094498, 0.036323290318250656, 0.0005908872117288411, 0.05866198614239693, 0.15857385098934174], [-0.36676597595214844, -0.0003041448362637311, 0.011439544148743153, 0.6754163503646851, 0.14100542664527893, -0.013639390468597412, 0.5723502039909363, 0.04447340965270996, -0.17446619272232056, 0.09764445573091507, -0.479923278093338, -0.005966920405626297, -0.007157479412853718, -0.1336493194103241, -0.5232579708099365, 0.006379036232829094, -0.1466367393732071, 0.20907171070575714, 0.2400847226381302, -0.04846583679318428, 0.09822297841310501, -0.05320319905877113, -0.511760413646698, 8.589810022385791e-06, 0.05788804218173027, 0.03493829444050789, 0.07685264199972153, 0.06606730818748474, 0.03566060587763786, -0.0015146563528105617, 0.042294327169656754, -0.05296340584754944], [-0.037809498608112335, -0.05947931110858917, -0.008498952724039555, 0.11645451933145523, 0.05879776179790497, -0.056221481412649155, 0.1088409423828125, -0.027376892045140266, -0.07425510883331299, -0.05859571322798729, -0.04799744486808777, 0.0069450074806809425, 0.009007235988974571, -0.02761750854551792, -0.028763718903064728, -0.006849493831396103, 0.010890170000493526, -0.003389042103663087, 0.023753298446536064, 0.019808847457170486, 0.018824126571416855, 0.01256980374455452, -0.033312611281871796, -0.0024133212864398956, 0.01784738525748253, 0.016279149800539017, -0.10095657408237457, -0.14405038952827454, -0.02602275460958481, 0.004560832865536213, 0.0342247299849987, -0.03743452578783035], [-0.04525275155901909, -0.028048543259501457, 0.000494174484629184, 0.07734588533639908, 0.020734664052724838, 0.037079308182001114, 0.07550570368766785, 0.033944614231586456, 0.03300424665212631, -0.06583654880523682, -0.06983299553394318, 0.0005694201099686325, -8.79479557625018e-06, 0.0622091107070446, -0.15918391942977905, -0.00010647832823451608, -0.04251107573509216, -0.03657681867480278, -0.014723015017807484, -0.04342566803097725, 0.01815662905573845, -0.029751049354672432, -0.01733943447470665, 0.0011784726521000266, 0.09602086991071701, 0.002070857211947441, 0.3136618435382843, 0.22997067868709564, 0.038697727024555206, -0.0012414883822202682, -0.01557308342307806, 0.017219018191099167], [-0.04224957898259163, -0.004309563431888819, 0.012991150841116905, 0.06360014528036118, 0.020930876955389977, 0.00044852268183603883, 0.06346752494573593, -0.0017734173452481627, -0.05153941735625267, 2.66575843852479e-05, -0.04317063093185425, -0.0016422480111941695, -0.010303370654582977, -0.014769347384572029, -0.05581050366163254, 0.0020931721664965153, -0.02602204494178295, 0.012722845189273357, 0.03272322192788124, 0.003792855888605118, 0.03810473158955574, -0.003848981810733676, -0.04647604376077652, -0.0001725188922137022, 0.011178603395819664, 0.021424341946840286, 0.016208505257964134, 0.01975986361503601, -0.007904130034148693, 0.00037939485628157854, 0.0021992167457938194, -0.012266322039067745], [-0.09308242797851562, -0.004700813442468643, 0.007033963222056627, 0.0763983279466629, -0.005678415298461914, 0.025685088708996773, 0.08258096128702164, -0.007851128466427326, -0.06817489117383957, -0.04076234623789787, -0.0709594264626503, -0.002604546956717968, -0.010204523801803589, 0.03807494416832924, -0.19230836629867554, 0.0033238553442060947, -0.07602370530366898, -0.0009971684776246548, 0.02947690710425377, 0.009685665369033813, 0.035850655287504196, -0.03016870655119419, -0.1359798163175583, -0.00015840328705962747, 0.04103614389896393, 0.01813165657222271, 0.0333997942507267, 0.10313920676708221, 0.014913296326994896, -0.0004928238922730088, -0.016995199024677277, 0.027489062398672104], [-0.07833143323659897, -0.03853263705968857, 0.006802304647862911, 0.21563401818275452, 0.035141389816999435, -0.0020535970106720924, 0.20242616534233093, -0.01787056215107441, -0.11027426272630692, 0.0006243054522201419, -0.18635667860507965, -0.0022873482666909695, -0.004039010964334011, -0.08893153816461563, -0.1678546518087387, 0.003160488558933139, -0.02377193234860897, 0.023397913202643394, 0.0643920749425888, -0.03564158454537392, 0.04001768305897713, -0.053577933460474014, -0.18486148118972778, 0.00066201580921188, 0.006385988090187311, 0.028249910101294518, 0.0018623479409143329, 0.049665987491607666, -0.020118344575166702, -0.0006853928789496422, 0.05185309424996376, -0.022927550598978996], [7.55060464143753e-05, 1.101650923374109e-06, -1.6863692508195527e-05, -0.00022420109598897398, -5.757736289524473e-05, -6.615633992623771e-06, -0.00022188902948983014, -4.870510110777104e-06, 0.00010890992416534573, -9.62911235546926e-06, 0.00014826830010861158, 1.099740870813548e-06, 1.4460005331784487e-05, 6.0761602071579546e-05, 0.00018448024638928473, -1.984709570024279e-06, 3.150113843730651e-05, -4.2058873077621683e-05, -8.14817612990737e-05, 3.136312079732306e-05, -7.598297816002741e-05, 2.522753129596822e-05, 0.00016320710710715503, 7.940534487715922e-07, -2.1967554857837968e-05, -3.878694769809954e-05, -2.486215998942498e-05, -7.206002192106098e-05, 6.474881502072094e-06, -1.2999375940125901e-06, -1.4327391909318976e-05, -7.593806458316976e-06], [-0.0811956524848938, -0.02429918944835663, -0.008618677966296673, 0.07973209768533707, 0.04399543255567551, -0.04585880786180496, 0.07425033301115036, 0.02890262007713318, -0.02704603224992752, 0.013136589899659157, -0.053532674908638, 0.006345353554934263, 0.00776606285944581, -0.05543128401041031, 0.03712017461657524, -0.005950293503701687, 0.02657661773264408, 0.03380992263555527, -0.007602683734148741, 0.1761007457971573, 0.010953458957374096, -0.007859067991375923, 0.0124226538464427, -0.0007015299634076655, 0.05281256511807442, 0.005145056638866663, -0.11639653146266937, -0.08907771110534668, 0.021079089492559433, 0.0020772891584783792, 0.018895762041211128, 0.025836750864982605], [-0.015393826179206371, -0.0021746810525655746, -0.0010306225158274174, 0.017178406938910484, 0.005171174183487892, -0.0018139980966225266, 0.017340553924441338, 0.001406898838467896, -0.012432048097252846, 0.0044752126559615135, -0.008302588947117329, -0.00022373851970769465, -0.00019491392595227808, -0.0038359039463102818, -0.014643590897321701, 0.00033421567059122026, -0.0034462299663573503, -0.0009207902476191521, 0.004760492127388716, 0.0005169166252017021, 0.009110989049077034, -0.0017016367055475712, -0.011889670975506306, 2.3513211999670602e-05, 0.003609077539294958, 0.0038789419922977686, 0.0015895977849140763, 0.00398966483771801, 0.0010211789049208164, -4.3738418753491715e-05, 0.0026804462540894747, -0.004728179425001144], [-0.03521149978041649, -0.003667552722617984, 0.017938394099473953, 0.1602231115102768, 0.041925400495529175, 0.009510003961622715, 0.15624289214611053, 0.004013890866190195, -0.11275212466716766, 0.01749134249985218, -0.14780929684638977, -0.006826168857514858, -0.015733404085040092, -0.05620480328798294, -0.15289755165576935, 0.009486601687967777, -0.04587194696068764, 0.06476029008626938, 0.038044802844524384, 0.013440335169434547, 0.050109151750802994, -0.014133062213659286, -0.17674371600151062, -0.0009259966318495572, -0.007702378090471029, 0.011132410727441311, 0.1015692949295044, 0.0951823815703392, -0.0043514082208275795, -0.000620688428170979, 0.0009330036118626595, 0.03195323795080185], [-0.08487199246883392, 0.012058218941092491, 0.004948573652654886, 0.13171762228012085, -0.008426357991993427, -0.012701300904154778, 0.13000749051570892, 0.0030740743968635798, -0.0961756780743599, -0.012369805946946144, -0.12728634476661682, -0.0016325495671480894, -0.005468402057886124, -0.019286835566163063, -0.07613111287355423, 0.0023527969606220722, -0.01515568420290947, 0.035586290061473846, 0.05682767182588577, -0.05486369505524635, 0.053497616201639175, 0.013676518574357033, -0.12729139626026154, 0.0005693615530617535, 0.02719254232943058, 0.028118669986724854, 0.017277881503105164, 0.012454390525817871, 0.021311702206730843, -0.0005900998949073255, 0.02021517977118492, 0.09375905990600586], [-0.1360296607017517, 0.015446264296770096, 0.014583058655261993, 0.17820800840854645, 0.15922357141971588, 0.0025461178738623857, 0.17710721492767334, -0.010378961451351643, -0.1327800452709198, 0.14346365630626678, -0.05092097446322441, -6.214010682015214e-06, -0.012340770103037357, -0.04229160025715828, -0.0871991217136383, 0.0008872782345861197, -0.01886751689016819, -0.005895385053008795, 0.11997576802968979, 0.03074253536760807, 0.0717497393488884, -0.0006968215457163751, -0.12202709168195724, -0.001149265212006867, 0.06107172742486, 0.039830613881349564, -0.028411531820893288, -0.036610301584005356, 0.024758528918027878, 0.0017430165316909552, 0.005956672132015228, -0.03398212417960167], [0.00013048767868895084, 5.5507494835183024e-05, -4.426410305313766e-05, -0.001091987593099475, -0.000332076073391363, 9.451169898966327e-05, -0.0010805261554196477, 4.508526035351679e-05, 0.000467891339212656, 9.400885755894706e-05, 0.000866254442371428, 3.6844041915173875e-06, 3.512679904815741e-05, 0.00014348485274240375, 0.0009398426045663655, -5.873697773495223e-06, 0.0001601927651790902, -0.00011486277071526274, -0.0005267100059427321, 3.202096195309423e-05, -0.0004401016340125352, 7.899125921539962e-05, 0.0008348982082679868, -9.799756384154534e-08, -0.00011625963088590652, -0.00010824797209352255, -0.0001599232928128913, -0.0003285376587882638, 0.000170696948771365, 1.6824935755721526e-07, -0.00010275594831909984, -6.537063745781779e-05], [-0.011058815754950047, -0.0035565912257879972, -0.0047117783688008785, 0.011830302886664867, 0.02642746828496456, -0.0074686650186777115, 0.01193266175687313, -0.0062111117877066135, -0.01044001430273056, 0.023820627480745316, 0.021791329607367516, 0.0021384512074291706, 0.003141809953376651, -0.003382065100595355, -0.009943690150976181, -0.001735059660859406, 0.012766506522893906, -0.014928233809769154, 0.013371330685913563, -0.028153622522950172, 0.002785739488899708, -0.03754429146647453, 0.0005603418685495853, -7.939981878735125e-05, 0.03161869943141937, 0.0012655036989599466, -0.0800594910979271, -0.03428263962268829, 0.057314932346343994, 0.0007015536539256573, 0.04218217357993126, -0.009332925081253052], [-0.09928788244724274, -0.0037084906361997128, 0.01539977639913559, 0.1088244691491127, -0.014166230335831642, 0.046310413628816605, 0.11153052002191544, -0.017050061374902725, -0.053057003766298294, -0.02821829915046692, -0.07209297269582748, -0.0063830651342868805, -0.014612147584557533, -0.02830326557159424, -0.1849035620689392, 0.0067659830674529076, -0.04633711278438568, 0.04897115379571915, 0.043190017342567444, 0.054789796471595764, 0.04061483219265938, -0.010774421505630016, -0.06537185609340668, 0.0005576484836637974, 0.015727991238236427, 0.02175815775990486, 0.11938954889774323, 0.12443716078996658, -0.027018973603844643, -0.001244467799551785, 0.002010827185586095, -0.1289706975221634], [0.22712606191635132, -0.06814002990722656, 0.05613094940781593, -0.061965376138687134, 0.21590818464756012, 0.024596016854047775, -0.10240897536277771, 0.0447254553437233, -0.027385761961340904, -0.02014869451522827, -0.0032018451020121574, -0.030066249892115593, -0.04862336814403534, 0.0018128027440980077, -0.02728837914764881, 0.02641066536307335, -0.039522524923086166, 0.06331618875265121, 0.033212076872587204, 0.015153377316892147, 0.04066409170627594, 0.04648580774664879, 0.00795229896903038, 0.006478065624833107, -0.08576543629169464, -0.03370732069015503, -0.03451666235923767, 0.0023903814144432545, -0.00581749202683568, -0.015523151494562626, -0.015445669181644917, 0.034040238708257675], [0.1555018424987793, 0.4532845616340637, 0.0012882230803370476, -0.10608699172735214, -0.14402009546756744, -0.07531055808067322, -0.09653929620981216, -0.2736889719963074, -0.009003138169646263, 0.1243748590350151, 0.031145377084612846, -0.000927389191929251, -0.0012019544374197721, -0.05394015461206436, -0.021376410499215126, 0.0021673503797501326, 0.004282493609935045, -0.05469130352139473, 0.18088211119174957, 0.037812281399965286, 0.014165973290801048, -0.04949081316590309, 0.006241000257432461, -0.00043048724182881415, 0.2281007021665573, -0.0029925862327218056, 0.012397268787026405, 0.029470324516296387, 0.033048342913389206, -0.0005328115075826645, -0.04585268720984459, -0.004735068883746862], [0.03695386275649071, 0.04342889040708542, 0.023162586614489555, 0.01287089567631483, 0.020677033811807632, 0.02749554254114628, 0.012969251722097397, -0.015002213418483734, -0.014115585014224052, 0.006567284464836121, -0.02177366428077221, -0.017937907949090004, -0.01665385626256466, 0.015688074752688408, -0.013651445508003235, 0.015634525567293167, -0.019373048096895218, -0.017655126750469208, 0.012440415099263191, -0.0035376599989831448, 0.013737460598349571, -0.004454814828932285, -0.013838040642440319, -0.0024586752988398075, 0.001729348092339933, 0.01460705790668726, 0.027806678786873817, 0.024481002241373062, -0.03718865290284157, -0.004294578917324543, -0.005141864065080881, -0.021410582587122917], [-0.06960319727659225, -0.007836926728487015, 0.015500925481319427, 0.1326524317264557, 0.036649398505687714, 0.0005220428574830294, 0.14153940975666046, 0.008426900953054428, -0.09259910136461258, 0.00101092376280576, -0.10225536674261093, -0.003409991040825844, -0.013520891778171062, -0.058215927332639694, -0.09369521588087082, 0.0036332271993160248, -0.04335176944732666, 0.018597522750496864, 0.056199055165052414, 0.019217535853385925, 0.0620998777449131, 0.011660139076411724, -0.10035547614097595, -0.00027823582058772445, 0.012246938422322273, 0.02921638824045658, 0.006431914400309324, 0.0171731598675251, -0.029125675559043884, 6.0902402765350416e-05, -0.014522337354719639, -0.018049484118819237], [-0.025604330003261566, -0.017206139862537384, -0.03149890527129173, 0.0541633777320385, 0.30863073468208313, 0.06706135720014572, 0.04132290557026863, -0.05580608546733856, 0.09771198779344559, 0.13570058345794678, -0.07441636174917221, 0.017452050000429153, 0.0299502182751894, 0.06676129251718521, 0.0130661241710186, -0.016046427190303802, 0.10634259134531021, 0.04090708866715431, 0.18012864887714386, 0.06855553388595581, -0.0028958513867110014, 0.03910165652632713, 0.052357111126184464, -0.005928388796746731, -0.034931447356939316, -0.002472016029059887, -0.0029701993335038424, -0.006838036701083183, 0.11080018430948257, 0.009334500879049301, 0.06309419125318527, -0.08883478492498398], [-0.037516284734010696, 0.11483091861009598, -0.005832475144416094, -0.021498914808034897, -0.009062344208359718, 0.11335460096597672, -0.025364333763718605, 0.2514316737651825, 0.026509763672947884, -0.023828670382499695, -0.05849893018603325, 0.007659099996089935, 0.005414171144366264, -0.1676790863275528, -0.024149367585778236, -0.007980148307979107, -0.051370374858379364, -0.002481878036633134, -0.04004855826497078, -0.1781504601240158, -0.0073231845162808895, -0.30888065695762634, -0.04894424229860306, -0.0043036299757659435, 0.11477265506982803, 0.006349494680762291, -0.01823740452528, 0.10876214504241943, -0.002308235038071871, 0.0061378818936645985, -0.04478791728615761, -0.0895451083779335], [-0.07912062853574753, -0.019752137362957, 0.011563611216843128, 0.1462174504995346, 0.04514351487159729, -0.007751967292279005, 0.21362006664276123, 0.0016111938748508692, -0.12703320384025574, 0.018326884135603905, -0.134690061211586, -0.006860356777906418, -0.011459062807261944, -0.09426358342170715, -0.08134125173091888, 0.006716126576066017, -0.03453364595770836, 0.009509280323982239, 0.07439186424016953, 0.06864021718502045, 0.05203809216618538, 0.046055860817432404, -0.1451769322156906, 0.0029539482202380896, 0.006298016756772995, 0.031021522358059883, 0.014032762497663498, -0.002870896365493536, -0.04602048918604851, -0.004450338426977396, -0.03711725026369095, -0.005621861666440964], [-0.3869965970516205, 0.4635535180568695, 0.0036017457023262978, 0.0828031674027443, 0.24658958613872528, 0.04087042436003685, 0.047679539769887924, -0.07426714897155762, 0.1677577644586563, -0.17246513068675995, -0.06582281738519669, -0.0019078886834904552, -0.004862163215875626, 0.10363779217004776, 0.07849189639091492, 0.0017550544580444694, 0.06791455298662186, -0.039474111050367355, -0.5248944163322449, -0.03677010163664818, 0.004452298395335674, -0.4077294170856476, 0.04694909229874611, 0.001923948060721159, 0.021018652245402336, -0.0054700071923434734, -0.0736490860581398, -0.02813473902642727, -0.2570226490497589, -0.0027361998800188303, 0.051255013793706894, 0.026424385607242584], [0.14355237782001495, 0.11682400852441788, 0.04954621568322182, -0.06969216465950012, 0.08912786096334457, 0.02175878919661045, -0.08814214915037155, 0.07358524203300476, 0.209686741232872, -0.13714924454689026, 0.0014205477200448513, -0.025409230962395668, -0.04145393520593643, 0.09720233082771301, 0.06493121385574341, 0.02089710719883442, 0.013657349161803722, -0.011389456689357758, 0.04178723692893982, 0.02598525583744049, -0.005641676019877195, -0.004993355832993984, 0.08065156638622284, 0.0036770892329514027, 0.056575674563646317, -0.022053640335798264, 0.12286345660686493, 0.0020714399870485067, 0.021558498963713646, -0.01154843159019947, -0.04547587037086487, -0.032887835055589676], [-0.09318507462739944, -0.014410068280994892, -0.06886932998895645, 0.012872123159468174, 0.173600971698761, 0.044462110847234726, 0.014390069991350174, -0.0059647876769304276, -0.14675621688365936, 0.45493003726005554, 0.04148796573281288, 0.021034741774201393, 0.05847172811627388, -0.0004949113936163485, -0.031213728711009026, -0.018572520464658737, -0.02657247520983219, 0.04239736497402191, 0.11689828336238861, -0.014224395155906677, -0.030820105224847794, -0.05079538747668266, 0.014623516239225864, -0.009013990871608257, -0.014720001257956028, 0.0387536957859993, -0.06009126454591751, 0.0382227785885334, -0.009456404484808445, 0.012496092356741428, 0.024507589638233185, 0.05779670178890228], [0.011524849571287632, -0.073166124522686, -0.004711740184575319, -0.12735792994499207, -0.018305279314517975, 0.062488652765750885, -0.11827491223812103, 0.11459881067276001, -0.003601658856496215, 0.026950057595968246, 0.12960468232631683, 0.002267740434035659, 0.0027264058589935303, -0.294729083776474, 0.012867409735918045, -0.0013822929468005896, -0.20392709970474243, 0.037595219910144806, 0.05876088887453079, -0.05792106315493584, -0.011948526836931705, -0.3008559048175812, 0.22391127049922943, -0.0031718851532787085, 0.008714988827705383, -0.01184044685214758, 0.026020213961601257, 0.11601372063159943, -0.011513114906847477, 0.0009182612993754447, 0.18788455426692963, -0.29801875352859497], [-0.03000386618077755, -0.03507497161626816, -0.008164392784237862, -0.0001238693221239373, -0.012345453724265099, -0.010792757384479046, -0.00011863499094033614, 0.010282238945364952, -0.002400647383183241, 0.003146279603242874, 0.00573486415669322, 0.004185405559837818, 0.0029632903169840574, -0.012648656964302063, 0.0016769656213000417, -0.0024644508957862854, 0.00715529965236783, 0.014172878116369247, -0.0033228695392608643, -0.0011747987009584904, -0.0003215419128537178, -0.0031033968552947044, -0.000160125971888192, 0.00195482699200511, -0.0010015303269028664, -0.0017392055597156286, -0.0191989466547966, -0.007954468950629234, 0.02568390592932701, -0.0016980982618406415, 0.006920792628079653, 0.009470505639910698], [-0.03189680352807045, -0.02862565778195858, -0.020243920385837555, -0.011660733260214329, -0.015314309857785702, -0.023073919117450714, -0.011810668744146824, 0.013690738938748837, 0.016114367172122, -0.007552911527454853, 0.022964416071772575, 0.014554321765899658, 0.014187107793986797, -0.012639018706977367, 0.013374408707022667, -0.01316437590867281, 0.01829494535923004, 0.01643514260649681, -0.012609368190169334, 0.003539992729201913, -0.013793972320854664, 0.003353603882715106, 0.015116756781935692, 0.002265209099277854, -0.0003309622697997838, -0.013680517673492432, -0.017849290743470192, -0.024559352546930313, 0.03232266753911972, 0.0025178163778036833, 0.007575567811727524, 0.01067420281469822], [-0.0045728785917162895, 0.045816630125045776, 0.00498654879629612, 0.029069995507597923, 0.06469196826219559, -0.19707077741622925, 0.014888674952089787, -0.2166188806295395, 0.028879743069410324, 0.0048074983060359955, 0.09545683115720749, -0.005878043361008167, 0.003283099038526416, 0.25747787952423096, -0.013786648400127888, 0.004800628870725632, 0.16008301079273224, -0.010338932275772095, -0.07638571411371231, 0.03357524052262306, 0.017309144139289856, 0.2967173457145691, 0.053552716970443726, -0.008108527399599552, -0.012058138847351074, -0.000643074803519994, 0.06727530062198639, -0.051610082387924194, 0.007205406669527292, 0.003214785363525152, -0.6049759387969971, 0.4762614667415619], [0.004374817479401827, 0.061564378440380096, 0.00035482426756061614, -0.10720307379961014, 0.000300896615954116, 0.033340100198984146, -0.12620411813259125, 0.04495905712246895, 0.05359993502497673, 0.03285204619169235, -0.04551544040441513, 0.009754829108715057, 0.005378914996981621, -0.16246503591537476, 0.20124174654483795, -0.008726309984922409, 0.11983397603034973, 0.08040502667427063, -0.03128708526492119, 0.10356102138757706, -0.032409004867076874, -0.019601337611675262, 0.008433489128947258, -0.0019098998745903373, -0.05012824013829231, -0.008098349906504154, -0.07929259538650513, -0.08895964175462723, -0.021260671317577362, 0.00430357176810503, 0.058288924396038055, 0.08254822343587875], [0.023953745141625404, 0.03137616440653801, 0.007292881608009338, 0.0013528194976970553, 0.009775030426681042, 0.008901134133338928, 0.0012606324162334204, -0.009166214615106583, 0.001361518050543964, -0.005534230265766382, -0.005746350158005953, -0.0027138525620102882, -0.0020285407081246376, 0.011151229031383991, -0.0028394286055117846, 0.001014930079691112, -0.007845321670174599, -0.00881553627550602, 0.00517735630273819, 0.0004981152596883476, 0.0013181634712964296, 0.0014008635189384222, -0.0011934245703741908, -0.001464260509237647, 0.0013638901291415095, 0.0021360369864851236, 0.01726428233087063, 0.009029798209667206, -0.02317926473915577, 0.0018077681306749582, -0.005532939452677965, -0.00588190695270896], [-0.07594097405672073, -0.019195450469851494, 0.0002614360419102013, -0.04240282624959946, 0.024465370923280716, 0.07009755074977875, 0.019355738535523415, 0.02282002381980419, -0.004600861109793186, -0.010609009303152561, 0.23437511920928955, -3.19179889629595e-05, 0.00014041944814380258, -0.34786102175712585, -0.04091804474592209, -0.0004449738480616361, 0.29422348737716675, -0.014007756486535072, -0.0411284975707531, 0.08370412886142731, -0.0006407225737348199, 0.18442976474761963, -0.12381479889154434, 0.0005991834332235157, -0.07971906661987305, 0.00015713994798716158, 0.12841729819774628, 0.009073305875062943, -0.008690573275089264, -0.0007356121204793453, -0.044449370354413986, -0.3531121611595154], [-0.29049938917160034, 0.2598787844181061, 0.0011662498582154512, 0.09614693373441696, 0.2437666356563568, 0.10434696823358536, -0.09035157412290573, 0.27319419384002686, 0.017506364732980728, -0.22124835848808289, 0.0165884867310524, -0.002225542441010475, 0.00016879050235729665, 0.012843688018620014, 0.20759549736976624, 0.002098381519317627, 0.06878169625997543, 0.2860015034675598, -0.29266294836997986, 0.001986009767279029, 0.003277063136920333, 0.09174920618534088, 0.01763976737856865, 0.0005854253540746868, 0.05620456114411354, -0.0013000266626477242, -0.015929417684674263, 0.002946960274130106, -0.09835383296012878, -0.0017082546837627888, -0.08765695989131927, 0.035791657865047455], [-0.031288906931877136, -0.27020207047462463, -0.014782820828258991, 0.07131728529930115, 0.3865731358528137, -0.11133384704589844, 0.07696641236543655, 0.283883273601532, -0.025439957156777382, -0.1595526784658432, -0.05298338830471039, 0.013702688738703728, 0.013719362206757069, -0.03892095759510994, -0.07109418511390686, -0.012799173593521118, -0.07857158780097961, 0.04052730277180672, 0.22375012934207916, -0.11317376047372818, 0.000545733782928437, 0.03159542381763458, -0.04561816155910492, -0.004547439981251955, -0.13219308853149414, 0.015662718564271927, -0.012350446544587612, -0.004157789517194033, 0.09054645895957947, 0.009092775173485279, 0.041958071291446686, -0.049982309341430664], [0.0024140209425240755, -0.1448623389005661, 0.0005333673907443881, -0.14793908596038818, -0.10988592356443405, 0.22190243005752563, -0.02311951108276844, -0.2386614829301834, 0.027177970856428146, 0.0910801962018013, 0.4568724036216736, 0.00026839153724722564, 0.0014598957495763898, -1.0418387651443481, -0.2065536379814148, 0.0002062818530248478, -0.37958627939224243, -0.10206349939107895, 0.016084304079413414, 0.6377133131027222, -0.003483842359855771, 0.5418654680252075, -0.19936250150203705, -0.0014528956962749362, -0.3203503489494324, 8.554641681257635e-05, 0.36302220821380615, -0.02987748198211193, -0.02464345470070839, 0.0015964567428454757, -0.33390751481056213, -0.8713209629058838], [-0.06403005123138428, -0.00945866946130991, 0.017103644087910652, 0.10256346315145493, 0.030001893639564514, -0.0034617255441844463, 0.10260330140590668, -0.003416114253923297, -0.08238612115383148, -0.003294900292530656, -0.06930530071258545, -0.002696856390684843, -0.014004072174429893, -0.026407374069094658, -0.0922713428735733, 0.0032994782086461782, -0.04078152775764465, 0.01697268895804882, 0.049948181957006454, 0.010667162947356701, 0.056223101913928986, -0.0028594068717211485, -0.07195070385932922, -0.00026468944270163774, 0.018335267901420593, 0.03014472872018814, 0.019835764542222023, 0.02689123898744583, -0.011598077602684498, 0.00044818277820013463, 0.0021677797194570303, -0.016610290855169296], [-0.024268055334687233, 0.03858328238129616, -0.002920083934441209, -0.01630360446870327, 0.01614547148346901, 0.11841664463281631, -0.030222270637750626, 0.15021979808807373, -0.01554232370108366, -0.01775764487683773, 0.19612061977386475, 0.0007975621265359223, 0.0010070748394355178, -0.16440480947494507, -0.028009498491883278, -0.0004078731290064752, 0.6507185697555542, -0.14725081622600555, -0.012579272501170635, -0.03242161124944687, 0.0010430187685415149, 0.11359097063541412, -0.1583104133605957, 0.0008614667458459735, -0.025426074862480164, -0.003925084136426449, 0.08383630216121674, -0.003674345789477229, -0.00714498246088624, -0.0003758609527722001, 0.40035808086395264, -0.15886515378952026], [-0.01959177665412426, 0.021041451022028923, -0.0026069555897265673, -0.13138817250728607, -0.015575782395899296, -0.06095350533723831, -0.09216561913490295, -0.0635695680975914, -0.004226586781442165, 0.02120172791182995, 0.11023878306150436, 2.2276928575593047e-05, -0.0041244919411838055, 0.05353778228163719, 0.06767933815717697, -0.00035154959186911583, -0.22526755928993225, -0.03340190649032593, 0.04623153805732727, 0.005575157236307859, 0.0019332515075802803, 0.13307848572731018, 0.11114228516817093, 0.005068750120699406, 0.03363141790032387, -0.018895380198955536, -0.0014143348671495914, 0.005817716009914875, -0.007548605091869831, -0.00431149872019887, -0.15822361409664154, 0.12839479744434357], [0.009235549718141556, 0.002618014346808195, 0.0009755598148331046, 2.060233600786887e-05, -0.0002932942588813603, 0.004739271942526102, 0.00012622565554920584, -0.004861203953623772, -0.001608429942280054, -0.00029961761902086437, -0.001204345840960741, 0.0004923736560158432, 0.0006681986851617694, 0.004746272228658199, -0.0009241817751899362, -0.0005597920971922576, -7.447637472068891e-05, -0.0034332238137722015, -0.00011385686957510188, 0.00275282165966928, -0.0002460661926306784, -0.0020049200393259525, -0.000469990394776687, -0.00030815493664704263, -0.0014838428469374776, 0.0002985455794259906, -0.0018721317173913121, 0.0024459967389702797, -0.004400530830025673, 0.0007082226220518351, -0.003395961131900549, 0.003159136511385441], [-0.0002567326882854104, 0.00518004922196269, 0.0036505055613815784, 0.015917176380753517, 0.0027100518345832825, -0.06302665174007416, -0.01714761182665825, -0.06562944501638412, 0.043471235781908035, 0.07345070689916611, -0.002561967819929123, -0.00351719674654305, -0.0009145562653429806, 0.147664412856102, -0.012888161465525627, 0.002654297975823283, 0.004858093801885843, 0.04383748769760132, -0.10293353348970413, 0.5468000769615173, -0.011110249906778336, -0.08403337746858597, -0.039617475122213364, 0.0014889695448800921, 0.10524336248636246, 0.003893046174198389, -0.03713776543736458, 0.05876339599490166, 0.010875236243009567, -0.001822865684516728, 0.09000139683485031, -0.04249073937535286], [-0.04575636237859726, -0.0044943224638700485, -0.014375929720699787, 0.053133271634578705, 0.028567636385560036, -0.0034048829693347216, 0.054176148027181625, 0.007914201356470585, -0.04306923970580101, 0.017039582133293152, -0.034819141030311584, 0.004132336005568504, 0.009286968037486076, -0.019054370000958443, -0.048611924052238464, -0.0029712500981986523, -0.02340974472463131, 0.005740076303482056, 0.02665538713335991, 0.009291449561715126, 0.036184605211019516, -0.0034621083177626133, -0.0414537638425827, 0.00034686713479459286, 0.012509374879300594, 0.019115231931209564, 0.01539481058716774, 0.023895185440778732, -0.009368150494992733, -0.00018563898629508913, 0.005241731647402048, -0.021063029766082764], [0.007709444500505924, -0.040180377662181854, 0.004968106281012297, -0.03160553053021431, -0.0323847159743309, 0.03489448130130768, -0.019684717059135437, 0.03356476500630379, 0.03386656567454338, 0.004307843279093504, -0.035203441977500916, -0.003881276585161686, -0.002380062360316515, 0.06800884008407593, 0.027567166835069656, 0.0054379417560994625, -0.1534637212753296, -0.0014170976355671883, -0.01407052855938673, -0.051856301724910736, 0.00885741412639618, -0.15303903818130493, -0.0678899884223938, -0.0037385490722954273, 0.06590983271598816, -0.02907268889248371, 0.39759814739227295, 0.06405837088823318, -0.0044616712257266045, 0.0030833492055535316, 0.09544407576322556, -0.13402216136455536], [-0.0006139871547929943, 0.052580710500478745, 0.003322105621919036, -0.01309230551123619, 0.009538501501083374, 0.12187428772449493, -0.016296343877911568, 0.0757538452744484, 0.006358029320836067, -0.019654655829072, -0.10108505934476852, -0.0045820605009794235, -0.0012166870292276144, 0.18085560202598572, -0.09786447137594223, 0.0017083125421777368, -0.02517850510776043, 0.0038005542010068893, -0.01528867706656456, -0.07822534441947937, 0.005239572376012802, -0.12286172062158585, -0.057781144976615906, 0.003981337882578373, 0.10821469873189926, 0.011730246245861053, 0.05909880995750427, 0.25131955742836, 0.006582438945770264, -0.003984394948929548, 0.15780724585056305, 0.109180748462677], [-0.2222045660018921, 0.003276430070400238, -0.006918716244399548, 0.015800347551703453, 0.022085104137659073, -0.12400072067975998, 0.008149524219334126, 0.2625299096107483, 0.02900291606783867, -0.16603246331214905, 0.018693819642066956, 0.00544349430128932, 0.00726343272253871, -0.0439237579703331, 0.04653651639819145, -0.004950576461851597, -0.005873980466276407, 0.009076539427042007, -0.03369221091270447, -0.12733934819698334, 0.013384200632572174, -0.05238530412316322, -0.012542454525828362, -0.0008293865248560905, 0.03354774788022041, -0.0032740705646574497, -0.006712775211781263, -0.0447906069457531, 0.3747837543487549, 0.0014780330238863826, -0.10179350525140762, 0.05753254517912865], [-0.014402413740754128, -0.010562997311353683, -0.002637377940118313, 0.000842880574055016, -0.002509728306904435, -0.005297939293086529, 0.0007950096041895449, 0.005233673844486475, -0.00027266558026894927, 0.0015683176461607218, 0.0016663158312439919, 6.043597386451438e-05, -0.0007040782948024571, -0.005392573308199644, 0.0007462455541826785, 0.000568691233638674, 0.0025226438883692026, 0.007763400673866272, -0.0003029262297786772, -0.0024158062878996134, 0.0010463126236572862, 0.00010000271868193522, -0.0014069017488509417, 0.0007198922103270888, 0.0012604701332747936, 0.00016840574971865863, -0.001406506053172052, -0.004728291649371386, 0.01183975487947464, -0.0013224150752648711, 0.006830842699855566, -0.00253853271715343], [0.09726172685623169, -0.12407177686691284, -0.0012806536396965384, 0.05530240386724472, -0.06415918469429016, 0.1717034876346588, 0.049867771565914154, -0.21239522099494934, -0.03726976737380028, 0.02555983141064644, 0.010227948427200317, -0.007594744674861431, -0.0023137694224715233, 0.2704172730445862, 0.11912015080451965, 0.006692524999380112, -0.031865160912275314, 0.001971252029761672, 0.0976596549153328, 0.10459184646606445, 0.011104166507720947, -0.8531122207641602, 0.05934043228626251, 0.0014362516812980175, 0.0027223119977861643, 0.010491441003978252, -0.07423845678567886, -0.16744260489940643, 0.0645352303981781, -0.0056952559389173985, -0.08107253164052963, 0.13868959248065948], [0.020278315991163254, -0.016105221584439278, -0.013280599378049374, -0.13089393079280853, -0.047560978680849075, -0.1896033138036728, -0.009831206873059273, -0.1821383237838745, 0.011897768825292587, 0.03253862261772156, -0.21333560347557068, 0.01280967891216278, 0.009977626614272594, 0.09530758112668991, -0.011543361470103264, -0.010033266618847847, 0.4302964508533478, 0.0059654186479747295, 0.020150303840637207, 0.06754537671804428, -0.023432837799191475, 0.40244969725608826, 0.023258423432707787, -0.00010543229291215539, 0.03597170487046242, 0.009050277993083, -0.019475508481264114, 0.06461810320615768, -0.013172563165426254, 0.0035468568094074726, -0.4977701008319855, 0.2513805329799652], [-0.1618632674217224, 0.043136607855558395, 0.01810481958091259, 0.193216010928154, 0.07955542951822281, 0.021983595564961433, 0.19094647467136383, 0.0035515697672963142, -0.1413816511631012, 0.10061422735452652, -0.09573373943567276, -0.001175149343907833, -0.015968626365065575, -0.07292421907186508, -0.15310931205749512, 0.0028862745966762304, -0.04351087659597397, 0.019344694912433624, 0.04708273336291313, 0.008416467346251011, 0.07724495232105255, 0.0036948451306670904, -0.1500994712114334, -0.0009633682202547789, 0.0041292388923466206, 0.04352043569087982, 0.006205009296536446, 0.03170709311962128, -0.03502272069454193, 0.00114214897621423, -0.04657861962914467, -0.028037531301379204], [-0.08248872309923172, -0.02805045247077942, 0.0048828632570803165, 0.15806996822357178, 0.05070528760552406, -0.006993721704930067, 0.15055641531944275, -0.002147276420146227, -0.09279752522706985, -0.03779502213001251, -0.11621730774641037, -0.00022470130352303386, -0.004873127676546574, -0.087761789560318, -0.11728568375110626, 0.0012950600357726216, -0.03811061754822731, 0.020920077338814735, 0.07124420255422592, 0.02752917818725109, 0.05594940856099129, -0.023687342181801796, -0.053365446627140045, -0.0009282459504902363, -0.025395533069968224, 0.026342935860157013, 0.03923344612121582, 0.018453681841492653, 0.05580086633563042, 0.0012857322581112385, 0.013831171207129955, -0.02026667632162571], [0.007665376644581556, 0.012566683813929558, 0.004858953412622213, 0.01684400998055935, 0.02057037129998207, 0.0018503664759919047, 0.01683996617794037, -0.0034101405180990696, -0.011291271075606346, 0.0028481793124228716, -0.01995980553328991, -0.00022998826170805842, -0.002314245328307152, 0.0030089563224464655, -0.017045680433511734, 9.908014180837199e-05, -0.012275424785912037, -0.005999779794365168, 0.010644637048244476, -0.0006280983798205853, 0.011067376472055912, 0.0006694381008855999, -0.01434348989278078, -0.00010950709111057222, -0.0012997279409319162, 0.004786340519785881, 0.02538018487393856, 0.021839072927832603, -0.019469376653432846, 0.0002985007013194263, -0.0011580170830711722, -0.003772943979129195], [-0.151764914393425, -0.008458031341433525, 0.017322367057204247, 0.2635277211666107, 0.0961223915219307, -0.00546865863725543, 0.2636794447898865, 0.01862621307373047, -0.16667822003364563, 0.009243574924767017, -0.19247977435588837, -0.005436473060399294, -0.016912249848246574, -0.047980621457099915, -0.2091098576784134, 0.006680280435830355, -0.06663400679826736, 0.041704438626766205, 0.09879591315984726, 0.034919366240501404, 0.10410585254430771, -0.009971680119633675, -0.1854931265115738, -0.00012184216029709205, 0.03815360739827156, 0.05656621977686882, 0.03365997225046158, 0.05003080889582634, -0.014190408401191235, -0.0007506172405555844, -0.003807076020166278, 0.0021643806248903275], [-0.08213791996240616, 0.005574807990342379, 0.013446701690554619, 0.1194767877459526, 0.06590209901332855, 0.06102803722023964, 0.11601260304450989, -0.06536663323640823, -0.059555210173130035, 0.023638363927602768, 0.020771726965904236, -0.0021786652505397797, -0.008170362561941147, 0.09176638722419739, -0.10822506994009018, 0.002936915261670947, -0.0378829725086689, 0.05085216090083122, 0.15452146530151367, 0.33088698983192444, 0.04192882031202316, 0.06372774392366409, -0.06672358512878418, -0.0015621775528416038, -0.06195668876171112, 0.025457210838794708, 0.03801742568612099, 0.045408524572849274, 0.013423450291156769, 0.001262551173567772, -0.14633214473724365, -0.012585597112774849], [-0.04004989564418793, -0.015658963471651077, 0.01098397932946682, 0.09633703529834747, 0.017298903316259384, 0.0034047493245452642, 0.09583225846290588, 0.011603452265262604, -0.06929155439138412, -0.002986101433634758, -0.10160960257053375, -0.001288345898501575, -0.00991079956293106, -0.02319219894707203, -0.08047168701887131, 0.0020884701516479254, -0.03223855048418045, 0.024351006373763084, 0.031416937708854675, -0.001178303500637412, 0.046825896948575974, 0.0009000714053399861, -0.08781837671995163, -2.3919645173009485e-05, -0.00891762413084507, 0.023916566744446754, 0.06614424288272858, 0.0717025175690651, -0.005785253364592791, 0.00017091823974624276, -0.00034163848613388836, 0.03430405631661415], [-0.14031478762626648, -0.01526444498449564, 0.010161355137825012, 0.2560727298259735, 0.08557041734457016, -0.009286411106586456, 0.254106730222702, 0.012258445844054222, -0.15969310700893402, 0.01984497904777527, -0.17460593581199646, -0.003670675214380026, -0.011150170117616653, -0.051819562911987305, -0.20181313157081604, 0.004827506374567747, -0.0687180757522583, 0.02867930196225643, 0.10049436241388321, 0.009864392690360546, 0.09652622044086456, -0.00571919372305274, -0.18646778166294098, -0.0001470300485379994, 0.026813389733433723, 0.05405229330062866, 0.03537255525588989, 0.05030745267868042, -0.019624220207333565, -0.0005260543548502028, 0.00352002982981503, -0.012432551942765713], [-0.10343150794506073, -0.021529756486415863, 0.022405249997973442, 0.19297431409358978, -0.01824788935482502, -0.00931564625352621, 0.19090427458286285, -0.003710544900968671, -0.16124704480171204, -0.05827619135379791, -0.1514914631843567, -0.0032834019511938095, -0.020041294395923615, -0.044052399694919586, -0.18145133554935455, 0.004572112578898668, -0.07482712715864182, 0.027396999299526215, 0.07882919907569885, 0.033207375556230545, 0.10225843638181686, -0.023137854412198067, -0.14508028328418732, 0.0002571332734078169, 0.017195207998156548, 0.049490272998809814, -0.0005476346123032272, 0.06607498228549957, -0.07400652021169662, -0.00017112762725446373, 0.01752948947250843, 0.0391029454767704], [-0.08823496103286743, -0.013062210753560066, 0.004097474738955498, 0.16681425273418427, 0.05826026573777199, -0.00791940651834011, 0.16624470055103302, 0.022102659568190575, -0.1423957347869873, -0.01106543280184269, -0.11956645548343658, -0.0020157014951109886, -0.0066231596283614635, -0.029948344454169273, -0.14956547319889069, 0.003249342553317547, -0.0591750368475914, 0.021706001833081245, 0.08337672799825668, -0.015245575457811356, 0.07598243653774261, -0.01618208736181259, -0.11900289356708527, 2.100777237501461e-05, 0.023094087839126587, 0.041509006172418594, 0.023284869268536568, 0.05782712250947952, -0.022190138697624207, -0.0005026247235946357, 0.019398529082536697, 0.007021693978458643], [0.023034129291772842, -0.0034180786460638046, -0.010094248689711094, 0.017609136179089546, 0.014126909896731377, -0.059807877987623215, 0.01769937016069889, 0.07629063725471497, -0.017690110951662064, 0.02066371589899063, -0.08557230234146118, -0.0004315316036809236, 0.004440017510205507, -0.0738133043050766, -0.005831678863614798, 0.0012062970781698823, 0.0049422490410506725, -0.023995643481612206, -0.02916412614285946, -0.7128647565841675, 0.003697741311043501, -0.049372073262929916, 0.0005404267576523125, -9.11726092454046e-05, 0.0463932640850544, 0.010476700961589813, -0.03321763500571251, -0.012903771363198757, -0.004291414748877287, -0.0005395662738010287, 0.15092706680297852, -0.03501360863447189], [-0.1328386515378952, -0.020047474652528763, 0.020148230716586113, 0.21950684487819672, 0.05016150698065758, 0.002396944211795926, 0.21551430225372314, 0.010391442105174065, -0.14084456861019135, -0.01150835957378149, -0.1773890256881714, -0.005290379747748375, -0.019222544506192207, -0.05733432620763779, -0.17830799520015717, 0.0066894106566905975, -0.057645488530397415, 0.03946691006422043, 0.07192651182413101, 0.06802722066640854, 0.08761473000049591, -0.02010703645646572, -0.18730561435222626, -0.00021153765555936843, 0.03544633090496063, 0.0464758537709713, 0.04257775470614433, 0.06312358379364014, -0.01544721145182848, -0.0002594973484519869, 0.028370266780257225, 0.00665446138009429], [0.0007953080930747092, 0.0006322318222373724, -0.0005168811185285449, 0.0007785620982758701, 0.00195756321772933, 0.0006100955652073026, 0.000769799982663244, 0.0002226806100225076, 0.0005948745529167354, 0.00034312470233999193, -0.0008090022020041943, 6.472276436397806e-05, 0.00042059755651280284, 0.0005969795165583491, -0.0009040348813869059, -7.325246406253427e-05, 0.0006009152857586741, -0.0001563619589433074, -0.0005659054149873555, 0.0004079687059856951, -0.0009278478100895882, 0.0005118360859341919, -0.00012816530943382531, -1.0393161574029364e-05, -0.0006056526326574385, -0.0006793561042286456, 0.0019360138103365898, 0.0010214619105681777, -0.00018593990535009652, 1.2569942555273883e-05, -0.0008392662857659161, -0.00013624559505842626], [0.0054597314447164536, 0.006109218113124371, 0.0014711696421727538, 0.010028510354459286, 0.011772512458264828, 0.001380161033011973, 0.010039950720965862, -0.002341241342946887, -0.006524780765175819, 0.0004617827944457531, -0.01271751243621111, 0.00036279772757552564, -0.00015868389164097607, 0.0025038912426680326, -0.010158163495361805, -0.0004091269802302122, -0.006250591948628426, -0.002576919738203287, 0.0049908095970749855, -0.00034921328187920153, 0.005323008634150028, 0.00016785116167739034, -0.007841738872230053, -5.681890615960583e-05, -0.0010966320987790823, 0.0015896072145551443, 0.01607375591993332, 0.01351448055356741, -0.01179859135299921, 0.000163990116561763, -0.0010852497071027756, -0.0010479709599167109], [-0.10921630263328552, -0.00429881876334548, 0.018140889704227448, 0.174638032913208, 0.042786307632923126, -0.0026352498680353165, 0.17278441786766052, 0.022805163636803627, -0.11343932151794434, 0.07798080891370773, -0.128678560256958, -0.0038462234660983086, -0.01596585288643837, -0.003971149679273367, -0.15215067565441132, 0.005354723427444696, -0.06277868151664734, 0.053561020642519, 0.045304905623197556, -0.2631564140319824, 0.06611575931310654, -0.06042131781578064, -0.14814509451389313, -0.00038353726267814636, 0.027312718331813812, 0.036977265030145645, 0.12801802158355713, 0.10276345163583755, -0.02686966210603714, 0.0004026655515190214, 0.041172754019498825, 0.011478626169264317], [-0.08908835798501968, -0.051121875643730164, 0.015200784429907799, 0.20495320856571198, 0.0370292030274868, -0.012840240262448788, 0.20951403677463531, -0.012408845126628876, -0.1508474498987198, 0.014301179908216, -0.14161665737628937, -0.0031839709263294935, -0.014448380097746849, -0.08012764900922775, -0.1946023851633072, 0.004410448484122753, -0.07723879814147949, 0.023703891783952713, 0.09933223575353622, -0.03986114636063576, 0.0881764218211174, -0.024201514199376106, -0.1730792075395584, -0.0003095657448284328, 0.03190608322620392, 0.04722890257835388, 0.06981061398983002, 0.07694968581199646, -0.008863989263772964, 0.0005000501405447721, 0.06555947661399841, -0.04836287721991539], [0.0005887590232305229, 0.0004717388947028667, -0.00048388479626737535, -0.0005006848950870335, 0.0010557689238339663, 0.0005294127622619271, -0.0005016807117499411, 0.00018568654195405543, 0.000874978257343173, 0.00038629653863608837, 0.0004358006117399782, 5.7053082855418324e-05, 0.000372211477952078, 0.00027368689188733697, 0.00023683038307353854, -6.408494664356112e-05, 0.000772118684835732, -0.00015599842299707234, -0.000792354519944638, 0.0004881024651695043, -0.001237007905729115, 0.00041830085683614016, 0.0007691727951169014, -9.848330591921695e-06, -0.0005157437408342957, -0.0006266097188927233, 0.0010783345205709338, 0.0001108171054511331, 0.0002546327596064657, 1.3493263395503163e-05, -0.0007310551591217518, -0.00021030819334555417], [-0.0404801145195961, 0.012569124810397625, 0.007512729614973068, 0.18895073235034943, 0.040397483855485916, 0.00979713536798954, 0.15488865971565247, 0.058884456753730774, -0.07273228466510773, 0.010390885174274445, -0.1604076772928238, -0.005054459907114506, -0.004303914960473776, -0.13857300579547882, -0.13134591281414032, 0.004263043403625488, -0.1539311558008194, 0.0006911392556503415, 0.028501566499471664, 0.013786546885967255, 0.021366750821471214, -0.011071387678384781, -0.010608114302158356, 0.0008569703786633909, -0.009810172952711582, 0.012881681323051453, 0.020919904112815857, 0.051896460354328156, -0.027219591662287712, -0.0014159108977764845, 0.0532667376101017, -0.02731277421116829], [-0.01178637146949768, -0.038200315088033676, -0.001028930302709341, 0.05623248592019081, -0.009259980171918869, -0.006653607822954655, 0.05508200451731682, 0.01088892761617899, -0.006580101326107979, -0.04276439920067787, 0.000685452192556113, 0.002519507659599185, 0.0020460684318095446, 0.007872473448514938, -0.040728792548179626, -0.0019584428519010544, -0.007431056350469589, 0.14632955193519592, 0.021137675270438194, -0.007471527438610792, 0.014916826039552689, 0.009004096500575542, -0.034474123269319534, -0.0023158632684499025, -0.020408648997545242, 0.004360147751867771, 0.07877542078495026, -0.004229362588375807, 0.011635765433311462, 0.0025339878629893064, 0.002931686583906412, -0.03834190219640732], [-0.03576177731156349, -0.04943181201815605, -0.004274646285921335, 0.14038963615894318, 0.024955615401268005, -0.04423539713025093, 0.1357010155916214, -0.005932206753641367, -0.10932885855436325, -0.06914781779050827, -0.10599840432405472, -0.0004552611499093473, 0.0029866741970181465, -0.040418896824121475, -0.10636530816555023, 0.0001661111309658736, -0.02950599044561386, 0.01984574645757675, 0.06138571724295616, -0.14266225695610046, 0.043000053614377975, -0.02159932442009449, -0.09436383098363876, 0.00035856766044162214, 0.058941811323165894, 0.029685301706194878, 0.04618222638964653, -0.0014340935740619898, -0.00014198574353940785, -5.4198841098695993e-05, 0.09404081851243973, -0.023172644898295403], [-0.0796431228518486, -0.0012473482638597488, 0.02424844540655613, 0.2017471194267273, 0.07430645078420639, -0.008823733776807785, 0.20048357546329498, 0.0022037902381271124, -0.12531857192516327, -0.006727688945829868, -0.16178764402866364, -0.006894573103636503, -0.021026257425546646, 0.0006296667852438986, -0.1955396980047226, 0.007753673475235701, -0.07446613162755966, 0.06606140732765198, 0.08232530206441879, -0.0012216335162520409, 0.08841031044721603, 0.0008619918953627348, -0.12147720903158188, 6.579423643415794e-05, 0.04471539333462715, 0.04592468589544296, 0.13475541770458221, 0.12335668504238129, -0.059498969465494156, -0.0008162843296304345, -0.0032192450016736984, 0.01263281237334013], [-0.04600520804524422, -0.0040761688724160194, 0.014852543361485004, 0.06521999835968018, 0.021966036409139633, -0.0011115759843960404, 0.06503387540578842, -0.0005377771449275315, -0.053044069558382034, -0.00011519843246787786, -0.04504820704460144, -0.001999613828957081, -0.011752412654459476, -0.010920410044491291, -0.056585125625133514, 0.00247500860132277, -0.025972550734877586, 0.013894971460103989, 0.03218722343444824, 0.00747076328843832, 0.03945847973227501, -0.006797999609261751, -0.04731569439172745, -0.000216062311665155, 0.013679924421012402, 0.022768089547753334, 0.017788948491215706, 0.021524569019675255, -0.00661291042342782, 0.0004858686006627977, 0.0034026962239295244, -0.008048871532082558], [-0.13253535330295563, 0.010216963477432728, 0.028613587841391563, 0.2191576063632965, 0.056967832148075104, -0.0008638757863081992, 0.21922416985034943, 0.012605453841388226, -0.18248017132282257, 0.0451539047062397, -0.17178182303905487, -0.003736263606697321, -0.02425214648246765, -0.041085995733737946, -0.20526577532291412, 0.004937766585499048, -0.06867759674787521, 0.026300612837076187, 0.08570496737957001, 0.02118564583361149, 0.11523094773292542, -0.04114410653710365, -0.19098493456840515, -0.00012959929881617427, 0.04789742827415466, 0.05714990571141243, 0.051101163029670715, 0.07652300596237183, -0.044945280998945236, 0.0002712436253204942, 0.016695929691195488, 0.012786129489541054], [-0.12707194685935974, -0.014415476471185684, 0.008060924708843231, 0.2229102998971939, 0.04176611080765724, 0.01238396018743515, 0.21976374089717865, -0.0027481799479573965, -0.13147485256195068, 0.019632335752248764, -0.16563020646572113, -0.003491664072498679, -0.008335048332810402, -0.08901651203632355, -0.1766180694103241, 0.004654065240174532, -0.05832447484135628, 0.032582346349954605, 0.07856062799692154, 0.0021860068663954735, 0.06352744996547699, -0.026748619973659515, -0.19873830676078796, 2.8075881346012466e-05, 0.036357343196868896, 0.03494817391037941, 0.04143829643726349, 0.04845113679766655, -0.011402935720980167, -0.0009309033048339188, 0.022933876141905785, -0.02270626276731491], [6.649390707025304e-05, 2.643728976181592e-06, -1.3301115359354299e-05, -0.00020639874855987728, -4.338880171417259e-05, -1.5325444110203534e-05, -0.0002043229906121269, -3.0722001156391343e-06, 9.4434610218741e-05, 1.0785421409309492e-06, 0.00013281604333315045, 3.954622229684901e-08, 1.1406126759538893e-05, 6.546654913108796e-05, 0.0001666749594733119, -8.653409508951881e-07, 2.3720836907159537e-05, -3.8859769119881094e-05, -7.179910608101636e-05, 2.2924023141968064e-05, -6.421280704671517e-05, 1.9132225133944303e-05, 0.00014840062067378312, 9.792664741326007e-07, -1.1787650691985618e-05, -3.2452204322908074e-05, -1.18471480163862e-05, -6.040864536771551e-05, -2.1723046756960684e-06, -1.6522092209925177e-06, -5.934332875767723e-06, -3.0274688924691873e-06], [-0.08535744994878769, -0.012876706197857857, -0.006174578797072172, 0.08081577718257904, 0.12005407363176346, -0.06269946694374084, 0.0752677246928215, 0.00517547270283103, -0.0627121552824974, 0.12251081317663193, -0.06527911871671677, 0.004574258346110582, 0.004305399488657713, -0.015269789844751358, 0.016495659947395325, -0.00428766431286931, 0.029063040390610695, 0.01599029079079628, 0.04864504933357239, 0.05844347923994064, 0.016736742109060287, -0.02007916569709778, 0.0038783447816967964, -0.0012109337840229273, 0.02770279161632061, 0.010860680602490902, -0.10849284380674362, -0.09242529422044754, 0.03878926858305931, 0.0023693321272730827, 0.03003452531993389, 0.05024030804634094], [-0.015064389444887638, -0.0023013888858258724, -0.0015323443803936243, 0.01616811938583851, 0.004547944758087397, -0.0019982168450951576, 0.016376255080103874, 0.0019815145060420036, -0.011871550232172012, 0.003986094146966934, -0.0077634635381400585, -0.00016936956671997905, 0.00013079712516628206, -0.0024586094077676535, -0.013563417829573154, 0.00028301600832492113, -0.00271249539218843, -0.0010735862888395786, 0.00465527456253767, 0.0003799049009103328, 0.008698773570358753, -0.0014247663784772158, -0.010819843038916588, 2.213787956861779e-05, 0.003440346335992217, 0.00363354105502367, 0.0009782640263438225, 0.0033744564279913902, 0.0016915801679715514, -4.438537507667206e-05, 0.0018662961665540934, -0.0032695403788238764], [-0.020119434222579002, -0.017696816474199295, 0.013080750592052937, 0.10543227195739746, 0.03258930519223213, 0.009452853351831436, 0.10281512886285782, 0.018170664086937904, -0.07185332477092743, -0.053162556141614914, -0.10202021151781082, -0.004891681019216776, -0.011696353554725647, -0.07850870490074158, -0.09095519036054611, 0.006363921798765659, -0.03084532916545868, 0.031257785856723785, 0.07319648563861847, 0.12820501625537872, 0.041811540722846985, 0.042283955961465836, -0.10612452775239944, -0.00027435884112492204, 0.030178677290678024, 0.01788290962576866, 0.040653303265571594, 0.04368380457162857, -0.001655906205996871, -0.0005879915552213788, -0.005910872016102076, 0.007776135113090277], [-0.08108411729335785, 0.003064693883061409, 0.007535069715231657, 0.11364096403121948, 0.02538580819964409, -0.014639374800026417, 0.11278785020112991, 0.01965516433119774, -0.08714515715837479, 0.027374930679798126, -0.10855232924222946, -0.0011333748698234558, -0.007915442809462547, -0.03092758171260357, -0.08534367382526398, 0.002033364260569215, -0.03698597103357315, 0.023972557857632637, 0.05972268059849739, -0.08865305036306381, 0.053635373711586, 0.005832207854837179, -0.10629455745220184, 0.000197843779460527, 0.023448001593351364, 0.027597635984420776, 0.02498399093747139, 0.05225835368037224, 0.015792956575751305, -0.00013847187801729888, 0.02414110116660595, 0.053036853671073914], [-0.05770685896277428, -0.009863032028079033, 0.005902184639126062, 0.040839556604623795, 0.03531748428940773, -0.07341460138559341, 0.039568107575178146, -0.05223582312464714, -0.04816282168030739, 0.0299962367862463, 0.01713811606168747, 0.0007323712925426662, -0.004051222465932369, 0.07780709862709045, 0.021055663004517555, -0.0006223266827873886, 0.025644082576036453, -0.0381031297147274, -0.0024039275012910366, 0.09181130677461624, 0.014038201421499252, 0.008471488021314144, 0.005519567988812923, -0.00010698607366066426, 0.09522011876106262, 0.007457516621798277, -0.03925905004143715, -0.12480180710554123, -0.004371849354356527, 0.0006498877773992717, 0.041827067732810974, 0.052746571600437164], [0.0001212476781802252, 5.631289241136983e-05, -4.061936851940118e-05, -0.0010599677916616201, -0.0003094873100053519, 7.441174238920212e-05, -0.001049024285748601, 4.578328298521228e-05, 0.0004484047240111977, 0.00011956381058553234, 0.0008434780174866319, 2.969138677144656e-06, 3.263142571086064e-05, 0.00016461184713989496, 0.0009131534607149661, -5.1319566409802064e-06, 0.0001499056670581922, -0.00011335535236867145, -0.0005164713365957141, 5.0259241106687114e-05, -0.0004207746824249625, 8.569981582695618e-05, 0.0008048628224059939, 2.801616574288346e-07, -0.0001030881903716363, -0.00010285551252309233, -0.0001439853513147682, -0.0003207703703083098, 0.0001474905584473163, -1.4704563966461137e-07, -9.728074655868113e-05, -4.94574305776041e-05], [-0.10059694200754166, 0.006016375031322241, 0.022624868899583817, 0.1830281764268875, 0.046636372804641724, -0.00329160550609231, 0.18267254531383514, 0.00588051276281476, -0.1493559330701828, 0.028872141614556313, -0.13286831974983215, -0.0028449282981455326, -0.019170204177498817, -0.05614820122718811, -0.1613013595342636, 0.003872269531711936, -0.05209755524992943, 0.022695442661643028, 0.0816638171672821, -0.018498698249459267, 0.10093055665493011, -0.02886524237692356, -0.14901761710643768, 2.1893190933042206e-05, 0.03568344563245773, 0.049053218215703964, 0.025444889441132545, 0.05873811990022659, -0.03929119557142258, -1.608530874364078e-05, 0.022111326456069946, 0.004629896022379398], [-0.10577702522277832, 0.010502658784389496, 0.02151387557387352, 0.17367716133594513, 0.12675125896930695, 0.00023785405210219324, 0.17204245924949646, 0.029746530577540398, -0.13165219128131866, 0.09636635333299637, -0.10846532881259918, 