{"model_data": {"model": "SimpleRNN", "input_size": 3, "skip": 1, "output_size": 1, "unit_type": "LSTM", "num_layers": 1, "hidden_size": 14, "bias_fl": true}, "state_dict": {"rec.weight_ih_l0": [[0.033593542873859406, 0.3676419258117676, -1.1185227632522583], [0.056174419820308685, 0.7299764752388, -0.7253437042236328], [-0.16123241186141968, 0.15757016837596893, -0.4111897051334381], [-0.13366323709487915, 0.2512724995613098, -0.5187338590621948], [-0.07369542866945267, 0.39719951152801514, 0.5374817252159119], [-0.00045786084956489503, 0.7950785160064697, -0.11538784950971603], [0.017997805029153824, -0.0638531967997551, 0.22641056776046753], [0.0033748934511095285, 1.3799571990966797, -0.14864186942577362], [-0.10082414746284485, -0.4290153682231903, -0.03990066051483154], [0.12951286137104034, -0.583687961101532, -0.06019887328147888], [0.025151327252388, -0.5054171681404114, -0.5744094848632812], [0.08088773488998413, 0.08991539478302002, 0.5357569456100464], [0.25043702125549316, -0.2898220717906952, 0.1387501060962677], [0.10919246822595596, -0.14865320920944214, -0.03429047018289566], [0.025142814964056015, 1.0432400703430176, -0.586477518081665], [0.06016580015420914, 0.8269785046577454, 0.06565896421670914], [-0.20045776665210724, 0.15199445188045502, -0.4145826995372772], [-0.09457671642303467, 0.2959066331386566, 0.4157896041870117], [-0.1597101092338562, -0.11243588477373123, 0.5993689894676208], [-0.0727606937289238, 0.6475654244422913, 0.12445404380559921], [-0.00633083563297987, 0.011172189377248287, 0.41147205233573914], [-0.0318327397108078, 0.43535757064819336, 0.17412112653255463], [-0.11350379139184952, 0.20032520592212677, -0.03308118134737015], [0.0717470571398735, 0.5044227242469788, 0.3362167179584503], [-0.2597023844718933, 0.5464231371879578, 0.5784693360328674], [0.1218097135424614, -0.3780424892902374, 1.1754478216171265], [0.1942521184682846, 0.2393834888935089, 0.3200661540031433], [0.10993842035531998, 0.02088303305208683, 0.00818280503153801], [0.21996654570102692, -0.3686501085758209, -0.4342189133167267], [1.0879031419754028, 0.05464217811822891, -0.05659335106611252], [0.7453961968421936, 0.09212391078472137, 0.2753849923610687], [1.1552348136901855, 0.0288188885897398, 0.24558807909488678], [-0.19367872178554535, 0.08226615190505981, 0.23996271193027496], [1.9895933866500854, -0.13561655580997467, -0.42775654792785645], [-0.6767629384994507, 0.0284463781863451, 0.06210777536034584], [0.14314016699790955, 0.056183937937021255, 0.08195319026708603], [0.07291674613952637, 0.034710876643657684, 0.23997445404529572], [-0.007162440102547407, 0.03365562483668327, 0.06634030491113663], [-0.8619112372398376, 0.012100385501980782, -0.10183548182249069], [-0.18354938924312592, 0.07453711330890656, 0.26886826753616333], [0.12198139727115631, 0.12732242047786713, 0.11858287453651428], [0.2575303316116333, -0.04345010966062546, 0.1737573742866516], [-0.07224702090024948, -0.32268911600112915, -1.0894123315811157], [0.06361677497625351, 0.5349435806274414, 0.09100817888975143], [-0.22028501331806183, 0.11349514871835709, -0.20951054990291595], [-0.05238593742251396, 0.3537594676017761, 0.2825153172016144], [-0.055620063096284866, -0.10184255987405777, 0.6680924892425537], [0.014148569665849209, 0.8215281367301941, -0.00018537738651502877], [-0.0666908472776413, -0.3121238052845001, -0.050960492342710495], [0.16205331683158875, -0.06923604756593704, -0.022631095722317696], [-0.058327801525592804, 0.2231266349554062, 0.18625013530254364], [0.12349890172481537, 0.12051256746053696, 0.2939118444919586], [-0.2025051862001419, 0.20015890896320343, 0.40623611211776733], [0.07707975059747696, 0.20395717024803162, 0.5283980965614319], [0.2555322051048279, -0.032169826328754425, 0.1881801337003708], [0.11113087087869644, -0.03871868550777435, -0.02115018106997013]], "rec.weight_hh_l0": [[-0.032502636313438416, 0.10868450254201889, 0.013634677976369858, -0.2616575360298157, 0.15197281539440155, 0.4190120995044708, -0.2753145396709442, 0.48614996671676636, -0.5034624934196472, 0.1730833500623703, -0.0493805967271328, -0.2809580862522125, -0.07015594094991684, -0.20142215490341187], [0.30139341950416565, 0.020553698763251305, 0.14925704896450043, -0.36624807119369507, -0.14671896398067474, 0.059880733489990234, -0.03186936676502228, -0.1938192993402481, -0.5051885843276978, -0.05218794569373131, -0.09790654480457306, 0.017041431739926338, 0.08045823127031326, 0.027395594865083694], [-0.02122674696147442, -0.15709355473518372, -0.12542162835597992, -0.07313615828752518, -0.09424610435962677, 0.19312350451946259, 0.06355556100606918, -0.11013568937778473, -0.07166606187820435, 0.05254105478525162, 0.36124327778816223, -0.13593153655529022, -0.030385857447981834, 0.1265876144170761], [0.4879699945449829, -0.28658822178840637, -0.3682071566581726, -0.050743479281663895, -0.1518944650888443, 0.16049370169639587, -0.09758955985307693, 0.023904770612716675, 0.0645960196852684, 0.08460317552089691, 0.30078282952308655, -0.027596397325396538, -0.09524654597043991, -0.1637609899044037], [-0.44743096828460693, -0.10281339287757874, 0.012046338990330696, 0.12939634919166565, 0.15255334973335266, -0.30397188663482666, 0.00019390019588172436, -0.09854815900325775, 0.10136377066373825, 0.1813666969537735, 0.05116894096136093, 0.18024180829524994, 0.1754414439201355, 0.05812055617570877], [0.3448192775249481, -0.020633596926927567, -0.055418647825717926, -0.018605398014187813, 0.008122027851641178, 0.026672372594475746, 0.01447524968534708, -0.04918362945318222, -0.10936953127384186, -0.06208537146449089, 0.05881473422050476, 0.0059419856406748295, -0.0013575534103438258, -0.01722591184079647], [0.06760933250188828, 0.108700692653656, 0.1256093978881836, 0.03140716999769211, 0.20165757834911346, -0.08180247992277145, -0.011134580709040165, -0.18905724585056305, -0.10712510347366333, -0.16161207854747772, 0.022219661623239517, -0.07449909299612045, 0.05977235361933708, 0.04591470956802368], [-0.4415382444858551, 0.10871442407369614, -0.07908090204000473, 0.17487145960330963, -0.16946284472942352, -0.1604650616645813, -0.09837920218706131, -0.0157680232077837, 0.6151129603385925, 0.3174227476119995, 0.029518868774175644, 0.10228952765464783, 0.06221717223525047, -0.13279390335083008], [-0.5475461483001709, 0.14010831713676453, 0.275986909866333, -0.3121252954006195, 0.19037050008773804, 0.1845134198665619, 0.07910484075546265, -0.3099413812160492, 0.22621756792068481, 0.11236067861318588, 0.011139817535877228, -0.039060402661561966, 0.1309022754430771, 0.04115118458867073], [-0.13674747943878174, -0.17510002851486206, 0.23391304910182953, 0.21953944861888885, -0.006986638531088829, -0.5335331559181213, -0.24049939215183258, -0.012355145998299122, 0.2782479226589203, 0.05819954723119736, 0.027300681918859482, -0.3626665472984314, 0.13016963005065918, 0.09755954146385193], [-0.4368893504142761, 0.08162634819746017, -0.16020068526268005, 0.21152062714099884, -0.1792840212583542, 0.27225440740585327, -0.3382246792316437, -0.39292237162590027, 0.8462174534797668, 0.5524861216545105, -0.05446840077638626, 0.18742461502552032, -0.5729256868362427, -0.10214921087026596], [0.516031801700592, -0.029261913150548935, 0.07778408378362656, 0.1417952924966812, 0.0221426822245121, -0.21113641560077667, -0.024211162701249123, -0.3601069450378418, 0.13243898749351501, -0.009685000404715538, -0.04505433887243271, 0.16897356510162354, -0.07701855152845383, -0.005586974322795868], [0.13635393977165222, 0.2835327982902527, 0.0858420580625534, 0.5330530405044556, 0.007632891181856394, 0.1449655443429947, -0.05207695811986923, 0.2259748876094818, 0.06915052980184555, 0.17120957374572754, 0.05610146000981331, -0.11713740229606628, -0.1430346816778183, -0.025616247206926346], [-0.049627289175987244, 0.17613059282302856, 0.2253633439540863, -0.16887672245502472, 0.12352313101291656, 0.0966966524720192, -0.021836351603269577, 0.05115478113293648, -0.07950538396835327, 0.05783328786492348, -0.28024473786354065, 0.1035136878490448, -0.08986509591341019, -0.11419739574193954], [-0.2220931202173233, 0.163899227976799, -0.022557666525244713, -0.32072317600250244, 0.4366166293621063, 0.7669346332550049, -0.20090225338935852, 0.5530750155448914, -0.8438979387283325, 0.17515987157821655, 0.0815877914428711, -0.620783805847168, -0.2235335111618042, -0.1984207034111023], [-0.18370196223258972, 0.08224871009588242, 0.13936541974544525, -0.3178703188896179, -0.10823176801204681, -0.37246260046958923, 0.06845474243164062, 0.002091847127303481, -0.41964828968048096, -0.035134684294462204, -0.17793840169906616, -0.1364220380783081, 0.12958143651485443, 0.15011893212795258], [-0.16297221183776855, -0.05675612762570381, -0.16499648988246918, -0.09892568737268448, -0.21452462673187256, 0.19897012412548065, 0.05160971358418465, -0.09088494628667831, -0.09314317256212234, -0.0553835853934288, 0.42475661635398865, -0.2061334103345871, -0.08022863417863846, 0.13686001300811768], [-0.125312939286232, -0.2026270478963852, -0.3320578932762146, 0.019360557198524475, -0.09036457538604736, -0.30710211396217346, 0.2808065712451935, 0.12214545160531998, -0.27256906032562256, -0.018846964463591576, -0.07615264505147934, 0.08369448035955429, 0.08525257557630539, -0.1947309821844101], [-0.20465122163295746, 0.001173733384348452, -0.002556353574618697, 0.010504091158509254, 0.009820474311709404, -0.029309630393981934, 0.10753067582845688, 0.04904510825872421, -0.34816738963127136, 0.13529646396636963, 0.015047555789351463, 0.12332933396100998, 0.049861565232276917, 0.08125672489404678], [-0.2719166576862335, -0.2605304419994354, -0.1362743079662323, -0.1667422503232956, -0.08115154504776001, -0.10800094157457352, 0.032791465520858765, -0.0900440588593483, -0.19661487638950348, -0.046977587044239044, 0.13502369821071625, -0.29325994849205017, 0.1135137602686882, 0.0362195260822773], [-0.4290984570980072, -0.03981061279773712, 0.17048676311969757, -0.036314256489276886, 0.10288483649492264, -0.03564028441905975, -0.08459170162677765, -0.02362423576414585, -0.07831855863332748, -0.09105821698904037, 0.07192537933588028, -0.20868100225925446, 0.08335155248641968, 0.08596982061862946], [-0.30545541644096375, 0.09999239444732666, -0.07201778143644333, 0.01571888104081154, -0.06962153315544128, -0.23314613103866577, 0.20570167899131775, 0.04861496761441231, 0.2786874771118164, 0.19592735171318054, -0.09700541198253632, 0.05763169378042221, 0.1289457082748413, -0.005873875692486763], [0.08575177937746048, 0.0751597061753273, -0.03299141675233841, -0.3602706789970398, 0.13684077560901642, 0.37078192830085754, 0.11925414204597473, 0.28163227438926697, -0.17953477799892426, -0.020282357931137085, 0.24057137966156006, -0.4746364951133728, -0.06782998144626617, -0.008350789546966553], [0.6198020577430725, 0.0824105516076088, 0.20505283772945404, -0.1620730310678482, 0.24509665369987488, 0.24471652507781982, 0.07841936498880386, 0.24189434945583344, -0.5031023621559143, -0.13755686581134796, 0.0006209149723872542, -0.41721034049987793, -0.02324039861559868, -0.0456281341612339], [0.36669838428497314, -0.052366990596055984, -0.43782031536102295, -0.6618574857711792, 0.015166602097451687, 0.2688261568546295, 0.29979997873306274, 0.15482820570468903, -0.9108247756958008, -0.46907976269721985, 0.1288517713546753, 0.04197285324335098, -0.03167780861258507, -0.3997766971588135], [-0.16082344949245453, 0.13473568856716156, 0.0619967021048069, 0.2535969913005829, 0.17314384877681732, -0.3923477828502655, -0.002353173214942217, -0.12492640316486359, 0.046080052852630615, -0.07145519554615021, -0.060908861458301544, 0.06483890861272812, 0.04868868738412857, 0.0714525431394577], [0.38578689098358154, 0.11067996919155121, 0.01694529503583908, 0.3548951745033264, 0.12511886656284332, 0.3320517838001251, 0.10742025077342987, -0.0027379838284105062, -0.20636175572872162, 0.09324593842029572, 0.015244793146848679, -0.08213591575622559, -0.1906280368566513, -0.05333830788731575], [0.0524262972176075, 0.21590207517147064, 0.2005591243505478, -0.14675627648830414, 0.10600043088197708, 0.08501925319433212, -0.008911321870982647, 0.02287222258746624, -0.11404027789831161, 0.008691072463989258, -0.26966962218284607, 0.11856406927108765, -0.08954452723264694, -0.1196809858083725], [0.7762600779533386, 0.11261988431215286, -0.12448924779891968, 0.13879169523715973, 0.1849340945482254, 0.3984582722187042, -0.20272985100746155, -0.11224159598350525, -0.004025137983262539, -0.3672487437725067, -0.0043436759151518345, -0.385711133480072, 0.03514433279633522, -0.01133484486490488], [0.04866160452365875, 0.24619649350643158, 0.7048790454864502, 0.4802547097206116, 0.21302564442157745, -0.05587361380457878, -0.16198600828647614, 0.07487044483423233, 0.05053924396634102, -0.2269207239151001, 0.21517309546470642, -0.3834613859653473, 0.3879633843898773, 0.17277470231056213], [0.08725819736719131, 0.19621974229812622, 0.03897440433502197, 0.003890387015417218, -0.14121738076210022, 0.7653576731681824, -0.16450704634189606, -0.05831228941679001, -0.11622890084981918, -0.06684053689241409, -0.4276401698589325, 0.16482505202293396, 0.23745079338550568, -0.18135233223438263], [0.2594723105430603, 0.21257013082504272, -0.031954675912857056, 0.1746155321598053, -0.05721243470907211, 0.13812363147735596, -0.23934628069400787, -0.17013153433799744, 0.31905597448349, -0.14831295609474182, 0.6887959241867065, -0.22928878664970398, 0.29492348432540894, 0.035015176981687546], [0.27083244919776917, 0.05425674468278885, 0.3005509376525879, 0.33392176032066345, 0.14524096250534058, 0.7571138143539429, 0.12167176604270935, -0.17625731229782104, -0.2991068363189697, 0.44644850492477417, 0.3092634975910187, 0.6320000886917114, 0.28685158491134644, 0.012316876091063023], [-0.4833403527736664, -0.35788169503211975, -0.7232215404510498, -0.5368548035621643, -0.1789056658744812, 0.11148687452077866, 0.1833593100309372, -0.0032974130008369684, -0.04881817474961281, 0.031611476093530655, 0.27319854497909546, 0.4750407636165619, 0.11165163666009903, 0.13247232139110565], [-0.009640496224164963, 0.10569687932729721, 0.09853152930736542, 0.32804033160209656, 0.050603073090314865, 0.013246123678982258, 0.0429239422082901, -0.6235905289649963, -0.20718032121658325, 0.188778817653656, -0.04912558197975159, 0.6093131899833679, -0.04020208120346069, 0.0037037732545286417], [-0.22326919436454773, -1.2026934623718262, 0.4587727189064026, -0.8056325316429138, 0.16910967230796814, 1.2667579650878906, -0.09536540508270264, 0.7454215288162231, 0.556200385093689, -0.38594526052474976, -0.3512032628059387, -0.7311500906944275, 0.42662689089775085, -0.06955260038375854], [0.07925157994031906, -0.07362069934606552, -0.4335218071937561, -0.3487449884414673, 0.3086414933204651, 0.08610568195581436, -0.23413397371768951, 0.4303727149963379, 0.11231478303670883, -0.1638462096452713, 0.008452961221337318, 0.38783004879951477, -0.0846458375453949, -0.1393837183713913], [0.04651550576090813, -0.07576631754636765, 0.07549120485782623, 0.5069969296455383, -0.4743824005126953, -0.18476198613643646, -0.18665878474712372, -0.5209170579910278, -0.03142757713794708, 0.5124757885932922, -0.141392782330513, -0.36516425013542175, -0.4924972355365753, 0.05081086978316307], [-0.22383347153663635, -0.4748101532459259, 0.2438356727361679, 0.036336783319711685, -0.17263713479042053, 0.36443760991096497, -0.12111998349428177, -0.125205859541893, 0.1876804232597351, -0.1863633245229721, 0.39158615469932556, -0.24051915109157562, -0.051802631467580795, 0.15729299187660217], [0.5605757236480713, -0.19121991097927094, -0.034683264791965485, -0.2203277349472046, -0.07651447504758835, -0.7228488922119141, -0.19407697021961212, -0.2516219913959503, -0.02975127473473549, 0.4291395843029022, -0.41029515862464905, 0.36406460404396057, -0.10344316810369492, -0.05752106010913849], [0.030989769846200943, -0.5740610361099243, 0.059029996395111084, -0.29876649379730225, -0.07166760414838791, -0.35913318395614624, 0.28048357367515564, 0.016099968925118446, -0.3824290931224823, 0.05486123263835907, 0.32857242226600647, 0.17809167504310608, 0.07719597965478897, 0.02797636203467846], [0.0981791615486145, -0.1601959764957428, -0.09871262311935425, 0.09806101769208908, -0.038515251129865646, -0.05540380999445915, -0.2137610912322998, -0.22530497610569, 0.07171973586082458, -0.09157103300094604, 0.5243083238601685, -0.2879389226436615, 0.20258989930152893, 0.08345367014408112], [0.03269806131720543, 0.3466084599494934, 0.006422295235097408, 0.3170281648635864, 0.2923201620578766, 0.1551944762468338, -0.017597945407032967, -0.06736477464437485, 0.2851060628890991, -0.34680572152137756, 0.047582343220710754, -0.4732861816883087, -0.15931327641010284, 0.1431407928466797], [0.13189063966274261, -0.09481251984834671, 0.1674356907606125, -0.4350077211856842, 0.20932571589946747, 0.17481939494609833, -0.046502094715833664, 0.0478440597653389, -0.2266882061958313, 0.07641381025314331, -0.1333036571741104, -0.02488665096461773, -0.04201361909508705, -0.028114987537264824], [-0.06591489911079407, -0.2545506954193115, -0.19145478308200836, -0.18438667058944702, -0.10875862091779709, 0.1688770353794098, 0.050190847367048264, 0.05898702144622803, -0.03835008665919304, -0.001996617764234543, 0.45259276032447815, -0.14175832271575928, -0.0019324823515489697, 0.1436411291360855], [0.24294736981391907, -0.20190328359603882, -0.13883988559246063, -0.18133112788200378, -0.03505008667707443, 0.1039196103811264, -0.05509858950972557, 0.08023260533809662, -0.03661030903458595, 0.04839349910616875, 0.14968843758106232, -0.13933230936527252, -0.11247595399618149, -0.05144566297531128], [-0.06622988730669022, -0.20608919858932495, 0.10832018405199051, 0.07259638607501984, 0.23828324675559998, 0.18382519483566284, 0.14852815866470337, 0.11924710124731064, 0.17825987935066223, 0.4464980661869049, -0.009221660904586315, 0.18468250334262848, 0.06505797803401947, -0.014153722673654556], [0.3038056492805481, -0.05495107173919678, -0.0536700040102005, -0.01656433753669262, -0.03400685638189316, 0.021443961188197136, 0.0005209994269534945, -0.03960537910461426, -0.09984500706195831, -0.06563347578048706, 0.058850277215242386, -0.009418843314051628, -0.011899305507540703, -0.008403020910918713], [0.18351498246192932, -0.03907320648431778, 0.11840914934873581, -0.02711658924818039, -0.010028596967458725, 0.011007674038410187, -0.12601573765277863, 0.16677649319171906, 0.02114281617105007, -0.11321713775396347, 0.12193591147661209, -0.2698843479156494, 0.02971699833869934, 0.07411307841539383], [0.5639883875846863, 0.15647189319133759, 0.0673513188958168, 0.19712969660758972, 0.017982210963964462, 0.035091180354356766, 0.025729216635227203, 0.05442207306623459, 0.0841643437743187, 0.3339177072048187, -0.19628408551216125, -0.0644373893737793, -0.1189490258693695, -0.026911599561572075], [0.026467621326446533, 0.24060355126857758, 0.1539117991924286, -0.41434434056282043, -0.017328761518001556, 0.14288464188575745, -0.12356671690940857, 0.2593764066696167, -0.07874137163162231, 0.06525547802448273, -0.0468234047293663, -0.11078567057847977, -0.057965002954006195, -0.10066617280244827], [-0.24669981002807617, 0.3474869132041931, 0.1424040049314499, 0.17521993815898895, 0.12797386944293976, -0.15523651242256165, -0.037980012595653534, -0.1590392142534256, -0.06721249222755432, 0.2178262323141098, 0.058129217475652695, -0.19282111525535583, -0.1519334316253662, 0.04882153123617172], [-0.11531352996826172, -0.004284732509404421, -0.47937050461769104, -0.20531563460826874, 0.22763854265213013, 0.062493037432432175, 0.09163887053728104, -0.0007854733266867697, -0.07196080684661865, 0.039905447512865067, 0.21874049305915833, 0.05568892881274223, -0.001696152612566948, -0.35842975974082947], [0.38952261209487915, 0.004107413813471794, 0.05460919067263603, 0.13574445247650146, 0.08136924356222153, -0.1688719540834427, -0.014035195112228394, -0.29124367237091064, 0.10689359903335571, -0.02426011860370636, -0.030136244371533394, 0.17868071794509888, -0.0800003856420517, 0.0010061789071187377], [0.122723788022995, 0.4387207627296448, 0.0942755714058876, 0.42598095536231995, 0.08479864150285721, 0.07482322305440903, 0.019406471401453018, 0.0647987648844719, -0.11083290725946426, 0.234269380569458, -0.02011115849018097, -0.09338623285293579, -0.20553788542747498, -0.04952157288789749], [-0.0030497403349727392, 0.24392399191856384, 0.1969984918832779, -0.1393967717885971, 0.07026977092027664, 0.052536286413669586, -0.03418707847595215, 0.012318998575210571, -0.08958765119314194, 0.03977125138044357, -0.2583596408367157, 0.10103720426559448, -0.11007323116064072, -0.1118648573756218]], "rec.bias_ih_l0": [-0.021715130656957626, -0.10975420475006104, 0.07601557672023773, 0.11407352983951569, -0.22643443942070007, 0.5308396220207214, 0.061416588723659515, 0.045989640057086945, -0.3110595941543579, -0.6316686868667603, -0.789855420589447, -0.042058419436216354, -0.3123739957809448, -0.07736183702945709, 0.6765167117118835, 0.17881740629673004, 0.15642422437667847, 0.22763584554195404, 0.14870280027389526, 0.04219851270318031, 0.047772862017154694, 0.31181082129478455, 0.9660744071006775, 1.0529273748397827, 1.1091234683990479, -0.1629679650068283, 0.2952343821525574, 0.04625691473484039, 0.2981194853782654, -0.1070902869105339, -0.31023523211479187, -0.214350163936615, -0.03675103560090065, 0.187468022108078, 0.20903344452381134, -0.12044357508420944, -0.1101236417889595, -0.014001067727804184, 0.1963658481836319, -0.15384115278720856, -0.10311076045036316, 0.030843650922179222, 0.24663719534873962, 0.34563469886779785, 0.2685478925704956, 0.5131293535232544, -0.044919226318597794, 0.5998324155807495, -0.042872097343206406, -0.018985072150826454, 0.17245249450206757, -0.02002611570060253, 0.12506070733070374, 0.3141312897205353, 0.03263567388057709, -0.030086718499660492], "rec.bias_hh_l0": [-0.04907761886715889, -0.05106375738978386, 0.03392892703413963, -0.13619409501552582, -0.08725470304489136, 0.5264273881912231, 0.09155783802270889, -0.06286275386810303, -0.578488290309906, -0.7383539080619812, -0.9710682034492493, 0.0586596354842186, -0.33868181705474854, -0.21527956426143646, 0.7407872080802917, 0.10696148872375488, 0.2116159051656723, 0.4694550335407257, 0.05666867643594742, 0.15688811242580414, -0.19103966653347015, 0.28812655806541443, 0.9243583679199219, 0.9048304557800293, 1.1654226779937744, -0.26906201243400574, 0.3445166051387787, 0.10864977538585663, 0.29967814683914185, 0.074246346950531, 0.054575856775045395, 0.0512801893055439, -0.14201882481575012, 0.18562650680541992, -0.05866007134318352, 0.07940709590911865, -0.27596792578697205, -0.018956631422042847, -0.0628105103969574, -0.12612508237361908, -0.15936078131198883, -0.10418806970119476, 0.21348756551742554, 0.3285225033760071, 0.18735182285308838, 0.4602431654930115, 0.016944972798228264, 0.6150187849998474, 0.03797232732176781, -0.24547341465950012, 0.2600809335708618, -0.11648046225309372, 0.19880224764347076, 0.36563655734062195, 0.014559066854417324, -0.13562431931495667], "lin.weight": [[0.06896147131919861, -0.03898906335234642, -0.1926705539226532, -0.4067736268043518, 0.6603471636772156, -0.19984398782253265, 0.3794596791267395, 0.06739518791437149, -0.1825650930404663, 0.19708341360092163, 0.33466771245002747, 0.15894480049610138, 0.18134792149066925, -0.21779124438762665]], "lin.bias": [-0.13933180272579193]}}