{"model_data": {"model": "SimpleRNN", "input_size": 3, "skip": 1, "output_size": 1, "unit_type": "LSTM", "num_layers": 1, "hidden_size": 20, "bias_fl": true}, "state_dict": {"rec.weight_ih_l0": [[0.05538242682814598, 0.07958927005529404, 0.10670122504234314], [0.1440478414297104, 0.041378892958164215, 0.08769209682941437], [-0.02394787408411503, 0.5740662217140198, 0.3845122754573822], [-0.05024608597159386, 0.06378965824842453, -0.05613229423761368], [0.028505336493253708, 0.6758126616477966, 0.3900620937347412], [-0.0531034953892231, -0.5320017337799072, -0.4960143268108368], [0.02521447278559208, -0.1349463015794754, 0.07592933624982834], [0.02038760669529438, -0.31078147888183594, 0.09252558648586273], [-0.05303989350795746, 0.22700197994709015, 0.14040692150592804], [-0.015659084543585777, -0.1693536788225174, 0.12802408635616302], [0.10691411793231964, 0.10905557125806808, 0.05392397195100784], [0.0005518346442840993, -0.005567240994423628, -0.003731038887053728], [-0.09839121252298355, -0.05110424384474754, -0.015014249831438065], [-0.2919975519180298, -0.5283053517341614, -0.4465596377849579], [0.020962435752153397, 0.03925232216715813, -0.06119018420577049], [-0.2608332633972168, -0.23534712195396423, -0.08381882309913635], [0.07606088370084763, -0.1173795759677887, 0.1730712652206421], [0.03338899463415146, 0.32128867506980896, 0.1328045278787613], [-0.006970751564949751, 0.2676685154438019, 0.26884663105010986], [-0.023796265944838524, 0.34269052743911743, 0.1892666220664978], [0.11797585338354111, 0.06088002771139145, 0.1939510554075241], [0.3143140971660614, 0.0649905577301979, 0.017262432724237442], [-0.04119841381907463, 0.5680207014083862, -0.20934361219406128], [-0.09899977594614029, 0.02213362604379654, -0.09980451315641403], [-0.004689571913331747, 0.30329975485801697, -0.25926321744918823], [0.02457631565630436, 0.6486130952835083, 0.5922627449035645], [0.01573735848069191, -0.19543738663196564, 0.13215918838977814], [0.03126484528183937, 0.44644463062286377, -0.6709607243537903], [-0.06774096190929413, 0.3738507926464081, -0.06532225012779236], [0.03408421576023102, 0.1629088968038559, 0.6825774312019348], [0.16579218208789825, 0.0036782657261937857, 0.03550082445144653], [0.0006121600163169205, -0.003654762636870146, -0.0029354458674788475], [-0.1707065850496292, 0.0868687629699707, 0.046174898743629456], [-0.4339149594306946, 0.6711097955703735, 0.5651878714561462], [0.024904370307922363, 0.044517017900943756, -0.05532856285572052], [-0.35452932119369507, 0.09554122388362885, 0.05492211505770683], [0.12317629903554916, -0.1687653809785843, 0.20710374414920807], [0.06108608469367027, 0.30438512563705444, -0.0552474781870842], [-0.018946301192045212, -0.15016083419322968, -0.16695329546928406], [-0.02986544743180275, 0.07728470116853714, -0.060320913791656494], [0.11598251760005951, -0.17240583896636963, -0.5765500068664551], [-0.22522366046905518, -0.03284330666065216, -0.0896558091044426], [-2.7987723350524902, 0.19311346113681793, 0.08914517611265182], [0.05115271732211113, -0.1422528326511383, -0.5067446231842041], [-0.7856404781341553, -0.0649685338139534, -0.05674078315496445], [-0.6041677594184875, 0.004913507029414177, 0.0029321301262825727], [0.17551301419734955, -0.3007979989051819, -0.28637799620628357], [0.2536608874797821, 0.028812572360038757, -0.002401749137789011], [-0.20656563341617584, -0.07456375658512115, 0.09994322061538696], [0.1931464672088623, 0.08470127731561661, -0.01399453729391098], [-0.3198108375072479, -0.11186234652996063, -0.2014247626066208], [-0.00406296132132411, -0.0046654376201331615, -0.016753889620304108], [-0.0611240528523922, -0.015274266712367535, 0.027479464188218117], [0.7185257077217102, 0.0550849586725235, 0.07122968137264252], [-0.1511702686548233, -0.13033424317836761, 0.019310258328914642], [0.4681099057197571, -0.009234201163053513, 0.03920707106590271], [0.2016829252243042, 0.44705456495285034, -0.13519980013370514], [0.11712279915809631, 0.06486708670854568, 0.13680914044380188], [0.2475905865430832, -0.23892027139663696, -0.024792222306132317], [1.3083382844924927, -0.020276932045817375, 0.21558400988578796], [0.15041185915470123, 0.05921052768826485, 0.1588086634874344], [0.3810444474220276, -0.07423834502696991, 0.11525291204452515], [-0.01596195623278618, 0.622318685054779, 0.4161234498023987], [-0.10003694891929626, 0.038942039012908936, -0.16025367379188538], [-0.006433703470975161, 0.4647449254989624, 0.3643207550048828], [0.07094884663820267, 0.037469539791345596, -0.05898179113864899], [-0.006303139962255955, -0.21321024000644684, 0.0702788308262825], [-0.003489020513370633, 0.10584034025669098, 0.0757536068558693], [-0.1371043175458908, 0.28521713614463806, 0.1494666188955307], [0.011938819661736488, -0.013413750566542149, 0.2836521863937378], [0.1406816691160202, 0.12353639304637909, 0.05344396084547043], [0.0005792696611024439, -0.0056235576048493385, -0.0037366009782999754], [-0.11537937819957733, 0.03699769452214241, 0.036898691207170486], [-0.04119568318128586, 0.37454840540885925, 0.3211911916732788], [0.024253562092781067, 0.04147358238697052, -0.06239742785692215], [-0.3180403411388397, -0.0009846948087215424, 0.0913248062133789], [0.09973224997520447, -0.398032009601593, 0.14073218405246735], [0.09700337052345276, 0.3483756184577942, 0.13492654263973236], [0.0042999847792088985, 0.30001208186149597, 0.2827630043029785], [-0.022845204919576645, 0.3593347668647766, 0.19975489377975464]], "rec.weight_hh_l0": [[0.005957464221864939, 0.00020574852533172816, -0.0881066843867302, 0.09230580180883408, 0.028392497450113297, -0.032933689653873444, -0.0018405241426080465, -0.002327952766790986, -0.025751899927854538, -0.013894141651690006, -0.018306896090507507, -0.0037163591478019953, -0.023932263255119324, -0.0914745107293129, -0.022447308525443077, -0.018035724759101868, 0.08309251070022583, 0.01966327801346779, -0.04396849125623703, 0.0033841778058558702], [-0.0423709973692894, -0.08648019284009933, -0.14990553259849548, -0.013009222224354744, -0.02141072414815426, -0.12407337129116058, 0.00354016968049109, -0.01908132992684841, -0.12145872414112091, 0.012662331573665142, 0.019160358235239983, -0.004963964689522982, 0.013310537673532963, 0.1034587025642395, -0.04145771637558937, 0.02353210374712944, 0.05556659400463104, 0.06283947825431824, -0.0637977123260498, 0.033106330782175064], [-0.09306982159614563, 0.2348490208387375, 0.037726033478975296, 0.04217038303613663, -0.0018769609741866589, -0.08605635911226273, -0.07035873830318451, 0.032474711537361145, -0.4304202198982239, -0.008074319921433926, -0.033369507640600204, -0.0009288850123994052, 0.013738635927438736, -0.3203985095024109, 0.00392887694761157, 0.06343352049589157, 0.09994260221719742, -0.32599103450775146, -0.049056682735681534, 0.013021423481404781], [0.08730961382389069, 0.008873927406966686, 0.07733717560768127, 0.12874093651771545, 0.019185204058885574, 0.016313858330249786, -0.014988902024924755, -0.05437811464071274, -0.009683623909950256, 0.021800560876727104, 0.06141316890716553, -0.004022730980068445, -0.036419156938791275, -0.030838124454021454, 0.0014367476105690002, 0.004707245156168938, 0.007060425356030464, -0.023402880877256393, 0.1052156537771225, -0.0850801169872284], [-0.1636206954717636, 0.10738667845726013, 0.012942013330757618, -0.04761581867933273, 0.05284984037280083, -0.06252355128526688, -0.18636271357536316, 0.055040910840034485, -0.3024584949016571, 0.03437397629022598, -0.04328736290335655, 0.003432568395510316, 0.0011699629249051213, -0.2351522594690323, -0.016169894486665726, 0.015209494158625603, 0.16015680134296417, -0.30698755383491516, -0.07434988766908646, 0.01959896832704544], [-0.3087621331214905, -0.18287469446659088, 0.0012797187082469463, -0.49194249510765076, -0.08975695818662643, -0.19450277090072632, -0.05918917804956436, -0.018216751515865326, 0.2977950870990753, -0.018497297540307045, -0.18034926056861877, -0.026129381731152534, 0.04752694442868233, 0.36704131960868835, 0.029751308262348175, -0.22768542170524597, -0.2065662294626236, 0.16298356652259827, -0.041593775153160095, 0.0036401236429810524], [0.06607306003570557, 0.0364961102604866, 0.04486297070980072, 0.1250816434621811, 0.08887755870819092, 0.07222282141447067, 0.06826619058847427, -0.004570560995489359, -0.01040838472545147, 0.015412991866469383, 0.03490401804447174, 0.007231796160340309, -0.002339021535590291, -0.06696458905935287, 0.013783077709376812, 0.027796771377325058, -0.018691333010792732, -0.10079551488161087, 0.04091230034828186, 0.01626482605934143], [-0.19739782810211182, -0.29732996225357056, -0.05989545211195946, -0.35105568170547485, -0.05777296423912048, 0.10709799826145172, 0.26892900466918945, 0.04466633126139641, 0.3335467576980591, 0.044762320816516876, -0.029525762423872948, -0.004006876144558191, -0.037168074399232864, 0.2153007835149765, -0.05716191232204437, -0.0014389932621270418, -0.43122777342796326, 0.35279175639152527, -0.010710134170949459, 0.0919540598988533], [0.01970863714814186, 0.09435871243476868, 0.08079763501882553, 0.0887036919593811, 0.0026618039701133966, -0.02590637281537056, -0.05512222647666931, -0.015335332602262497, -0.07639623433351517, 0.012618382461369038, -0.0048085590824484825, -0.003458046354353428, 0.007381441071629524, -0.11458619683980942, 0.012327784672379494, 0.02723528817296028, -0.006924892775714397, -0.20273150503635406, -0.005715825594961643, -0.010716537944972515], [-0.05097900331020355, -0.0942658931016922, -0.017311587929725647, -0.054747678339481354, -3.422007011977257e-06, 0.0867057740688324, -0.05773824453353882, 0.008452032692730427, 0.21860098838806152, 0.053216882050037384, 0.014949395321309566, 0.001409469754435122, -0.03509906679391861, 0.09132009744644165, 0.018989257514476776, -0.15656709671020508, 0.01463139709085226, 0.23002031445503235, -0.0009532047552056611, 0.03608563542366028], [-0.0045509058982133865, -0.06283652782440186, -0.12195257842540741, 0.030362185090780258, -0.11980843544006348, -0.049989406019449234, -0.015588590875267982, -0.1070784404873848, -0.14850999414920807, 0.011182708665728569, 0.026892811059951782, 0.0015069192741066217, 0.03056260384619236, 0.10666821897029877, -0.04975702241063118, 0.04829046502709389, 0.04432985186576843, -0.07438980787992477, -0.03796948865056038, -0.0005028318264521658], [0.0007342069875448942, -0.0012936593266204, -7.856581760279369e-06, -0.0009051730157807469, 0.0011403163662180305, -0.00036565534537658095, 0.0006799789262004197, 0.0001026188547257334, 0.00232262397184968, 0.0008063610875979066, 0.00020847140694968402, -2.85941732727224e-05, -0.00012787655577994883, 0.0032318895682692528, -0.00036070862552151084, -0.00013031542766839266, -0.0005157389678061008, 0.0011279531754553318, 0.00018074383842758834, -0.00022078801703173667], [-0.06614489108324051, -0.012677629478275776, 0.0668930858373642, -0.11492534726858139, 0.03140497952699661, 0.04533125460147858, -0.019477123394608498, 0.02279503643512726, 0.06378089636564255, 0.0009293350740335882, 0.023026933893561363, -0.0046681566163897514, -0.06346873939037323, -0.026797696948051453, 0.02821810357272625, -0.12901869416236877, -0.0020373815204948187, 0.022621069103479385, 0.07056204974651337, -0.03328332304954529], [-0.22510388493537903, -0.9342417120933533, 0.2930527925491333, -0.5698072910308838, 0.0059962584637105465, 0.11593275517225266, -0.18612292408943176, 0.06905366480350494, 0.6672327518463135, 0.0841270387172699, -0.07497694343328476, -0.016476672142744064, -0.1979992538690567, 0.19789578020572662, -0.18698374927043915, -0.42782023549079895, -0.11436768621206284, 0.5824263095855713, 0.10359495133161545, -0.10464488714933395], [0.005977204069495201, 0.006530314218252897, -0.016722697764635086, 0.045130956918001175, -0.0393311008810997, -0.02213973179459572, 0.023478107526898384, -0.03241688758134842, -0.04705106094479561, 0.030222581699490547, 0.011745338328182697, -0.0014700094470754266, -0.012673410587012768, 0.0069829062558710575, -0.013519229367375374, 0.011507158167660236, -0.02889915555715561, -0.030475769191980362, 0.022477127611637115, -0.010670928284525871], [-0.006395868957042694, -0.02416205033659935, -0.02594873495399952, -0.11774597316980362, -0.11397683620452881, 0.28518056869506836, 0.022205762565135956, 0.02982252649962902, 0.09385070204734802, -0.06643281877040863, -0.06826762855052948, -5.007792424294166e-05, -0.16482122242450714, -0.25508469343185425, 0.1577850729227066, -0.2792276442050934, -0.0768195316195488, 0.07061485946178436, 0.06018682196736336, 0.0656958520412445], [0.06572774052619934, -0.026091773062944412, -0.050901152193546295, 0.07025224715471268, -0.10529585182666779, -0.033398497849702835, 0.03492407873272896, -0.02078951708972454, -0.038113176822662354, 0.014889227226376534, 0.0335460789501667, -0.005216010846197605, 0.018279464915394783, 0.07291252166032791, -0.030189504846930504, 0.06009490415453911, -0.015644388273358345, 0.036597322672605515, -0.002932665403932333, 0.0031222517136484385], [0.00936472974717617, 0.04177965596318245, -0.047401949763298035, 0.0725015327334404, -0.03750190511345863, -0.08959951251745224, -0.11258235573768616, -0.01625272072851658, -0.18048299849033356, 0.033424630761146545, -0.06175900623202324, -0.00196986086666584, 0.015431649051606655, -0.04080231115221977, -0.018722040578722954, 0.03343752771615982, 0.09358865767717361, -0.030558079481124878, -0.042787857353687286, 0.006272977218031883], [-0.019198719412088394, 0.08612832427024841, 0.024555753916502, 0.0708831325173378, 0.08669405430555344, -0.07071593403816223, 0.017505748197436333, 0.06744033843278885, 0.02946823462843895, -0.0017689320957288146, 0.055692512542009354, 0.002976494375616312, -0.011888784356415272, -0.19969406723976135, 0.006840134039521217, 0.038433101028203964, 0.07266734540462494, -0.015258573926985264, 0.04398992657661438, -0.020103462040424347], [0.05150625854730606, 0.03464602679014206, -0.01715828664600849, 0.16703251004219055, 0.03143630176782608, -0.09544850885868073, 0.005044294521212578, 0.03452996909618378, -0.08025936037302017, -0.008350309915840626, 0.017181364819407463, -0.003437203820794821, -0.027950774878263474, -0.16909271478652954, -0.010675940662622452, 0.0015357424272224307, 0.04458041116595268, 0.0282553993165493, 0.008288986049592495, -0.031164932996034622], [-0.04009810835123062, -0.04224215820431709, -0.18027730286121368, 0.11517226696014404, 0.030943738296628, -0.06351105868816376, 0.0036267528776079416, -0.017608752474188805, -0.012675177305936813, -0.02887273021042347, -0.024654081091284752, -0.005646486766636372, -0.04067397490143776, -0.11001551896333694, -0.04285057634115219, -0.03656678646802902, 0.15805847942829132, 0.07253563404083252, -0.08534479886293411, 0.014266240410506725], [-0.014726543799042702, -0.24707099795341492, -0.1773022562265396, 0.02031242661178112, 0.017545826733112335, -0.1185021921992302, -0.0007995824562385678, -0.04334731772542, -0.1671537607908249, 0.0749339684844017, 0.058246709406375885, -0.006377847399562597, 0.04380835220217705, 0.2618178129196167, -0.10688579827547073, 0.06488200277090073, 0.12015435844659805, 0.023096216842532158, -0.045254070311784744, 0.0038802623748779297], [0.20819507539272308, 0.16972671449184418, 0.12751519680023193, 0.25256475806236267, 0.07534999400377274, 0.05519315227866173, -0.3378594219684601, 0.08997988700866699, -0.6359410881996155, 0.03242577239871025, -0.31528642773628235, 0.005541611462831497, 0.14424310624599457, -0.1854984313249588, 0.05111761391162872, 0.018358834087848663, 0.13086989521980286, -0.6166632175445557, -0.16881388425827026, 0.10868272185325623], [0.14285480976104736, 0.019513005390763283, 0.07732946425676346, 0.20414672791957855, -0.009401462972164154, 0.03368299826979637, -0.02341943420469761, -0.09157489240169525, 0.0014311987906694412, 0.01356705091893673, 0.10330286622047424, -0.004008496180176735, -0.07185889780521393, -0.1075219064950943, 0.014234439469873905, 0.01817157305777073, 0.009869604371488094, 0.007266231346875429, 0.1564970165491104, -0.11485403031110764], [0.34195876121520996, -0.12421079725027084, 0.04319555684924126, 0.29441508650779724, 0.039299674332141876, 0.014492474496364594, -0.22443613409996033, 0.015424552373588085, -0.10800283402204514, 0.018415288999676704, -0.16557632386684418, 5.4635442211292684e-05, 0.010059533640742302, 0.008535453118383884, -0.004762888420373201, -0.06123257800936699, 0.04471011459827423, -0.07714226841926575, -0.057140566408634186, 0.06574607640504837], [0.21251961588859558, 0.23324169218540192, -0.12907077372074127, 0.7344311475753784, -0.20167015492916107, -0.4130290150642395, 0.3341422379016876, -0.18819507956504822, -0.3513917624950409, 0.01530466042459011, 0.24498972296714783, -0.035280968993902206, -0.08423400670289993, -0.4224558472633362, -0.12561266124248505, 0.11689436435699463, 0.11725898087024689, -0.10174227505922318, 0.19905754923820496, -0.1898421347141266], [0.13668452203273773, 0.06151576712727547, 0.06691868603229523, 0.21914377808570862, 0.16045071184635162, 0.09901948273181915, 0.10881299525499344, 0.002560356864705682, -0.00864088349044323, 0.007510924246162176, 0.05642583593726158, 0.013904736377298832, -0.012151924893260002, -0.11266627162694931, 0.03500187024474144, 0.044135402888059616, -0.027875153347849846, -0.15215128660202026, 0.07685306668281555, 0.02455282211303711], [0.6158134937286377, 0.04893144592642784, 0.07221714407205582, 0.7285512089729309, 0.0765700414776802, -0.06198514252901077, 0.23547238111495972, -0.025291770696640015, -0.052605193108320236, 0.12083118408918381, 0.011969990096986294, 0.015782980248332024, -0.07087311893701553, -0.26512786746025085, -0.028688503429293633, 0.11412617564201355, -0.13108815252780914, -0.07672896981239319, 0.15947005152702332, -0.1220884770154953], [0.03090507723391056, 0.049298860132694244, 0.11635761708021164, 0.0513710081577301, 0.040501877665519714, -0.0005026448634453118, -0.20132499933242798, -0.0018220155034214258, -0.07730548083782196, 0.03087005391716957, -0.0729486346244812, -0.00287465937435627, 0.03469689562916756, 0.00648519117385149, 0.018940510228276253, -0.0015582930063828826, 0.006575124803930521, -0.48463380336761475, -0.10070434957742691, 0.019704632461071014], [-0.21687628328800201, 0.02706179767847061, 0.028472937643527985, -0.05231115594506264, 0.004170190077275038, -0.003004476660862565, -0.005406953860074282, 0.04480661079287529, 0.04347541555762291, 0.11055084317922592, 0.1033608689904213, -0.0016887057572603226, -0.04346146807074547, -0.05114968121051788, -0.002617447404190898, -0.05744464695453644, 0.021338364109396935, 0.0295439250767231, 0.07617877423763275, 0.015675675123929977], [0.01591157726943493, -0.14876289665699005, -0.17341364920139313, 0.05786607414484024, -0.13266286253929138, -0.07034645974636078, 0.0505012609064579, -0.1390058547258377, -0.1315658539533615, 0.03935585916042328, 0.08788938075304031, 0.0019183806143701077, 0.030241509899497032, 0.2219318449497223, -0.08319774270057678, 0.05019407719373703, 0.034010760486125946, -0.08331269770860672, -0.00643661106005311, -0.04006179794669151], [0.0005329795530997217, -0.001007114420644939, -9.644839155953377e-05, -0.0005737023893743753, 0.0014389599673449993, -0.00046345070586539805, 0.0004495420434977859, 9.965123172150925e-05, 0.0017935078358277678, 0.0007984272670000792, 0.00022638005611952394, -1.5709580111433752e-05, -6.53139577480033e-05, 0.0024690935388207436, -0.00038655518437735736, -2.0886756828986108e-05, -0.0002873785560950637, 0.00048249217798002064, 7.445750088663772e-05, -0.00018835660011973232], [0.00825060997158289, 0.03046085312962532, 0.10039815306663513, -0.0031231578905135393, 0.12685278058052063, 0.02652226947247982, -0.0574425645172596, 0.07430018484592438, 0.08307118713855743, -0.01752454787492752, 0.019799700006842613, -0.006616718135774136, -0.11957653611898422, -0.21340356767177582, 0.0617249570786953, -0.2196069359779358, 0.01034172810614109, -0.022649841383099556, 0.08261556923389435, -0.001964517869055271], [0.1941385716199875, 0.18763157725334167, 0.43938788771629333, 0.707114577293396, 0.3806805908679962, -0.116752490401268, 0.06069475784897804, 0.1288229376077652, -0.7001407146453857, 0.11331725120544434, 0.24834449589252472, 0.004717731382697821, -0.15609219670295715, -0.7317458391189575, 0.22604742646217346, 0.12042491137981415, 0.2864132523536682, -0.5419424772262573, 0.37812188267707825, -0.2197846621274948], [0.02001986652612686, 0.008832608349621296, -0.00768919987604022, 0.07159941643476486, -0.03685987740755081, -0.015078043565154076, 0.034606095403432846, -0.0403381772339344, -0.039265237748622894, 0.03826439008116722, 0.014754798263311386, -0.0018261994700878859, -0.015256732702255249, 0.011123576201498508, -0.01411493867635727, 0.017380790784955025, -0.03330501914024353, -0.024937845766544342, 0.031394023448228836, -0.013450110331177711], [0.06987833976745605, 0.0725146010518074, 0.002355536911636591, 0.003630065592005849, -0.05673982948064804, 0.20062723755836487, -0.09660779684782028, 0.11642903834581375, -0.003721757559105754, -0.13961172103881836, -0.10606806725263596, -0.004171112552285194, -0.26205679774284363, -0.5115668177604675, 0.19972975552082062, -0.43126893043518066, 0.02899002842605114, -0.09593500196933746, 0.04860132932662964, 0.14461544156074524], [0.1497754454612732, -0.06139413267374039, -0.08636530488729477, 0.14523255825042725, -0.14571134746074677, -0.035047780722379684, 0.043956831097602844, -0.03951635584235191, -0.060897886753082275, 0.02684277482330799, 0.040507279336452484, -0.006695865653455257, 0.037763550877571106, 0.12375204265117645, -0.04961417615413666, 0.09308644384145737, -0.015373904258012772, 0.060898080468177795, -0.0029906302224844694, -0.0040863449685275555], [0.00799561943858862, 0.0016839009476825595, -0.11667558550834656, -0.04249598830938339, -0.14700248837471008, -0.0916806012392044, -0.16698472201824188, -0.045804232358932495, -0.41859155893325806, 0.007332939654588699, -0.1635526716709137, -0.0035384686198085546, 0.06528713554143906, 0.0013680681586265564, -0.022048212587833405, -0.003842199221253395, 0.11153893172740936, -0.08209662139415741, -0.1071653962135315, 0.03443619981408119], [0.02189207449555397, -0.07468556612730026, 0.0651281550526619, -0.0669538825750351, 0.0655517578125, -0.0001156211510533467, 0.12550708651542664, 0.016943443566560745, 0.18222931027412415, 0.016507500782608986, 0.028996488079428673, 0.004646776709705591, 0.010127032175660133, 0.04935041815042496, -0.0003221776569262147, -0.017841795459389687, -0.024395138025283813, 0.11675211787223816, 0.08374673873186111, -0.058913614600896835], [0.04521677643060684, -0.04859812557697296, -0.09073952585458755, 0.08179982751607895, 0.049306049942970276, -0.05400661751627922, 0.013956818729639053, 0.05775333568453789, -0.10686610639095306, -0.022037845104932785, -0.0030735167674720287, -0.004478758201003075, -0.019122447818517685, -0.0028920453041791916, -0.021515313535928726, -0.05416581407189369, -0.008801400661468506, 0.07461127638816833, -0.07469269633293152, -0.007696144282817841], [0.3208736479282379, 0.12532728910446167, -0.21470563113689423, 0.2776506245136261, -0.08849712461233139, -0.044468123465776443, -0.15710386633872986, 0.1852877140045166, 0.12393437325954437, 0.045521676540374756, 0.09955960512161255, 0.004895075690001249, -0.04123407229781151, -0.033650271594524384, 0.12195073813199997, 0.029065074399113655, 0.03400955721735954, -0.11396687477827072, 0.028666285797953606, -0.20619210600852966], [-0.11421288549900055, 0.1270928680896759, 0.5458616614341736, -0.04780407249927521, 0.21543778479099274, -0.006372771691530943, -0.1811121255159378, 0.008139563724398613, -0.2158239185810089, 0.14125092327594757, -0.09413895756006241, 0.0031576387118548155, -0.06194012239575386, -0.45194709300994873, 0.13187426328659058, 0.24994444847106934, -0.0006444570026360452, 0.146695077419281, 0.1068960577249527, -0.3824927806854248], [-0.007912781089544296, -0.2785276472568512, 0.6251415610313416, 0.17588721215724945, -0.13432908058166504, 0.5258921384811401, 0.04451924189925194, -0.06369339674711227, -0.05844008922576904, 0.1707552671432495, 0.4167311489582062, 0.0204197708517313, 0.29120081663131714, 0.8207194805145264, -0.014395560137927532, 0.5895658135414124, -0.12957294285297394, 0.032325442880392075, -0.9544161558151245, -0.44525712728500366], [0.3954407870769501, -0.02130744233727455, -0.04531898722052574, 0.17308367788791656, 0.00522270891815424, -0.037674468010663986, 0.008918882347643375, -0.20779702067375183, 0.012191157788038254, -0.05014088377356529, 0.021769430488348007, -0.0005622999160550535, 0.042274560779333115, -0.021254952996969223, -0.010223513469099998, 0.014013535343110561, 0.15441593527793884, 0.09093830734491348, -0.01462145708501339, 0.210456982254982], [-0.16589339077472687, -0.3262684643268585, 2.856801748275757, 0.0278325155377388, 1.299727439880371, -0.30096685886383057, -0.3703235387802124, -0.2813788056373596, -0.22949230670928955, 0.18675902485847473, 0.2567281723022461, -0.016909360885620117, 0.11458423733711243, 0.3815224766731262, -0.013278032653033733, 0.29637712240219116, -0.14904411137104034, 0.024004630744457245, 0.976885974407196, -1.0612531900405884], [0.27839556336402893, -0.11944350600242615, -0.4134899079799652, -0.2556298077106476, 0.2604047954082489, 0.3514212667942047, 0.09104729443788528, 0.5270026326179504, -0.15485769510269165, 0.32701101899147034, 0.0007786015630699694, -0.007125494536012411, -0.09128523617982864, -0.05408218130469322, 0.12115087360143661, 0.0939636081457138, 0.23572824895381927, 0.17232745885849, 0.10620573908090591, 0.5985549092292786], [-0.1155625507235527, 0.018741246312856674, -0.2487190067768097, -0.15979430079460144, 0.15214017033576965, -0.011046034283936024, 0.4828961193561554, 0.03047483041882515, -0.09149335324764252, 0.12512651085853577, 0.1576029509305954, 0.015577420592308044, -0.10085940361022949, -0.05367966741323471, -0.12035474181175232, -0.033572062849998474, -0.20231348276138306, 0.10335110872983932, 0.06815155595541, -0.15992127358913422], [-0.1172107607126236, 0.0587671734392643, -0.32242146134376526, 0.0448027178645134, 0.6629353761672974, -0.05877015367150307, 0.15095575153827667, 0.44411319494247437, 0.3912186324596405, 0.15497273206710815, -0.06694778800010681, 0.0095997154712677, 0.08706268668174744, -0.13386574387550354, 0.11305643618106842, -0.13083113729953766, 0.05863095074892044, -0.23643817007541656, -0.13499873876571655, -0.1431938111782074], [0.050563130527734756, 0.08777475357055664, 0.5350324511528015, 0.09895772486925125, 0.7596532106399536, -0.06566420197486877, -0.05762108415365219, -0.24079005420207977, -0.03128346428275108, 0.2242993712425232, -0.04341057687997818, -0.008044387213885784, 0.008748154155910015, -0.06302200257778168, 0.04202334210276604, -0.232369527220726, -0.10757248103618622, 0.30739641189575195, 0.3675220012664795, -0.16462574899196625], [-0.224758580327034, 0.09459466487169266, -0.06747701019048691, 0.23641204833984375, -0.2280905693769455, 0.14802981913089752, -0.020034555345773697, -0.14648297429084778, 0.126510888338089, 0.2357739359140396, -0.13898822665214539, 0.0020516763906925917, -0.0453268326818943, 0.1502251774072647, -0.11400637030601501, -0.019121335819363594, -0.29116764664649963, -0.1617407202720642, 0.02112852968275547, -0.3138595521450043], [-0.1330820620059967, 0.014708352275192738, -0.07423248142004013, -0.2046688050031662, -0.002163996919989586, 0.2783829867839813, 0.19680744409561157, 0.07848586142063141, 0.1396668404340744, -0.04547613486647606, 0.07503509521484375, 0.0045740860514342785, -0.07916362583637238, 0.4075287878513336, -0.01929182931780815, -0.1271519660949707, 0.0720333606004715, 0.0318024605512619, 0.2921949625015259, -0.01078526396304369], [-0.00486577907577157, 0.018109165132045746, -0.004012338817119598, -0.013921217992901802, 0.017838869243860245, 0.06846548616886139, 0.0011366596445441246, -0.001364388270303607, -0.02861878089606762, -0.002624800428748131, -0.012332729995250702, -0.0065847947262227535, -0.003775285091251135, -0.018687749281525612, -0.016693145036697388, 0.021103816106915474, 0.010317539796233177, 0.0014290055260062218, 0.01977095752954483, -0.007383222226053476], [0.1090998575091362, 0.14791786670684814, -0.0022915503941476345, -0.05238717794418335, 0.10579004883766174, 0.09326165169477463, -0.028561903163790703, 0.11347045004367828, -0.2624257504940033, -0.07991400361061096, -0.24368493258953094, -0.005345614161342382, 0.031011175364255905, 0.4434528350830078, 0.056717399507761, 0.24423019587993622, 0.13525192439556122, 0.06892602145671844, 0.11453429609537125, 0.20793195068836212], [-0.024146875366568565, -0.11154457926750183, -0.6572068929672241, 0.1154402568936348, -0.1858515441417694, 0.13161751627922058, 0.042957160621881485, -0.06011107191443443, -0.012921962887048721, 0.03596619889140129, -0.017738349735736847, 0.0009149747202172875, -0.10177013278007507, 0.42023834586143494, -0.05641622841358185, -0.09671971946954727, 0.013676758855581284, 0.0016105405520647764, -0.26373347640037537, 0.08230460435152054], [0.05698590353131294, 0.22556984424591064, 0.15326429903507233, -0.012475612573325634, -0.04594831541180611, -0.029750442132353783, -0.07713092863559723, 0.1004689484834671, -0.020134469494223595, 0.03292759507894516, -0.08830861002206802, 0.0005335791502147913, -0.10529793798923492, -0.3578640818595886, 0.07105502486228943, -0.049497414380311966, -0.05505775660276413, -0.04993519186973572, 0.10228856652975082, 0.0136813810095191], [-0.02559933066368103, 0.15293768048286438, -0.17691022157669067, 0.0314958281815052, -0.03913107141852379, 0.038803085684776306, -0.005827843211591244, 0.06217138469219208, 0.11917151510715485, -0.03284807875752449, -0.06928093731403351, -0.00819802563637495, 0.10415051877498627, 0.5699796676635742, -0.12715591490268707, 0.21314330399036407, 0.01793667860329151, -0.08938290178775787, 0.12339170277118683, -0.02203754335641861], [-0.036755580455064774, 0.10105076432228088, -0.12586796283721924, -0.07008268684148788, 0.21094854176044464, 0.1315329372882843, -0.35237759351730347, 0.11387262493371964, -0.0194914061576128, 0.022440768778324127, -0.14020435512065887, 0.0067847962491214275, 0.042326945811510086, 0.022991839796304703, -0.03710879385471344, -0.033926546573638916, 0.37063300609588623, 0.0782141387462616, -0.11827949434518814, -0.09844177216291428], [0.1710214614868164, -0.1260892152786255, -0.5397875308990479, 0.08215959370136261, -0.7080134153366089, 0.04375877231359482, -0.005407999269664288, 0.23086658120155334, 0.5045570731163025, -0.14588946104049683, -0.049746498465538025, -0.0042057279497385025, -0.05503999814391136, -0.026977166533470154, 0.03603613004088402, 0.09098711609840393, 0.02646341733634472, 0.239662304520607, -0.41116341948509216, 0.2627441883087158], [-0.056971631944179535, -0.2489035725593567, 1.2777621746063232, 0.07303004711866379, -0.21371646225452423, -0.27251529693603516, -0.0033055709209293127, -0.02014356665313244, -0.07214198261499405, 0.091891348361969, 0.14854761958122253, -0.005592376459389925, -0.22187280654907227, -0.014704050496220589, -0.1725294142961502, -0.29758596420288086, -0.07355675846338272, 0.11310264468193054, -0.6532019376754761, -0.5179404616355896], [0.2121092826128006, 0.4771794080734253, -0.15652506053447723, -0.011842820793390274, -0.13761214911937714, -0.22577522695064545, 0.16624797880649567, 0.07021888345479965, 0.26503291726112366, -0.08135557174682617, -0.31363803148269653, 0.021395448595285416, -0.17031031847000122, -0.5096178650856018, -0.00879523903131485, -0.5351935625076294, -0.09918029606342316, -0.24427565932273865, 0.06672168523073196, -0.1266416609287262], [-0.11232644319534302, -0.13338400423526764, -0.015281854197382927, 0.047359976917505264, -0.3312318027019501, -0.00905484240502119, 0.017507439479231834, -0.00979303102940321, 0.1223752498626709, -0.020108727738261223, -0.01826995611190796, -0.005627026781439781, -0.02399471402168274, -0.03237145394086838, -0.05790727213025093, -0.06269019097089767, 0.11465785652399063, -0.017036905512213707, 0.025729289278388023, 0.054246529936790466], [-0.0203525573015213, -0.22789746522903442, -0.31804385781288147, 0.0057004885748028755, -0.026121193543076515, -0.18365326523780823, 0.10679232329130173, -0.09325076639652252, -0.156544029712677, 0.06282077729701996, 0.06995199620723724, -0.009478765539824963, 0.029615039005875587, 0.2711217701435089, -0.1466461718082428, 0.0559532530605793, 0.07593827694654465, 0.24572113156318665, -0.06437714397907257, -0.018687577918171883], [-0.03339866176247597, 0.1948377639055252, 0.045452628284692764, 0.12563671171665192, 0.027470050379633904, -0.10828237235546112, -0.04759426414966583, 0.03192942216992378, -0.32081738114356995, -0.0044434648007154465, -0.0048479423858225346, -0.00045069894986227155, -0.0018565180944278836, -0.33349454402923584, -0.00820450484752655, 0.06645078957080841, 0.11199130117893219, -0.24699801206588745, -0.009675906039774418, -0.0036627352237701416], [0.19772161543369293, 0.07262507826089859, 0.06037670746445656, 0.23329989612102509, 0.39415445923805237, -0.03241817280650139, 0.03015553578734398, -0.12238465249538422, -0.06545104086399078, 0.06699985265731812, 0.11120334267616272, -0.0067513370886445045, -0.057155705988407135, 0.016621218994259834, -0.010128375142812729, 0.05652725324034691, -0.027907537296414375, 0.0658777505159378, 0.13024184107780457, -0.19364331662654877], [-0.7465479373931885, -0.18653443455696106, -0.03948270529508591, -0.6773302555084229, -0.08061370998620987, 0.00043518978054635227, 0.06533267349004745, 0.05581038445234299, -0.3945751488208771, 0.0038911201991140842, -0.11907195299863815, 0.006822068244218826, 0.017123708501458168, -0.04553220793604851, -0.008171288296580315, -0.15754267573356628, -0.06130889803171158, -0.3550069034099579, -0.15732678771018982, 0.1487036794424057], [-0.014446915127336979, -0.018350325524806976, -0.00016366489580832422, -0.08740109205245972, -0.0014735417207702994, -0.4247160851955414, -0.08329874277114868, 0.003435592632740736, 0.16433507204055786, 0.09100498259067535, -0.008615349419414997, -0.0394832082092762, 0.03113989531993866, 0.1070040613412857, -0.06399059295654297, -0.00949608813971281, 0.0021440868731588125, 0.03014637902379036, -0.023232489824295044, -0.13901539146900177], [0.041347961872816086, 0.013978865928947926, 0.03766920790076256, 0.07361448556184769, 0.16382165253162384, 0.1098293736577034, 0.09005311876535416, 0.019166836515069008, 0.017277956008911133, 0.00241830013692379, 0.04010683670639992, 0.009997009299695492, -0.026891805231571198, -0.06781762838363647, 0.043528273701667786, 0.003062789561226964, -0.022886693477630615, -0.10155905783176422, 0.031375885009765625, 0.034198325127363205], [0.1596163511276245, -0.06616751104593277, -0.07737348973751068, 0.18614429235458374, 0.010628588497638702, -0.014679324813187122, 0.18232330679893494, 0.06709310412406921, -0.11175940185785294, 0.0045598456636071205, 0.05273934826254845, -0.004539265763014555, -0.12888790667057037, -0.07613933086395264, -0.024108562618494034, -0.029338737949728966, -0.11895672976970673, -0.04423491284251213, 0.038728244602680206, 0.002982581267133355], [-0.005130279343575239, 0.15714211761951447, 0.30044856667518616, 0.05811341479420662, 0.018948206678032875, -0.05432351306080818, -0.05582565814256668, -0.04937557876110077, -0.052932851016521454, 0.06364650279283524, 0.04097528010606766, -0.0039049815386533737, -0.0025832029059529305, -0.09006157517433167, 0.027194712311029434, 0.06013556569814682, -0.041764046996831894, -0.38958120346069336, 0.1265675574541092, -0.1041591614484787], [-0.12993818521499634, -0.09547006338834763, 0.02284054085612297, -0.1129348948597908, -0.0510256290435791, 0.05532708764076233, -0.05238945037126541, 0.03954729065299034, 0.2019926756620407, 0.045502372086048126, 0.05991697311401367, -0.0004416141309775412, -0.033599697053432465, 0.08066901564598083, -0.00014660003944300115, -0.15069863200187683, 0.05806482955813408, 0.19124984741210938, 0.03846265748143196, 0.01712370663881302], [-0.012040004134178162, -0.10149792581796646, -0.19947950541973114, 0.024372464045882225, -0.19802521169185638, -0.050863441079854965, -0.02382168173789978, -0.12389768660068512, -0.20952120423316956, 0.03470957279205322, 0.042754754424095154, 0.0016179753001779318, 0.03818342462182045, 0.16108326613903046, -0.06955894082784653, 0.05459996312856674, 0.04992321506142616, -0.07848311960697174, -0.06734730303287506, -0.00898959394544363], [0.0007213700446300209, -0.0013318380806595087, -3.152629142277874e-05, -0.0009480093722231686, 0.00094267085660249, -0.00037109237746335566, 0.000683870050124824, 0.00024161205510608852, 0.0025079187471419573, 0.0007152080070227385, 0.0002166914491681382, -3.421360452193767e-05, -0.00013230330660007894, 0.003259808523580432, -0.00038098960067145526, -0.00011699389870045707, -0.0005073770298622549, 0.0012400031555444002, 0.00012166066153440624, -0.00015058832650538534], [-0.03490665927529335, 0.020570069551467896, 0.0836799368262291, -0.06787721812725067, 0.13652357459068298, 0.02573813684284687, -0.0348607674241066, 0.054958079010248184, 0.06944267451763153, -0.026848187670111656, 0.019823813810944557, -0.005260497331619263, -0.08194289356470108, -0.10937707126140594, 0.034809842705726624, -0.17007984220981598, 0.01686013862490654, -0.03472212329506874, 0.04981381446123123, -0.015874233096837997], [0.03816093131899834, -0.16887213289737701, 0.16215765476226807, 0.17305609583854675, 0.2052275836467743, -0.0328386053442955, -0.022505473345518112, 0.08765551447868347, -0.2426670491695404, 0.06337045878171921, 0.217128187417984, 0.004512569401413202, -0.17697280645370483, -0.267833411693573, -0.022684220224618912, -0.3563811779022217, 0.16488279402256012, -0.22565245628356934, 0.07838711887598038, -0.16301776468753815], [0.0012071102391928434, 0.007175751496106386, -0.018604198470711708, 0.0440034456551075, -0.03892066702246666, -0.023185817524790764, 0.022357909008860588, -0.036498647183179855, -0.05350847914814949, 0.02984987199306488, 0.0073747094720602036, -0.0019607311114668846, -0.013559229671955109, 0.005173736717551947, -0.012177604250609875, 0.009650453925132751, -0.0302321445196867, -0.025602485984563828, 0.018346069380640984, -0.003263079561293125], [-0.0018902572337538004, 0.009961927309632301, -0.011893919669091702, -0.024393770843744278, -0.1255190372467041, 0.22348080575466156, -0.020573928952217102, 0.11973722279071808, 0.12226841598749161, -0.20447947084903717, 0.007085232529789209, -0.005039107985794544, -0.24727223813533783, -0.44128528237342834, 0.1575029045343399, -0.4689289927482605, -0.01790870726108551, 0.028162304311990738, 0.06034491956233978, 0.1612296998500824], [0.04939300939440727, -0.08218970149755478, -0.0016674130456522107, -0.016361607238650322, -0.23184095323085785, -0.02422008477151394, 0.08533253520727158, -0.009729824960231781, 0.08543126285076141, 0.01272878609597683, 0.070436492562294, -0.006382249295711517, 0.02324112132191658, 0.16717429459095, -0.01777035742998123, 0.05471491813659668, -0.09705567359924316, -0.04014015942811966, 0.04410744458436966, 0.01687243953347206], [-0.018750173971056938, -0.023841673508286476, -0.22627830505371094, 0.06267927587032318, -0.18435485661029816, -0.08041040599346161, -0.10000988095998764, -0.013416501693427563, -0.28976914286613464, -0.00680474191904068, -0.10721413046121597, -0.0028549127746373415, 0.012769816443324089, -0.07066239416599274, -0.03662947937846184, 0.034337352961301804, 0.10449692606925964, 0.08518797904253006, -0.13951043784618378, 0.059276822954416275], [-0.02222604677081108, 0.08920455724000931, 0.022680429741740227, 0.07025867700576782, 0.07756869494915009, -0.07892248779535294, 0.008169916458427906, 0.06470900774002075, 0.04579469934105873, -0.004351796116679907, 0.05045989528298378, 0.0032652809750288725, -0.014038840308785439, -0.21415172517299652, 0.0056096287444233894, 0.044024888426065445, 0.08284992724657059, -0.006085916887968779, 0.04261450469493866, -0.010162434540688992], [0.06328228861093521, 0.023935528472065926, -0.014814052730798721, 0.18646596372127533, 0.03663422539830208, -0.10189849883317947, 0.006869688630104065, 0.030185965821146965, -0.1036696657538414, -0.004539655055850744, 0.025883851572871208, -0.003298460505902767, -0.027277642861008644, -0.1815580129623413, -0.01610841602087021, 0.004630255047231913, 0.05289699137210846, 0.008367200382053852, 0.011926698498427868, -0.044661663472652435]], "rec.bias_ih_l0": [0.18614737689495087, 0.15879347920417786, 0.566926121711731, 0.22481350600719452, 0.4394015073776245, -1.2165735960006714, 0.14359910786151886, -0.6684215664863586, 0.27308908104896545, -0.20295605063438416, 0.07948324084281921, -0.010997871868312359, -0.04562712460756302, -0.8976781368255615, 0.02987661398947239, -0.1227547824382782, 0.12261400371789932, 0.21574698388576508, 0.46734732389450073, 0.45421746373176575, 0.27364370226860046, 0.16199807822704315, -0.16933467984199524, 0.3608294725418091, -0.15032629668712616, 1.7655304670333862, 0.2656461000442505, 0.7432495951652527, 0.04416177049279213, 0.3504658043384552, 0.06231088936328888, -0.008258212357759476, 0.13736627995967865, 1.0756306648254395, 0.06339031457901001, 0.18342910706996918, 0.161660835146904, -0.008319314569234848, -0.03819882124662399, -0.011694679036736488, 0.23980271816253662, 0.11133366078138351, 0.12068744748830795, 0.30399787425994873, 0.09226305782794952, -0.12113524973392487, 0.14573198556900024, 0.00041225383756682277, -0.30347010493278503, 0.09845102578401566, 0.2953643500804901, 0.0030434641521424055, 0.08698765188455582, 0.008618067018687725, -0.05391368642449379, 0.2282533496618271, 0.06737184524536133, -0.10518171638250351, 0.12963730096817017, -0.18802233040332794, 0.12366847693920135, 0.1891341358423233, 0.6972242593765259, 0.3564377725124359, -0.1808246225118637, -0.03626906871795654, 0.10768021643161774, 0.25120484828948975, 0.3278321623802185, -0.0008106008172035217, 0.07334037125110626, -0.011072947643697262, 0.06127890571951866, 0.4563891291618347, 0.029450470581650734, 0.14796924591064453, -0.03860751539468765, 0.2141256034374237, 0.4887329638004303, 0.48438695073127747], "rec.bias_hh_l0": [0.1861487478017807, 0.15876460075378418, 0.566926121711731, 0.22470510005950928, 0.43942171335220337, -1.1581323146820068, 0.14359904825687408, -0.6216339468955994, 0.27381813526153564, -0.2082413136959076, 0.07948324084281921, -0.010997871868312359, -0.04562816768884659, -0.7032262086868286, 0.029894571751356125, -0.12289059907197952, 0.12258514761924744, 0.21572653949260712, 0.46734732389450073, 0.45421746373176575, 0.2728089392185211, 0.16197404265403748, -0.16798101365566254, 0.3609012961387634, -0.15939976274967194, 1.7068527936935425, 0.26564180850982666, 0.749352753162384, 0.04468599706888199, 0.3557668924331665, 0.062310840934515, -0.008258212357759476, 0.13736283779144287, 1.19849693775177, 0.06326866149902344, 0.18277937173843384, 0.16169676184654236, -0.008097082376480103, -0.038414206355810165, -0.011694684624671936, 0.175003781914711, 0.13406546413898468, 0.0890120193362236, 0.30055946111679077, 0.06880985200405121, 0.08245766162872314, 0.20908156037330627, 0.024129299446940422, -0.09247911721467972, -0.08218380808830261, 0.3080501854419708, 0.002351809060201049, -0.06042512506246567, -0.12737898528575897, -0.09377030283212662, 0.14194534718990326, 0.023518938571214676, -0.08297399431467056, 0.08119730651378632, -0.1961255818605423, 0.12364540994167328, 0.1890990436077118, 0.6972242593765259, 0.350521981716156, -0.18183761835098267, 0.00991723220795393, 0.10768038034439087, 0.25697189569473267, 0.3266777992248535, -0.0010166928404942155, 0.07334037125110626, -0.011072947643697262, 0.061279114335775375, 0.30877766013145447, 0.029489681124687195, 0.14792415499687195, -0.03857680782675743, 0.2142290323972702, 0.4887329638004303, 0.48438695073127747], "lin.weight": [[-0.27737683057785034, 0.12429919093847275, -0.0007265000022016466, 0.2742328941822052, -0.40493467450141907, 0.25617730617523193, -0.02723751589655876, -0.6396728157997131, 0.18646571040153503, -0.33798471093177795, -0.040273021906614304, -0.001327988225966692, 0.08267819881439209, -0.06452680379152298, -0.14344125986099243, -0.19374030828475952, -0.22901207208633423, -0.17091397941112518, -0.21611499786376953, -0.5264401435852051]], "lin.bias": [0.011357205919921398]}}