{"model_data": {"model": "SimpleRNN", "input_size": 3, "skip": 1, "output_size": 1, "unit_type": "LSTM", "num_layers": 1, "hidden_size": 20, "bias_fl": true}, "state_dict": {"rec.weight_ih_l0": [[-0.07766257226467133, -0.16309867799282074, 0.11838504672050476], [0.026415221393108368, -0.06510608643293381, 0.16250649094581604], [0.004696764051914215, 0.04115425422787666, -0.18163540959358215], [0.016428539529442787, 0.28571510314941406, 0.27073338627815247], [-0.009126291610300541, 0.1165335476398468, 0.0958615392446518], [-0.050365570932626724, -0.20848523080348969, 0.40905871987342834], [-0.008775544352829456, -0.042612746357917786, -0.046625249087810516], [0.04865950718522072, 0.03028303012251854, 0.24499599635601044], [0.00583378691226244, 0.09346314519643784, 0.10520404577255249], [0.013549480587244034, 0.5726892948150635, 0.11989662051200867], [0.005148259457200766, 0.1631666123867035, 0.09790130704641342], [-0.08017344772815704, 0.013429434970021248, 0.025798454880714417], [0.10147722065448761, -0.32914626598358154, -0.2820296287536621], [-0.07173644751310349, -0.6968250274658203, -0.4352964460849762], [0.05341236665844917, -0.2014535665512085, 0.08672460168600082], [0.0315113328397274, 0.16374926269054413, 0.28284767270088196], [-0.12322738766670227, 0.050148673355579376, 0.006132493726909161], [-7.356174319284037e-05, -0.0023461857344955206, -0.0019326276378706098], [0.022159021347761154, 1.0877000093460083, 0.15608543157577515], [0.0097555136308074, 0.15480391681194305, 0.3798433542251587], [-0.12213221192359924, -0.09583152830600739, 0.1457843780517578], [0.0302690789103508, 0.07352341711521149, 0.3437492847442627], [0.007034888491034508, -0.014038460329174995, -0.29093700647354126], [-0.011170216836035252, 0.14327114820480347, 0.1250806599855423], [-0.007332781329751015, 0.21049335598945618, 0.25502026081085205], [0.10584751516580582, 0.05789509043097496, 0.005016618873924017], [-0.008543266914784908, -0.05107789859175682, -0.04856704920530319], [0.020610759034752846, 0.11208715289831161, 0.28732746839523315], [0.013284381479024887, -0.04788017272949219, -0.00035053963074460626], [0.06459943950176239, 0.39111554622650146, 0.16637541353702545], [0.014593933708965778, 0.30623745918273926, 0.11073434352874756], [-0.14170947670936584, 0.13785339891910553, 0.12012940645217896], [-0.03940560668706894, 0.6772945523262024, 0.45829498767852783], [0.05253881588578224, 0.7949162125587463, 0.6242738366127014], [0.09584159404039383, -0.1744941771030426, 0.09183144569396973], [0.04299583658576012, -0.030189188197255135, 0.030327366665005684], [-0.19068102538585663, 0.11927547305822372, 0.0286389272660017], [-3.621821815613657e-05, -0.0018352692713961005, -0.0016068756813183427], [0.12664075195789337, -0.02692006714642048, 0.12133943289518356], [0.015036323107779026, -0.034595925360918045, 0.2311403751373291], [0.05836610868573189, 0.19759275019168854, -0.012598816305398941], [0.022282959893345833, 0.03957289084792137, 0.5652872920036316], [0.010865405201911926, 0.03301859647035599, -0.5412278175354004], [0.694232702255249, -0.05837574601173401, 0.044806819409132004], [-0.032528504729270935, -0.015383636578917503, -0.6760237216949463], [-0.5193644762039185, 0.047422297298908234, -0.03536650910973549], [-0.053518787026405334, -0.027464862912893295, 0.020239677280187607], [0.047419361770153046, -0.030988629907369614, -0.04673672467470169], [0.053380198776721954, -0.01937016099691391, -0.16663885116577148], [1.604195475578308, 0.010192726738750935, -0.11043345183134079], [-0.0057682921178638935, -0.7653294801712036, 0.082939013838768], [-0.3418462872505188, -0.11618124693632126, 0.04023263230919838], [-0.34698787331581116, -0.02456258423626423, -0.030222846195101738], [-0.5309786796569824, 0.0025524424854665995, 0.005851424764841795], [-0.08384274691343307, 0.02152450568974018, -0.04318174347281456], [1.0139610767364502, 0.02806604467332363, 0.3520171642303467], [-0.22413352131843567, -0.0961710512638092, 0.02910144254565239], [-0.004451236221939325, 0.04175425320863724, 0.046096887439489365], [-0.6450554132461548, 0.03579632192850113, 0.04767577722668648], [-0.15027299523353577, -0.10494506359100342, 0.49640706181526184], [-0.1529768854379654, -0.2059784233570099, 0.10130187124013901], [-0.008502843789756298, -0.09524860978126526, 0.08927014470100403], [0.013617528602480888, -0.01846938580274582, -0.33493420481681824], [0.015643328428268433, 0.3524233400821686, 0.3168898820877075], [0.11918816715478897, -0.035008594393730164, 0.003735494101420045], [-0.01527498010545969, 0.28178611397743225, 0.41307583451271057], [-0.008992280811071396, -0.04406673088669777, -0.047816015779972076], [0.04734243080019951, 0.06172556057572365, 0.2889881134033203], [0.005621795542538166, 0.09747488051652908, 0.10764827579259872], [0.03115944191813469, 0.47112080454826355, 0.24037614464759827], [-0.027300696820020676, -0.04835497960448265, -0.057098813354969025], [0.030440405011177063, 0.24568724632263184, 0.1525491178035736], [-0.05632977932691574, 0.2815576195716858, 0.2536589503288269], [0.03945927321910858, -0.17076565325260162, -0.1111067533493042], [0.08015802502632141, -0.12355836480855942, 0.15365567803382874], [0.031815849244594574, 0.1683933287858963, 0.3067823350429535], [-0.19364579021930695, 0.06610853970050812, 0.022151174023747444], [-9.600006887922063e-05, -0.0023603879380971193, -0.0019500715425238013], [0.012632195837795734, -0.10626659542322159, 0.16532257199287415], [0.013430426828563213, 0.15767605602741241, 0.3804132342338562]], "rec.weight_hh_l0": [[0.024901658296585083, -0.026635462418198586, -0.030177362263202667, 0.09591848403215408, 0.049485944211483, -0.09562324732542038, -0.0002803223324008286, -0.020516853779554367, -0.03070227801799774, -0.13606294989585876, 0.23436762392520905, 0.08314419537782669, 0.013296272605657578, -0.058130763471126556, 0.08902770280838013, -0.02387564815580845, 0.06033860146999359, 0.005240532103925943, -0.1531132459640503, -0.039741724729537964], [0.07209167629480362, 0.09323620796203613, -0.10338658094406128, -0.03923509269952774, -0.0002685982908587903, -0.0005713895079679787, -0.008593792095780373, -0.014776251278817654, -0.03496408835053444, 0.046485669910907745, 0.04079136997461319, 0.10367942601442337, -0.03539864346385002, -0.031974874436855316, 0.08380519598722458, 0.038048312067985535, -0.019361082464456558, -0.0018660095520317554, -0.11011168360710144, 0.08412310481071472], [0.0011411530431360006, -0.08754874020814896, 0.13292014598846436, 0.009672009386122227, 0.15219266712665558, -0.019711527973413467, 0.0015488186618313193, 0.1061667650938034, 0.0025289191398769617, 0.005110281985253096, 0.006709089502692223, 0.15195728838443756, 0.029635123908519745, 0.0058669401332736015, -0.01959375850856304, 0.06357155740261078, -0.04340018704533577, -0.0031075277365744114, -0.02837039716541767, -0.11012096703052521], [-0.04494043067097664, -0.08929931372404099, -0.052518222481012344, -0.00810178928077221, -0.0019912254065275192, 0.07023430615663528, 0.012724309228360653, 0.00227426178753376, 0.005479502957314253, 0.025707373395562172, -0.0088520348072052, 0.3344247341156006, -0.0030196220614016056, -0.018628058955073357, -0.02024739608168602, -0.02642040327191353, -0.070247583091259, -0.0041500357910990715, 0.0540015809237957, 0.021250976249575615], [0.00806484092026949, -0.024498535320162773, -0.020002061501145363, 0.039849285036325455, -0.04486195743083954, -0.011961733922362328, 0.0007940966170281172, 0.025576328858733177, 0.014612279832363129, -0.04489155858755112, -0.11973553895950317, 0.1736873835325241, 0.043629780411720276, 0.0068434313870966434, 0.06652002036571503, -0.0016976880142465234, -0.026506246998906136, -0.001700378954410553, -0.20572011172771454, 0.002372447866946459], [0.16210894286632538, 0.40464717149734497, -0.06810606271028519, 0.028206175193190575, -0.12915262579917908, -0.18711838126182556, 0.011453143320977688, -0.08819814026355743, 0.009928994812071323, 0.0024378381203860044, -0.051604144275188446, -0.506630003452301, 0.09085052460432053, -0.028935318812727928, -0.2043180614709854, 0.054856255650520325, 0.042385075241327286, 0.025347566232085228, 0.125312939286232, 0.17468716204166412], [0.00995562132447958, 0.012598049826920033, 0.02076924778521061, 0.0018684702226892114, -0.0015722372336313128, -0.0048216101713478565, -0.002615748904645443, 0.008612473495304585, -0.005737444385886192, -0.006849755998700857, 0.0028303416911512613, -0.020278913900256157, 0.002327469177544117, 0.003928079269826412, 0.005617655813694, 0.003769389120861888, 0.008825642988085747, -0.0007158912485465407, -0.0057875714264810085, -0.015581679530441761], [0.043572358787059784, 0.086005799472332, -0.12464756518602371, -0.04249716177582741, -0.09705502539873123, 0.010235211811959743, 0.014794841408729553, -0.03617928549647331, -0.009117885492742062, 0.020288856700062752, -0.04086284711956978, 0.03167048469185829, -0.029529929161071777, -0.024594593793153763, -0.04061467573046684, -0.008937123231589794, 0.051628049463033676, 0.0025962672661989927, 0.06134478375315666, 0.09883974492549896], [0.0035716479178518057, 0.00732955290004611, -0.007296290714293718, 0.01299894880503416, -0.039444081485271454, 0.0159908477216959, 0.002380301943048835, -0.012913300655782223, 0.009525997564196587, 0.006984469946473837, 0.010399133898317814, 0.10994289070367813, -0.0013135022018104792, -0.00044246745528653264, -0.04089445248246193, -0.005736629478633404, 0.005607324652373791, -0.0002109935157932341, 0.06424690037965775, 0.0041489736177027225], [0.023744948208332062, -0.12089367210865021, 0.11871638149023056, 0.0809621810913086, -0.0062335580587387085, 0.032276544719934464, -0.005578951444476843, -0.08436205983161926, 0.04999927058815956, -0.04502564296126366, -0.32441389560699463, 0.18465520441532135, -0.0031059791799634695, -0.047931648790836334, -0.02312941662967205, -0.06647919863462448, -0.1376274824142456, 0.0007061503711156547, 0.034884218126535416, -0.01660565473139286], [-0.04917014017701149, -0.03817473724484444, -0.006824159063398838, 0.024423854425549507, -0.01405099593102932, 0.002257993444800377, -0.002946827095001936, -0.003222369821742177, -0.008513381704688072, -0.0151949068531394, 0.04118574410676956, 0.18876822292804718, -0.022251080721616745, -0.02273142896592617, 0.027629712596535683, -0.0025636765640228987, -0.08549381047487259, 0.001700936583802104, 0.004515888635069132, -0.028467869386076927], [0.01244266889989376, -0.041177909821271896, 0.00010783183824969456, -0.002962061669677496, 0.0010589046869426966, -0.014355231076478958, -0.005755094811320305, 0.017595460638403893, -0.015176570974290371, -0.056418679654598236, -0.010998035781085491, 0.1626230776309967, 0.11360996216535568, 0.033153388649225235, 0.01414155401289463, -0.04974367842078209, -0.0662507489323616, -0.001298293238505721, -0.04301730543375015, -0.04251487925648689], [0.2741522789001465, 0.21364717185497284, -0.041718609631061554, -0.1438230276107788, -0.12814202904701233, 0.06782051920890808, -0.05913456901907921, 0.045069459825754166, 0.10031677782535553, 0.16709385812282562, 0.1569129228591919, -1.1237168312072754, 0.1273859292268753, 0.028123773634433746, -0.4369918406009674, 0.1645188182592392, 0.959344208240509, -0.0042173778638243675, 0.01629696413874626, 0.21372686326503754], [0.10090763866901398, 0.13875682651996613, -0.03303911164402962, -0.039160940796136856, -0.05843454599380493, -0.019057776778936386, -0.013273351825773716, -0.037580203264951706, 0.01800578646361828, -0.037456002086400986, -0.034783996641635895, -0.7200655937194824, 0.018800275400280952, -0.048080455511808395, -0.08430761098861694, -0.09129910916090012, 0.264493852853775, 0.005083325318992138, 0.053004950284957886, 0.09511984139680862], [-0.11044060438871384, -0.03969636186957359, -0.04202727600932121, -0.14381349086761475, 0.06262342631816864, 0.1277143359184265, 0.009382364340126514, 0.0062874979339540005, 0.002058838726952672, 0.19160696864128113, 0.20344649255275726, 0.01711978018283844, 0.0420016348361969, 0.005972384009510279, -0.1274699717760086, -0.00684167118743062, 0.041970524936914444, 0.0030316219199448824, 0.10732463002204895, 0.05873168259859085], [0.05634535849094391, -0.004074504598975182, -0.028196625411510468, -0.02002052031457424, -0.04274218529462814, 0.0048516616225242615, 0.006726578343659639, 0.0013174779014661908, 0.005240706726908684, 0.034244127571582794, 0.024660853669047356, 0.30989721417427063, 0.006515725050121546, -0.0074333990924060345, -0.07308312505483627, -0.0009277048520743847, -0.03026406280696392, -0.0035950811579823494, 0.05740346387028694, 0.02148209512233734], [0.07000305503606796, 0.010100233368575573, 0.011807960458099842, 0.11636025458574295, -0.031178489327430725, -0.06092089042067528, -0.005921530071645975, 0.027716808021068573, -0.02516099624335766, -0.1852504014968872, -0.03845449537038803, 0.09411609172821045, 0.021609101444482803, 0.013688432052731514, 0.06546563655138016, -0.03501102700829506, 0.06903749704360962, -0.002467147773131728, -0.10971905291080475, -0.06125766038894653], [-0.00034479654277674854, -0.00033854186767712235, 4.1358427552040666e-05, -0.0002788458368740976, 0.0005750522250309587, 0.0001641431008465588, 3.110892794211395e-05, 0.00048213827540166676, -0.00010725353058660403, 0.0001742998865665868, 0.0009181034401990473, -0.003681618720293045, 0.0001990113378269598, 0.00023305200738832355, -0.00042566083720885217, -0.00011417676432756707, 0.00038938227226026356, 1.2458502169465646e-05, -0.00012891109508927912, 0.0003942032053600997], [0.3809584081172943, 0.02043147385120392, 0.047419387847185135, 0.044936154037714005, -0.16929396986961365, 0.12258507311344147, -0.02022755891084671, -0.00031580840004608035, 0.11420948058366776, -0.03318450599908829, -0.8967291116714478, 0.07473640143871307, 0.051001302897930145, 0.08180073648691177, -0.22731086611747742, -0.025999579578638077, -0.029336001724004745, 0.004691569600254297, 0.14422348141670227, 0.011321092024445534], [0.014854947105050087, 0.1459020972251892, -0.12079797685146332, -0.02173786051571369, -0.15170800685882568, 0.08387751132249832, -0.0058005452156066895, -0.04357597976922989, -0.045648448169231415, -0.007977858185768127, -0.009962035343050957, 0.21720562875270844, 0.00669350940734148, 0.04065228998661041, 0.04122770205140114, -0.05685534328222275, -0.03884153068065643, -0.004145876970142126, -0.019171327352523804, 0.08787581324577332], [0.02364557981491089, -0.04833931848406792, -0.05003131181001663, 0.11706943809986115, 0.009213866665959358, -0.13466818630695343, -0.0021032930817455053, -0.023317160084843636, -0.041255492717027664, -0.19282357394695282, 0.16328059136867523, 0.11145154386758804, 0.07194435596466064, -0.029201041907072067, 0.10996607691049576, -0.06266652792692184, 0.0736573338508606, 0.006739847827702761, -0.1929163783788681, 0.013090166263282299], [0.12946005165576935, 0.05089287832379341, -0.15567517280578613, -0.0024842487182468176, -0.05163021758198738, -0.028385495766997337, -0.006636152043938637, -0.09317091107368469, -0.04663892090320587, -0.0010200986871495843, -0.057954780757427216, 0.30064788460731506, -0.08806238323450089, -0.049948256462812424, 0.14778423309326172, 0.0007391994586214423, -0.0413559153676033, -0.00406871922314167, -0.1229991540312767, 0.13748113811016083], [0.04909782111644745, -0.1183924451470375, 0.21655601263046265, 0.03561532497406006, 0.23642398416996002, -0.04409953951835632, -0.00047873903531581163, 0.16175396740436554, -0.014268272556364536, -0.008378555066883564, 0.048106931149959564, 0.2126644402742386, 0.027158906683325768, 0.007679919712245464, -0.011724903248250484, 0.10849672555923462, -0.017986124381422997, -0.002993123373016715, -0.11491603404283524, -0.15117646753787994], [-0.037990961223840714, 0.002742336830124259, 0.008900230750441551, 0.023755591362714767, 0.03489711880683899, 0.007720670197159052, 0.004519907757639885, -0.020914064720273018, -0.00992309208959341, -0.0025523724034428596, -0.0470854826271534, 0.19529110193252563, 0.037901584059000015, -0.025497693568468094, 0.06878674775362015, 0.029031306505203247, -0.07366616278886795, -0.008249745704233646, -0.09629763662815094, -0.055344320833683014], [0.002043528715148568, -0.09120931476354599, -0.10384345799684525, 0.09238828718662262, -0.05714046582579613, 0.02692212350666523, 0.006794167682528496, 0.033760108053684235, 0.021366223692893982, -0.06346558034420013, -0.15774205327033997, 0.34425216913223267, 0.03990750387310982, -0.008824434131383896, 0.10197240859270096, -0.01767217367887497, -0.05342568829655647, -0.003225527470931411, -0.3938402831554413, 0.04887959361076355], [0.08961810171604156, -0.49818071722984314, 0.4135942757129669, 0.055965740233659744, 0.10739319771528244, -0.2083556056022644, 0.005378629080951214, 0.05971095338463783, 0.09186039865016937, 0.06637626886367798, -0.01952110230922699, 0.6523710489273071, -0.0802348181605339, 0.03378921374678612, -0.2572186291217804, -0.034574318677186966, -0.062292322516441345, -0.0038754772394895554, 0.17735402286052704, -0.08937716484069824], [0.008818372152745724, 0.013242621906101704, 0.018107013776898384, 0.0027569166850298643, -0.002409697277471423, -0.004684102721512318, -0.00230516423471272, 0.007235206663608551, -0.0050700693391263485, -0.0072062076069414616, 0.006814268883317709, -0.0260221678763628, 0.0024097757413983345, 0.003534578485414386, 0.0062504298985004425, 0.0039025605656206608, 0.009874011389911175, -0.000933511124458164, -0.006657496560364962, -0.013470614328980446], [0.0992932915687561, -0.030705183744430542, -0.15806956589221954, 0.04923254996538162, -0.06523687392473221, -0.0060247438959777355, 0.013107278384268284, -0.06240156665444374, -0.007285401690751314, -0.07608449459075928, -0.05652373656630516, 0.10641388595104218, -0.02746685966849327, -0.030547533184289932, -0.05145413801074028, -0.03509598225355148, 0.06645801663398743, 0.006344696972519159, 0.08794796466827393, 0.11816255748271942], [-0.02185928076505661, -0.05558173358440399, 0.007254939991980791, 0.007906460203230381, 0.05644291639328003, 0.005301384255290031, 0.002182701835408807, 0.020509403198957443, 0.009098907932639122, 0.021382518112659454, 0.1153072714805603, 0.04517502337694168, -0.0028881037142127752, -0.0007521980442106724, -0.048980463296175, 0.02023698203265667, 0.0264146625995636, 0.000724603480193764, 0.07127206772565842, -0.002579950960353017], [-0.11074937134981155, -0.15660983324050903, 0.06889829784631729, 0.11224522441625595, 0.05784047394990921, -0.05821895971894264, -0.005185295827686787, -0.07046882063150406, 0.0427841953933239, -0.02413111738860607, -0.17378082871437073, 0.10652044415473938, -0.04892013967037201, -0.06488007307052612, 0.10146628320217133, -0.02954474836587906, -0.3843119740486145, 0.0035226924810558558, -0.12940837442874908, 0.0395168736577034], [-0.10321419686079025, -0.03081830032169819, 0.030977386981248856, 0.050801027566194534, -0.03679908066987991, 0.0007870630361139774, 0.0023063267581164837, -0.010468432679772377, -0.036416783928871155, -0.02432982623577118, 0.05963688716292381, 0.3282994031906128, -0.05051390081644058, -0.04036489129066467, 0.09819342195987701, 0.005794788710772991, -0.15268687903881073, 0.003094904124736786, -0.07675011456012726, -0.09241638332605362], [0.02898208238184452, -0.1290903240442276, 0.00705358712002635, 0.06873226910829544, 0.02770959585905075, -0.020514627918601036, -0.013698592782020569, 0.008882435970008373, -0.048008427023887634, -0.16369907557964325, -0.023922713473439217, 0.4222841262817383, 0.10720035433769226, 0.056060533970594406, 0.048814233392477036, -0.13575518131256104, -0.15966598689556122, -0.00302182137966156, -0.12908630073070526, -0.10478729754686356], [-0.153614804148674, -0.3759314715862274, 0.1721547544002533, 0.13041432201862335, 0.06779822707176208, -0.08119700103998184, -0.039908744394779205, -0.06770047545433044, -0.028342047706246376, -0.13170745968818665, -0.16768546402454376, 0.9413047432899475, -0.10869018733501434, -0.07392939180135727, 0.14385202527046204, -0.15985162556171417, -0.19701945781707764, -0.005296765826642513, -0.15435200929641724, -0.16627056896686554], [0.1068289652466774, -0.29587212204933167, 0.10121874511241913, 0.008616091683506966, 0.12537376582622528, 0.053766921162605286, 0.0013395242858678102, 0.09670419991016388, 0.023541174829006195, 0.019530629739165306, -0.0031779410783201456, 1.2590129375457764, 0.011971683241426945, 0.1048535630106926, -0.0707424134016037, 0.009488594718277454, -0.21720652282238007, -0.00691203074529767, -0.06116814538836479, -0.12759064137935638], [-0.12372907251119614, -0.09376448392868042, -0.04913229122757912, -0.20548437535762787, 0.09881410747766495, 0.10327261686325073, 0.008917242288589478, 0.041640136390924454, 0.02422330155968666, 0.26503679156303406, 0.12488742172718048, 0.025049561634659767, 0.042921993881464005, 0.016780376434326172, -0.15505918860435486, 0.059387803077697754, 0.010130362585186958, 0.003717671614140272, 0.20515818893909454, 0.054350536316633224], [0.09680287539958954, -0.04140166938304901, 0.011614621616899967, -0.019233139231801033, 0.022533487528562546, -0.0571439303457737, 0.0014898671070113778, 0.07412648946046829, 0.02532324194908142, 0.01606491208076477, 0.02467779442667961, 0.08530079573392868, 0.0013955517206341028, -0.01965986378490925, -0.11307378113269806, 0.03669038414955139, 0.028209472075104713, -0.0002259407046949491, 0.05420653522014618, 0.039325129240751266], [0.11898510903120041, -0.016467835754156113, 0.029772398993372917, 0.08033912628889084, -0.00724260276183486, -0.1061866283416748, -0.011650832369923592, 0.06018098071217537, -0.03451038524508476, -0.20830881595611572, -0.020511502400040627, 0.18062983453273773, 0.09579797834157944, 0.057894665747880936, 0.062324292957782745, -0.04262605309486389, 0.12541547417640686, -0.002191971056163311, -0.0944337397813797, -0.09131115674972534], [-0.0004891754360869527, -0.00019268553296569735, 0.00010866470984183252, -0.00038904062239453197, 0.0003981604822911322, 0.00013216813385952264, 2.6597821488394402e-05, 0.0005430895835161209, -0.00012550389510579407, 0.00024319921794813126, 0.0008788316627033055, -0.0030431048944592476, 0.00018516002455726266, 0.00028009642846882343, -0.0004069045535288751, -3.782462590606883e-05, 0.0006357966340146959, 1.8965360141010024e-05, -3.0747138225706294e-05, 0.00046894283150322735], [0.20930835604667664, 0.0003498852311167866, 0.015354874543845654, -0.090510293841362, 0.018428441137075424, 0.006758644245564938, 0.019720489159226418, 0.06430590897798538, 0.05420563742518425, 0.18046265840530396, -0.04926149919629097, 0.16735658049583435, 0.016385303810238838, 0.07109512388706207, -0.22823727130889893, 0.0432882234454155, 0.07032418251037598, 0.004263703245669603, 0.05458711460232735, 0.0014726548688486218], [-0.06211776286363602, 0.1883833408355713, -0.09946531057357788, 0.01768431067466736, -0.1905917227268219, 0.13178494572639465, -0.00844699889421463, -0.0479133240878582, -0.058851514011621475, -0.053845856338739395, -0.0018649337580427527, -0.01579754427075386, -0.04222854971885681, 0.0354362353682518, 0.01398448459804058, -0.086028553545475, 0.015069355256855488, -0.001336288987658918, -0.010883614420890808, 0.09503412991762161], [0.5377349853515625, 0.042817823588848114, 0.10981463640928268, 0.1690976321697235, 0.04722081869840622, 0.15204082429409027, -0.0770377665758133, -0.05956859886646271, 0.026640919968485832, -0.10422385483980179, 0.08225218951702118, -0.011437778361141682, -0.025449149310588837, -0.07246580719947815, 0.05877314880490303, -0.17529617249965668, 0.25490602850914, 0.020486902445554733, -0.6704535484313965, 0.09753508120775223], [0.02960442192852497, 0.33268600702285767, 0.06969794631004333, -0.07639659941196442, -0.2217525690793991, -0.3090483844280243, -0.010661831125617027, -0.18578387796878815, 0.07657516002655029, -0.10064611583948135, 0.08783403784036636, 0.002767614321783185, 0.012988983653485775, -0.09612852334976196, 0.030643105506896973, 0.03682508319616318, -0.015355140902101994, 0.010788924992084503, 0.036971889436244965, 0.3438357412815094], [-0.05059630796313286, -0.07031074911355972, 0.6260268092155457, 0.00036629376700147986, -0.2503034770488739, -0.36210790276527405, -0.05716098099946976, -0.054330628365278244, -0.011685573495924473, 0.09840091317892075, -0.020452285185456276, 0.05687982216477394, -0.07173139601945877, -0.03996766731142998, -0.07727683335542679, -0.07032012194395065, 0.007213088218122721, -0.012130822986364365, 0.04870191961526871, -0.23037926852703094], [-0.00747086014598608, 0.05962160602211952, -0.1142672672867775, -0.12384636700153351, 0.06164681538939476, -0.1786482334136963, -0.055787090212106705, 0.3887900114059448, -0.488785982131958, -1.0836858749389648, -0.006151481997221708, -0.05259079113602638, -0.08177768439054489, -0.17568136751651764, -0.2841639518737793, -0.5350660085678101, -0.2524779736995697, 0.032116081565618515, 0.13235172629356384, -0.20223359763622284], [-0.08314879238605499, -0.4024885296821594, -0.09166830778121948, 0.00026721920585259795, 0.6144816279411316, 0.05861109495162964, 0.0771893784403801, 0.22282631695270538, 0.05738415569067001, 0.02613772824406624, 0.2455383539199829, 0.0196896493434906, 0.06058014556765556, -0.10909361392259598, 0.06973349303007126, -0.006847616750746965, -0.007630037609487772, 0.0022285240702331066, -0.06775084882974625, -0.059957318007946014], [-0.26225754618644714, 0.004668815992772579, -0.11760464310646057, 0.1420656144618988, -0.07347540557384491, 0.33022233843803406, 0.1458379328250885, 0.4604530930519104, -0.12230794131755829, 0.027702556923031807, -0.008444697596132755, -0.11679185926914215, -0.16113916039466858, 0.08307396620512009, -0.2604799270629883, 0.49928924441337585, -0.10261296480894089, 0.00828629545867443, 0.24977612495422363, 0.0606764554977417], [-0.004519111476838589, -0.017515666782855988, -0.10572050511837006, -0.045875221490859985, 0.04648985341191292, 0.024583879858255386, -0.026537586003541946, 0.022671984508633614, 0.025355732068419456, 0.09486708045005798, -0.017300333827733994, -0.004420893266797066, -0.022271649911999702, -0.34982532262802124, -0.01953643187880516, -0.05575639009475708, -0.039700720459222794, -0.010682759806513786, -0.0021784889977425337, -0.024618428200483322], [-0.04398173838853836, 0.23401328921318054, -0.10617184638977051, -0.20689989626407623, 0.3953782021999359, -0.16617806255817413, 0.0963534414768219, 0.11112260818481445, 0.011806992813944817, -0.0762748122215271, -0.09211184829473495, -0.05916556715965271, -0.007822283543646336, 0.2447185516357422, -0.19613075256347656, 0.17576293647289276, 0.04013664275407791, -0.009053962305188179, -0.05584948509931564, -0.4349518418312073], [0.06955672800540924, -0.10758151859045029, -0.003839731216430664, 0.3959420323371887, -0.1376635581254959, -0.24974091351032257, 0.06190075725317001, -0.04602048918604851, 0.07209666073322296, 0.3650485873222351, -0.07279542088508606, 0.06555657088756561, 0.08105270564556122, 0.032106444239616394, -0.012511787004768848, 0.11546928435564041, 0.025970539078116417, -0.01313263550400734, 0.1345328986644745, 0.41571667790412903], [0.005696249194443226, 0.03770674765110016, 0.020200090482831, 0.1787109076976776, -0.007647690363228321, -0.0329802930355072, 0.0003090757236350328, -0.1379004269838333, 0.030744915828108788, 0.331846684217453, 0.0005671679391525686, 0.2652561664581299, 1.0093976259231567, -0.18006457388401031, 0.04215322062373161, 0.12679393589496613, 0.07845006138086319, -0.007418596651405096, -0.03455963730812073, 0.1490250676870346], [-0.11044002324342728, -0.30658695101737976, 0.04201808199286461, 0.03213169798254967, -0.17692160606384277, -0.14013546705245972, -0.019511213526129723, 0.06291978061199188, 0.12747609615325928, -0.0002550438803154975, 0.572364330291748, 0.04783124476671219, 0.009639292024075985, -0.0014550884952768683, -0.23626452684402466, -0.042556777596473694, 0.12092164158821106, 0.0038007344119250774, -0.07292915135622025, 0.10044783353805542], [0.0008030558819882572, 0.004308491013944149, -0.023508252575993538, 0.08079563081264496, -0.015543084591627121, -0.10213738679885864, -0.021176613867282867, 0.04673437401652336, -0.07835043966770172, -0.2019481658935547, -0.04647791385650635, 0.10674033313989639, 0.3309853971004486, 0.011200898326933384, -0.05522003397345543, -0.21683034300804138, -0.0962287038564682, 0.001969840144738555, 0.09083661437034607, -0.14278101921081543], [-0.04612087458372116, 0.059848520904779434, -0.05257786437869072, 0.8253930807113647, 0.03939322382211685, -0.08759410679340363, 0.0407891608774662, 0.010447928681969643, -0.07672730088233948, -0.43641895055770874, -0.04900231584906578, 0.048603605479002, 0.3650756776332855, 0.037976883351802826, -0.003558744676411152, 0.18998529016971588, 0.05022730305790901, -0.03100489266216755, -0.1660410761833191, -0.02024327591061592], [-0.10535740852355957, 0.10987278074026108, -0.1173095852136612, 0.09027592837810516, 0.0988500714302063, -0.729387104511261, -0.09698357433080673, 0.38510528206825256, -0.1065344586968422, -0.11652485281229019, -0.03875259310007095, 0.10214293748140335, -0.04011324793100357, 0.39592501521110535, -0.17698514461517334, 0.8260420560836792, -0.08968638628721237, 0.0018591310363262892, 0.04181303828954697, -0.009530979208648205], [-0.2640370726585388, 0.028877820819616318, -0.011795047670602798, 0.31354644894599915, -0.1373785436153412, 0.17940431833267212, -0.059526048600673676, 0.12616443634033203, 0.02978663332760334, -0.05750081315636635, -0.10901127755641937, 0.14473295211791992, 0.02381526306271553, -0.06692256778478622, 0.2355935275554657, -0.2805206775665283, -0.16251754760742188, -0.001320471870712936, -0.4731406271457672, 0.08253143727779388], [0.12960465252399445, -0.05792427435517311, -0.20852746069431305, 0.2924247682094574, 0.2349507063627243, -0.14454178512096405, -0.012327573262155056, 0.24235749244689941, -0.14120356738567352, 0.3192524015903473, -0.010511004365980625, -0.01862553134560585, 0.4056869149208069, -0.017718728631734848, 0.19044992327690125, -0.14553308486938477, 0.07908060401678085, 0.012339115142822266, -0.023802950978279114, -0.9207704663276672], [-0.08883589506149292, 0.0288003571331501, 0.036762285977602005, 0.43362191319465637, 0.12223254144191742, -0.032543279230594635, -0.05325465649366379, 0.09051980823278427, -0.09455307573080063, -0.45819446444511414, -0.009671388193964958, -0.1487046331167221, 0.09997730702161789, -0.025463176891207695, 0.014229784719645977, -0.24604570865631104, 0.1422492265701294, -0.013293752446770668, -0.20320484042167664, 0.06877723336219788], [0.009747901931405067, 0.002853917656466365, 0.024872470647096634, -0.022437790408730507, 0.026311907917261124, -0.00047956971684470773, -0.008123870007693768, 0.012017742730677128, 0.008032669313251972, 0.007546923588961363, 0.04073143005371094, -0.013045367784798145, 0.008970147930085659, -0.020039627328515053, -0.006359418388456106, -0.014086478389799595, 0.010158916935324669, -0.003875330789014697, -0.0040174368768930435, -0.022225825116038322], [0.048640765249729156, -0.05830550566315651, 0.07440317422151566, -1.5445506572723389, -0.02267846092581749, -0.2322990745306015, 0.07347259670495987, 0.09404440969228745, 0.06790527701377869, 0.8217706084251404, 0.08848042041063309, 0.17780707776546478, 0.49074411392211914, 0.03088889829814434, 0.030992362648248672, 0.2721591293811798, -0.10428902506828308, 0.06444601714611053, 1.0060780048370361, 0.08292338252067566], [0.03525542467832565, -0.5870141983032227, -0.01662370376288891, 0.09698425978422165, -0.4167332053184509, 0.5230175852775574, 0.0866674855351448, 0.20090562105178833, -0.4654487669467926, 0.07091563940048218, -0.024521544575691223, -0.08811107277870178, 0.01142209954559803, 0.14510424435138702, 0.04774769768118858, 0.579095184803009, 0.056430649012327194, 0.028565306216478348, -0.10585512965917587, 0.16336260735988617], [0.06945447623729706, 0.012116868048906326, -0.018530072644352913, 0.21966499090194702, -0.00816892459988594, -0.15277628600597382, -0.002164327073842287, -0.04208250716328621, -0.03549889847636223, -0.29961180686950684, 0.1447037011384964, -0.025208542123436928, 0.018692808225750923, -0.0672573372721672, 0.0932685062289238, -0.09530893713235855, 0.16108591854572296, 0.005971353035420179, -0.19213315844535828, -0.02254941128194332], [-0.02820442244410515, 0.13061116635799408, 0.08523311465978622, -0.0649876669049263, -0.09952934086322784, -0.11998490244150162, 0.005453904625028372, 0.03691402077674866, 0.030550120398402214, 0.013726268894970417, -0.16343137621879578, 0.026586882770061493, -0.08657927811145782, -0.07305210083723068, -0.17591528594493866, 0.05220215767621994, -0.017935875803232193, -0.003006348619237542, 0.3873738944530487, -0.04202327877283096], [-0.014864230528473854, -0.04200655594468117, 0.20122841000556946, 0.03217693418264389, 0.14841030538082123, -0.03157021477818489, -0.002515343716368079, 0.13520176708698273, 0.011876109056174755, 0.014913252554833889, -0.0492202490568161, 0.04611923173069954, 0.0234203077852726, 0.005641916301101446, -0.053117185831069946, 0.10178317874670029, 0.0022607543505728245, -0.005048742983490229, -0.036306750029325485, -0.16760654747486115], [-0.038340162485837936, -0.07792937755584717, -0.05168512463569641, -0.005656143184751272, -0.020615246146917343, 0.06596175581216812, 0.012226637452840805, -0.0030859552789479494, 0.004096376709640026, 0.018993547186255455, -0.04898351803421974, 0.3860958516597748, -0.0037530872505158186, -0.020606646314263344, -0.027086015790700912, -0.028164910152554512, -0.06846832484006882, -0.0037542155478149652, 0.047965798527002335, 0.013938304968178272], [0.240238755941391, -0.049351517111063004, -0.22424033284187317, -0.1975664645433426, -0.18704313039779663, 0.30702337622642517, 0.004253222607076168, -0.09209563583135605, -0.0722150057554245, 0.17311230301856995, -0.01777254417538643, -0.0692150741815567, 0.015276730991899967, 0.04594727233052254, 0.32992878556251526, -0.06742671132087708, 0.1475319117307663, 0.0023943011183291674, -0.20743846893310547, 0.2790166437625885], [0.16730216145515442, -0.03963502496480942, 0.0689612627029419, 0.012734293937683105, 0.03608793765306473, -0.010634005069732666, -0.006330444011837244, -0.007742781192064285, 0.0017000905936583877, -0.024178437888622284, -0.08230671286582947, 0.16846396028995514, 0.010210995562374592, -0.013301827013492584, -0.10579762607812881, -0.054555494338274, -0.04953596368432045, 0.010564940981566906, -0.20477773249149323, 0.0864126905798912], [0.009476936422288418, 0.013180676847696304, 0.021102240309119225, 0.0011486696312204003, -0.0016378099098801613, -0.004846619442105293, -0.0026266893837600946, 0.00917720515280962, -0.005671012680977583, -0.0064382427372038364, 0.0033813919872045517, -0.021601522341370583, 0.0025641892571002245, 0.004000995773822069, 0.00558765372261405, 0.004225616808980703, 0.009424137882888317, -0.0006212630541995168, -0.004697747528553009, -0.016077730804681778], [0.07063630223274231, 0.099818654358387, -0.12194603681564331, -0.015294649638235569, -0.13341042399406433, -0.02137015014886856, 0.012615184299647808, -0.03564564511179924, 0.0015848746988922358, 0.006443029269576073, -0.02945840172469616, 0.06522759050130844, -0.02188364788889885, -0.02508370392024517, -0.0660526305437088, -0.0011325140949338675, 0.08520852774381638, 0.0032281905878335238, 0.2064727395772934, 0.09230510145425797], [0.011544053442776203, 0.0031104846857488155, -0.008135317824780941, 0.017667260020971298, -0.03437771648168564, 0.017838824540376663, 0.0009985377546399832, -0.010050722397863865, 0.010846366174519062, 0.005682274699211121, 0.010012096725404263, 0.11347337067127228, -0.0022308817133307457, -0.0008397835190407932, -0.043959736824035645, 0.0012290116865187883, 0.01017762254923582, -0.0001968423166545108, 0.06676836311817169, 0.0071519301272928715], [0.013236748054623604, -0.12145410478115082, 0.06757001578807831, -0.0020223897881805897, 0.025904769077897072, 0.02731127105653286, 0.0007347984937950969, -0.040701333433389664, 0.0354066900908947, 0.03701513260602951, -0.12979528307914734, 0.3045092821121216, 0.012483309023082256, -0.02269107475876808, -0.04535213112831116, -0.02569606527686119, -0.14187444746494293, 0.00092169304843992, 0.08037001639604568, -0.013512695208191872], [-0.13159792125225067, -0.001596052316017449, 0.004029746167361736, 0.05323760211467743, -0.04158954694867134, -0.04879511892795563, -0.011925683356821537, -0.04767434671521187, -0.040715914219617844, -0.07216892391443253, -0.07411269843578339, 0.03075813688337803, -0.03533826023340225, -0.04984736442565918, 0.2170831561088562, -0.030704917386174202, -0.046271149069070816, -0.0015821069246158004, -0.2759091854095459, -0.02905440516769886], [0.03135639429092407, -0.11670888215303421, 0.042344335466623306, 0.05814436078071594, -0.014299449510872364, -0.06559872627258301, -0.009023331105709076, 0.02332477830350399, -0.007471487391740084, -0.056974802166223526, -0.0980769470334053, 0.5005057454109192, 0.009318572469055653, 0.00535496836528182, 0.0827614814043045, -0.04760298132896423, -0.19104085862636566, -0.0037023916374891996, -0.14664733409881592, -0.04170733317732811], [-0.13404490053653717, -0.04592869058251381, -0.006682079751044512, -0.02885238640010357, -0.01604701578617096, -0.07265602797269821, -0.007185511756688356, -0.024339625611901283, -0.0226896982640028, -0.036817457526922226, -0.10474270582199097, 0.19363878667354584, 0.12869949638843536, 0.02287553995847702, 0.12100290507078171, -0.047310784459114075, 0.036158088594675064, 0.0001902760996017605, 0.00822948943823576, -0.011118150316178799], [0.058137211948633194, 0.12933483719825745, -0.06020057573914528, -0.017982453107833862, -0.09519956260919571, 0.02563450112938881, -0.02426758036017418, -0.030807647854089737, 0.03087959624826908, -0.0018907051999121904, 0.019331134855747223, -0.22899028658866882, -0.010847358033061028, 0.05324578657746315, -0.03621470555663109, -0.004541174508631229, 0.05532616749405861, -2.788422989397077e-06, 0.04341673478484154, 0.06153511628508568], [-0.1268034279346466, -0.050945818424224854, -0.08117815107107162, -0.18116456270217896, 0.057578012347221375, 0.14514075219631195, 0.012750283814966679, 0.020083477720618248, 0.012312429957091808, 0.2311146855354309, 0.14945507049560547, 0.05405665934085846, 0.034313637763261795, 0.011300315149128437, -0.15168657898902893, 0.02535533905029297, 0.019594522193074226, 0.002649366855621338, 0.13450492918491364, 0.08135175704956055], [0.07668725401163101, 0.0011375173926353455, -0.033156756311655045, -0.024869240820407867, -0.05372271314263344, 0.0016608366277068853, 0.007450818549841642, 0.008146929554641247, 0.008580107241868973, 0.041989587247371674, 0.045797307044267654, 0.32123181223869324, 0.0074561769142746925, -0.005387474782764912, -0.10816722363233566, 0.004258996807038784, -0.02430625818669796, -0.002321124542504549, 0.07326707988977432, 0.011898458003997803], [0.1655348688364029, 0.019319875165820122, 0.021635597571730614, 0.1752644181251526, -0.035496022552251816, -0.11314350366592407, -0.010524870827794075, 0.0455821268260479, -0.05221259593963623, -0.3321244418621063, -0.04400322586297989, 0.1311938762664795, 0.045336831361055374, 0.012647544033825397, 0.10919193178415298, -0.06823361665010452, 0.1569100320339203, -0.002591303549706936, -0.2409062385559082, -0.061236437410116196], [-0.00021465930331032723, -0.00032920396188274026, 4.541738599073142e-05, -0.00013591676543001086, 0.0005674465792253613, 0.00016460608458146453, 2.84632060356671e-05, 0.00036177641595713794, -6.14399541518651e-05, 4.831436672247946e-05, 0.0009417171240784228, -0.0036914562806487083, 0.00016712617070879787, 0.00023155011876951903, -0.0003971146361436695, -0.0003309735911898315, 0.0004647544992621988, 8.62754495756235e-06, -2.6399659418530064e-06, 0.0005403265240602195], [-0.03638897091150284, -0.12394874542951584, 0.03016882762312889, -0.04986746236681938, 0.1613742858171463, -0.029794203117489815, 0.012766268104314804, 0.005594850517809391, 0.010440271347761154, 0.08535884320735931, 0.0331045500934124, 0.1713969111442566, 0.07976294308900833, -0.017711501568555832, -0.09622899442911148, -0.028762010857462883, 0.04919128119945526, 0.0032067156862467527, 0.16885478794574738, -0.029970604926347733], [0.048567578196525574, 0.1549094319343567, -0.13105790317058563, -0.00302461558021605, -0.16274678707122803, 0.09675437211990356, -0.006496048532426357, -0.040522217750549316, -0.053443096578121185, -0.028477421030402184, -0.02146962285041809, 0.2105656862258911, 0.00979330949485302, 0.0462820865213871, 0.05002826079726219, -0.05956145003437996, -0.014086863026022911, -0.0036373904440551996, -0.03452976420521736, 0.10998031497001648]], "rec.bias_ih_l0": [0.09402790665626526, 0.14851199090480804, 0.16140300035476685, 0.4118465483188629, 0.15277494490146637, -0.6937782168388367, -0.01731632463634014, 0.04242367297410965, 0.13996756076812744, 0.2357015460729599, 0.21636027097702026, 0.15613624453544617, -1.0118310451507568, -0.9751719832420349, 0.06569897383451462, 0.39407023787498474, 0.06669605523347855, -0.00586761673912406, 0.06955806910991669, 0.2674807012081146, 0.13715976476669312, 0.39778128266334534, 0.2296368032693863, 0.22959361970424652, 0.33064985275268555, 0.9223191738128662, -0.02386242337524891, 0.11945369839668274, 0.07293988019227982, 0.12114871293306351, 0.3705389201641083, 0.5159429907798767, 1.2495445013046265, 1.5845568180084229, 0.08369007706642151, 0.15162919461727142, 0.1624438315629959, -0.005094355437904596, 0.2294616550207138, -0.006236728746443987, -0.05605445057153702, -0.3230881989002228, 0.06764619052410126, 0.002487259916961193, 0.20361950993537903, -0.029859138652682304, 0.001663800561800599, 0.09496738016605377, 0.03281249850988388, -0.08870647847652435, 0.20534415543079376, 0.3017781674861908, -0.04066624864935875, -0.04529494419693947, -0.07061487436294556, -0.1141095981001854, -0.08056145906448364, -0.02657180093228817, -0.15706145763397217, -0.16070868074893951, -0.042641159147024155, 0.08010268956422806, 0.017375590279698372, 0.4758537709712982, -0.14887501299381256, 0.17837786674499512, -0.018687203526496887, 0.08687402307987213, 0.14585256576538086, 0.4065294861793518, -0.03190889582037926, 0.605072557926178, 0.334475040435791, -0.23113007843494415, 0.12277073413133621, 0.41984793543815613, 0.10279234498739243, -0.005890958942472935, 0.2135535478591919, 0.2559385895729065], "rec.bias_hh_l0": [0.09402790665626526, 0.14851199090480804, 0.16140300035476685, 0.4118465483188629, 0.15277618169784546, -0.6939764618873596, -0.01731632463634014, 0.04242367297410965, 0.13996756076812744, 0.2357015460729599, 0.21636027097702026, 0.1561375856399536, -1.0185519456863403, -0.9694783687591553, 0.06569897383451462, 0.39407023787498474, 0.06669605523347855, -0.00586761673912406, 0.06955806165933609, 0.2674807012081146, 0.13715976476669312, 0.39778226613998413, 0.2296368032693863, 0.22959361970424652, 0.3301698863506317, 0.9252758622169495, -0.02386242337524891, 0.11945369839668274, 0.07293988019227982, 0.12114883214235306, 0.3705389201641083, 0.5086859464645386, 1.2498348951339722, 1.58617103099823, 0.08369007706642151, 0.15162919461727142, 0.1624438315629959, -0.005094355437904596, 0.2289009690284729, -0.006236728746443987, -0.08264834433794022, -0.3246574401855469, 0.06764665991067886, -0.00811971165239811, 0.1853540688753128, 0.09269504994153976, 0.0016652860213071108, 0.0689379945397377, 0.032784603536129, -0.06956928223371506, 0.20905184745788574, 0.29527735710144043, 0.047105301171541214, -0.06256423890590668, -0.029213879257440567, -0.1571795791387558, -0.09647815674543381, -0.012991215102374554, -0.05131954327225685, -0.15942223370075226, -0.042641155421733856, 0.08010361343622208, 0.017375590279698372, 0.4758537709712982, -0.14868852496147156, 0.1783783882856369, -0.018687203526496887, 0.08687402307987213, 0.14585256576538086, 0.4065294861793518, -0.03190889582037926, 0.6053200364112854, 0.3344757556915283, -0.22748129069805145, 0.12277073413133621, 0.41984793543815613, 0.10279234498739243, -0.005890958942472935, 0.21416619420051575, 0.2559385895729065], "lin.weight": [[0.09536360949277878, -0.07359949499368668, 0.08133432269096375, -0.017050692811608315, -0.04940231889486313, 0.661223828792572, -0.029258081689476967, -0.37918588519096375, 0.11531146615743637, 0.009970340877771378, 0.037638429552316666, -0.014332826249301434, 0.24003595113754272, 0.15633025765419006, 0.16163858771324158, -0.846551775932312, 0.0870523452758789, -0.00544876791536808, -0.02090846188366413, -0.05058681219816208]], "lin.bias": [0.024307724088430405]}}